<?xml version="1.0"?>
<MethodSetup Method="BDT::BDTG">
  <GeneralInfo>
    <Info name="TMVA Release" value="4.2.0 [262656]"/>
    <Info name="ROOT Release" value="5.34/25 [336409]"/>
    <Info name="Creator" value="weiming"/>
    <Info name="Date" value="Fri Aug  3 13:08:16 2018"/>
    <Info name="Host" value="Linux lcgapp-slc6-physical1.cern.ch 2.6.32-504.1.3.el6.x86_64 #1 SMP Wed Nov 12 06:58:35 CET 2014 x86_64 x86_64 x86_64 GNU/Linux"/>
    <Info name="Dir" value="/global/projecta/projectdirs/atlas/weiming/testareaSL5/AxAODsData/tthAnaTop/mytmvav2602"/>
    <Info name="Training events" value="5378"/>
    <Info name="TrainingTime" value="3.77867889e+00"/>
    <Info name="AnalysisType" value="Classification"/>
  </GeneralInfo>
  <Options>
    <Option name="V" modified="Yes">False</Option>
    <Option name="VerbosityLevel" modified="No">Default</Option>
    <Option name="VarTransform" modified="No">None</Option>
    <Option name="H" modified="Yes">False</Option>
    <Option name="CreateMVAPdfs" modified="No">False</Option>
    <Option name="IgnoreNegWeightsInTraining" modified="No">False</Option>
    <Option name="NTrees" modified="Yes">1000</Option>
    <Option name="MaxDepth" modified="Yes">2</Option>
    <Option name="MinNodeSize" modified="Yes">2.5%</Option>
    <Option name="nCuts" modified="Yes">20</Option>
    <Option name="BoostType" modified="Yes">Grad</Option>
    <Option name="AdaBoostR2Loss" modified="No">quadratic</Option>
    <Option name="UseBaggedBoost" modified="Yes">True</Option>
    <Option name="Shrinkage" modified="Yes">1.000000e-01</Option>
    <Option name="AdaBoostBeta" modified="No">5.000000e-01</Option>
    <Option name="UseRandomisedTrees" modified="No">False</Option>
    <Option name="UseNvars" modified="No">3</Option>
    <Option name="UsePoissonNvars" modified="No">True</Option>
    <Option name="BaggedSampleFraction" modified="Yes">5.000000e-01</Option>
    <Option name="UseYesNoLeaf" modified="No">True</Option>
    <Option name="NegWeightTreatment" modified="No">ignorenegweightsintraining</Option>
    <Option name="Css" modified="No">1.000000e+00</Option>
    <Option name="Cts_sb" modified="No">1.000000e+00</Option>
    <Option name="Ctb_ss" modified="No">1.000000e+00</Option>
    <Option name="Cbb" modified="No">1.000000e+00</Option>
    <Option name="NodePurityLimit" modified="No">5.000000e-01</Option>
    <Option name="SeparationType" modified="No">giniindex</Option>
    <Option name="DoBoostMonitor" modified="No">False</Option>
    <Option name="UseFisherCuts" modified="No">False</Option>
    <Option name="MinLinCorrForFisher" modified="No">8.000000e-01</Option>
    <Option name="UseExclusiveVars" modified="No">False</Option>
    <Option name="DoPreselection" modified="No">False</Option>
    <Option name="SigToBkgFraction" modified="No">1.000000e+00</Option>
    <Option name="PruneMethod" modified="No">nopruning</Option>
    <Option name="PruneStrength" modified="No">0.000000e+00</Option>
    <Option name="PruningValFraction" modified="No">5.000000e-01</Option>
    <Option name="nEventsMin" modified="No">0</Option>
    <Option name="UseBaggedGrad" modified="No">False</Option>
    <Option name="GradBaggingFraction" modified="No">5.000000e-01</Option>
    <Option name="UseNTrainEvents" modified="No">0</Option>
    <Option name="NNodesMax" modified="No">0</Option>
  </Options>
  <Variables NVar="8">
    <Variable VarIndex="0" Expression="Njets25&lt;6?Njets25:5" Label="Njets25&lt;6?Njets25:5" Title="Njets25&lt;6?Njets25:5" Unit="" Internal="Njets25_6_Njets25:5" Type="F" Min="3.00000000e+00" Max="5.00000000e+00"/>
    <Variable VarIndex="1" Expression="Nbjets25&lt;4?Nbjets25:3" Label="Nbjets25&lt;4?Nbjets25:3" Title="Nbjets25&lt;4?Nbjets25:3" Unit="" Internal="Nbjets25_4_Nbjets25:3" Type="F" Min="1.00000000e+00" Max="3.00000000e+00"/>
    <Variable VarIndex="2" Expression="Htjets" Label="Htjets" Title="Htjets" Unit="" Internal="Htjets" Type="F" Min="8.17675234e+04" Max="2.29371200e+06"/>
    <Variable VarIndex="3" Expression="Leadtaupt" Label="Leadtaupt" Title="Leadtaupt" Unit="" Internal="Leadtaupt" Type="F" Min="2.56350079e+01" Max="7.13728394e+02"/>
    <Variable VarIndex="4" Expression="Subtaupt" Label="Subtaupt" Title="Subtaupt" Unit="" Internal="Subtaupt" Type="F" Min="2.50002098e+01" Max="2.27774796e+02"/>
    <Variable VarIndex="5" Expression="Mtautau" Label="Mtautau" Title="Mtautau" Unit="" Internal="Mtautau" Type="F" Min="1.21202507e+01" Max="5.59019714e+02"/>
    <Variable VarIndex="6" Expression="Jjdr" Label="Jjdr" Title="Jjdr" Unit="" Internal="Jjdr" Type="F" Min="3.98575306e-01" Max="3.33621979e+00"/>
    <Variable VarIndex="7" Expression="fabs(Etamax)" Label="fabs(Etamax)" Title="fabs(Etamax)" Unit="" Internal="fabs_Etamax_" Type="F" Min="6.65575918e-03" Max="2.49700212e+00"/>
  </Variables>
  <Spectators NSpec="0"/>
  <Classes NClass="2">
    <Class Name="Signal" Index="0"/>
    <Class Name="Background" Index="1"/>
  </Classes>
  <Transformations NTransformations="0"/>
  <MVAPdfs/>
  <Weights NTrees="1000" AnalysisType="1">
    <BinaryTree type="DecisionTree" boostWeight="1.0000000000000000e+00" itree="0">
      <Node pos="s" depth="0" NCoef="0" IVar="3" Cut="5.0596893310546875e+01" cType="1" res="-4.8350589349865913e-03" rms="4.9997663497924805e-01" purity="4.9516496062278748e-01" nType="0">
        <Node pos="l" depth="1" NCoef="0" IVar="2" Cut="3.9514346875000000e+05" cType="1" res="-2.2773353755474091e-01" rms="4.4512632489204407e-01" purity="2.7226647734642029e-01" nType="0">
          <Node pos="l" depth="2" NCoef="0" IVar="-1" Cut="0.0000000000000000e+00" cType="1" res="-1.2863822281360626e-02" rms="4.0912556648254395e-01" purity="2.1256951987743378e-01" nType="-99"/>
          <Node pos="r" depth="2" NCoef="0" IVar="-1" Cut="0.0000000000000000e+00" cType="1" res="1.1555399745702744e-02" rms="4.9004980921745300e-01" purity="5.9925305843353271e-01" nType="-99"/>
        </Node>
        <Node pos="r" depth="1" NCoef="0" IVar="5" Cut="1.2162515258789062e+02" cType="1" res="1.6580818593502045e-01" rms="4.7170716524124146e-01" purity="6.6580820083618164e-01" nType="0">
          <Node pos="l" depth="2" NCoef="0" IVar="-1" Cut="0.0000000000000000e+00" cType="1" res="3.0723387375473976e-02" rms="4.3106567859649658e-01" purity="7.5334244966506958e-01" nType="-99"/>
          <Node pos="r" depth="2" NCoef="0" IVar="-1" Cut="0.0000000000000000e+00" cType="1" res="-3.2183662056922913e-02" rms="3.9781275391578674e-01" purity="1.9710563123226166e-01" nType="-99"/>
        </Node>
      </Node>
    </BinaryTree>
    <BinaryTree type="DecisionTree" boostWeight="1.0000000000000000e+00" itree="1">
      <Node pos="s" depth="0" NCoef="0" IVar="3" Cut="6.3756454467773438e+01" cType="1" res="-1.2539708986878395e-02" rms="4.9426984786987305e-01" purity="4.9178853631019592e-01" nType="0">
        <Node pos="l" depth="1" NCoef="0" IVar="6" Cut="1.0736033916473389e+00" cType="1" res="-1.8878537416458130e-01" rms="4.6004867553710938e-01" purity="3.1143540143966675e-01" nType="0">
          <Node pos="l" depth="2" NCoef="0" IVar="-1" Cut="0.0000000000000000e+00" cType="1" res="-2.0004762336611748e-03" rms="4.9608245491981506e-01" purity="4.7128000855445862e-01" nType="-99"/>
          <Node pos="r" depth="2" NCoef="0" IVar="-1" Cut="0.0000000000000000e+00" cType="1" res="-1.3084565289318562e-02" rms="3.8718974590301514e-01" purity="1.8643739819526672e-01" nType="-99"/>
        </Node>
        <Node pos="r" depth="1" NCoef="0" IVar="5" Cut="1.2549586486816406e+02" cType="1" res="2.4814143776893616e-01" rms="4.2273834347724915e-01" purity="7.5854492187500000e-01" nType="0">
          <Node pos="l" depth="2" NCoef="0" IVar="-1" Cut="0.0000000000000000e+00" cType="1" res="4.5350030064582825e-02" rms="3.6610260605812073e-01" purity="8.4011769294738770e-01" nType="-99"/>
          <Node pos="r" depth="2" NCoef="0" IVar="-1" Cut="0.0000000000000000e+00" cType="1" res="-1.6384407877922058e-02" rms="4.5202425122261047e-01" purity="2.8628507256507874e-01" nType="-99"/>
        </Node>
      </Node>
    </BinaryTree>
    <BinaryTree type="DecisionTree" boostWeight="1.0000000000000000e+00" itree="2">
      <Node pos="s" depth="0" NCoef="0" IVar="3" Cut="4.7331535339355469e+01" cType="1" res="-3.5439498722553253e-02" rms="4.8739501833915710e-01" purity="4.7316652536392212e-01" nType="0">
        <Node pos="l" depth="1" NCoef="0" IVar="2" Cut="3.5754603125000000e+05" cType="1" res="-2.5495061278343201e-01" rms="4.2340824007987976e-01" purity="2.3668217658996582e-01" nType="0">
          <Node pos="l" depth="2" NCoef="0" IVar="-1" Cut="0.0000000000000000e+00" cType="1" res="-1.4323079027235508e-02" rms="3.8348057866096497e-01" purity="1.7960807681083679e-01" nType="-99"/>
          <Node pos="r" depth="2" NCoef="0" IVar="-1" Cut="0.0000000000000000e+00" cType="1" res="-1.3859184691682458e-03" rms="4.9887943267822266e-01" purity="4.7831016778945923e-01" nType="-99"/>
        </Node>
        <Node pos="r" depth="1" NCoef="0" IVar="5" Cut="1.2003274536132812e+02" cType="1" res="9.4645842909812927e-02" rms="4.7603958845138550e-01" purity="6.1331045627593994e-01" nType="0">
          <Node pos="l" depth="2" NCoef="0" IVar="-1" Cut="0.0000000000000000e+00" cType="1" res="1.9343798980116844e-02" rms="4.5524027943611145e-01" purity="6.9413977861404419e-01" nType="-99"/>
          <Node pos="r" depth="2" NCoef="0" IVar="-1" Cut="0.0000000000000000e+00" cType="1" res="-1.8196513876318932e-02" rms="3.8386756181716919e-01" purity="1.8389344215393066e-01" nType="-99"/>
        </Node>
      </Node>
    </BinaryTree>
    <BinaryTree type="DecisionTree" boostWeight="1.0000000000000000e+00" itree="3">
      <Node pos="s" depth="0" NCoef="0" IVar="3" Cut="4.8025993347167969e+01" cType="1" res="-2.8580026701092720e-02" rms="4.8449894785881042e-01" purity="4.8220789432525635e-01" nType="0">
        <Node pos="l" depth="1" NCoef="0" IVar="7" Cut="1.4454306364059448e+00" cType="1" res="-2.4533663690090179e-01" rms="4.2585361003875732e-01" purity="2.4109424650669098e-01" nType="0">
          <Node pos="l" depth="2" NCoef="0" IVar="-1" Cut="0.0000000000000000e+00" cType="1" res="-9.0093985199928284e-03" rms="4.8327919840812683e-01" purity="3.8288614153862000e-01" nType="-99"/>
          <Node pos="r" depth="2" NCoef="0" IVar="-1" Cut="0.0000000000000000e+00" cType="1" res="-8.4309661760926247e-03" rms="3.2183733582496643e-01" purity="1.1799058318138123e-01" nType="-99"/>
        </Node>
        <Node pos="r" depth="1" NCoef="0" IVar="5" Cut="1.2182282257080078e+02" cType="1" res="1.2333400547504425e-01" rms="4.6491932868957520e-01" purity="6.5119260549545288e-01" nType="0">
          <Node pos="l" depth="2" NCoef="0" IVar="-1" Cut="0.0000000000000000e+00" cType="1" res="2.1529825404286385e-02" rms="4.4510978460311890e-01" purity="7.1855372190475464e-01" nType="-99"/>
          <Node pos="r" depth="2" NCoef="0" IVar="-1" Cut="0.0000000000000000e+00" cType="1" res="-2.4159891530871391e-02" rms="4.0236499905586243e-01" purity="2.0583832263946533e-01" nType="-99"/>
        </Node>
      </Node>
    </BinaryTree>
    <BinaryTree type="DecisionTree" boostWeight="1.0000000000000000e+00" itree="4">
      <Node pos="s" depth="0" NCoef="0" IVar="3" Cut="4.8025993347167969e+01" cType="1" res="-1.8134601414203644e-02" rms="4.7906655073165894e-01" purity="4.9482440948486328e-01" nType="0">
        <Node pos="l" depth="1" NCoef="0" IVar="4" Cut="3.4556232452392578e+01" cType="1" res="-2.3239906132221222e-01" rms="4.3007370829582214e-01" purity="2.4925525486469269e-01" nType="0">
          <Node pos="l" depth="2" NCoef="0" IVar="-1" Cut="0.0000000000000000e+00" cType="1" res="-1.0367185808718204e-02" rms="3.8709875941276550e-01" purity="1.8605341017246246e-01" nType="-99"/>
          <Node pos="r" depth="2" NCoef="0" IVar="-1" Cut="0.0000000000000000e+00" cType="1" res="2.8995806351304054e-02" rms="4.7108483314514160e-01" purity="6.5984570980072021e-01" nType="-99"/>
        </Node>
        <Node pos="r" depth="1" NCoef="0" IVar="5" Cut="1.2162515258789062e+02" cType="1" res="1.1944770067930222e-01" rms="4.5792743563652039e-01" purity="6.5250784158706665e-01" nType="0">
          <Node pos="l" depth="2" NCoef="0" IVar="-1" Cut="0.0000000000000000e+00" cType="1" res="2.9441330581903458e-02" rms="4.2821729183197021e-01" purity="7.5086921453475952e-01" nType="-99"/>
          <Node pos="r" depth="2" NCoef="0" IVar="-1" Cut="0.0000000000000000e+00" cType="1" res="-1.7721582204103470e-02" rms="3.6181169748306274e-01" purity="1.5835052728652954e-01" nType="-99"/>
        </Node>
      </Node>
    </BinaryTree>
    <BinaryTree type="DecisionTree" boostWeight="1.0000000000000000e+00" itree="5">
      <Node pos="s" depth="0" NCoef="0" IVar="3" Cut="5.8512496948242188e+01" cType="1" res="-4.9193901941180229e-03" rms="4.7661316394805908e-01" purity="5.1618695259094238e-01" nType="0">
        <Node pos="l" depth="1" NCoef="0" IVar="3" Cut="3.8228977203369141e+01" cType="1" res="-1.5936607122421265e-01" rms="4.6062117815017700e-01" purity="3.3307811617851257e-01" nType="0">
          <Node pos="l" depth="2" NCoef="0" IVar="-1" Cut="0.0000000000000000e+00" cType="1" res="-1.7410697415471077e-02" rms="3.6825478076934814e-01" purity="1.6326773166656494e-01" nType="-99"/>
          <Node pos="r" depth="2" NCoef="0" IVar="-1" Cut="0.0000000000000000e+00" cType="1" res="-2.5623633991926908e-03" rms="4.8972237110137939e-01" purity="4.6946239471435547e-01" nType="-99"/>
        </Node>
        <Node pos="r" depth="1" NCoef="0" IVar="5" Cut="1.2356035614013672e+02" cType="1" res="1.5682235360145569e-01" rms="4.3785321712493896e-01" purity="7.0794469118118286e-01" nType="0">
          <Node pos="l" depth="2" NCoef="0" IVar="-1" Cut="0.0000000000000000e+00" cType="1" res="3.0961221083998680e-02" rms="4.0974950790405273e-01" purity="7.8507238626480103e-01" nType="-99"/>
          <Node pos="r" depth="2" NCoef="0" IVar="-1" Cut="0.0000000000000000e+00" cType="1" res="-2.1778685972094536e-02" rms="4.1675034165382385e-01" purity="2.2498722374439240e-01" nType="-99"/>
        </Node>
      </Node>
    </BinaryTree>
    <BinaryTree type="DecisionTree" boostWeight="1.0000000000000000e+00" itree="6">
      <Node pos="s" depth="0" NCoef="0" IVar="3" Cut="5.0441848754882812e+01" cType="1" res="-9.5924474298954010e-03" rms="4.7248488664627075e-01" purity="5.1682227849960327e-01" nType="0">
        <Node pos="l" depth="1" NCoef="0" IVar="6" Cut="1.0819758176803589e+00" cType="1" res="-2.0603540539741516e-01" rms="4.4120308756828308e-01" purity="2.7490556240081787e-01" nType="0">
          <Node pos="l" depth="2" NCoef="0" IVar="-1" Cut="0.0000000000000000e+00" cType="1" res="-3.9680292829871178e-03" rms="4.8640578985214233e-01" purity="4.1697606444358826e-01" nType="-99"/>
          <Node pos="r" depth="2" NCoef="0" IVar="-1" Cut="0.0000000000000000e+00" cType="1" res="-1.5945304185152054e-02" rms="3.6716619133949280e-01" purity="1.6370196640491486e-01" nType="-99"/>
        </Node>
        <Node pos="r" depth="1" NCoef="0" IVar="0" Cut="3.0952382087707520e+00" cType="1" res="1.2733833491802216e-01" rms="4.4442752003669739e-01" purity="6.8545061349868774e-01" nType="0">
          <Node pos="l" depth="2" NCoef="0" IVar="-1" Cut="0.0000000000000000e+00" cType="1" res="-6.4935362897813320e-03" rms="4.8080813884735107e-01" purity="4.7691246867179871e-01" nType="-99"/>
          <Node pos="r" depth="2" NCoef="0" IVar="-1" Cut="0.0000000000000000e+00" cType="1" res="3.8508921861648560e-02" rms="3.6739325523376465e-01" purity="8.1839370727539062e-01" nType="-99"/>
        </Node>
      </Node>
    </BinaryTree>
    <BinaryTree type="DecisionTree" boostWeight="1.0000000000000000e+00" itree="7">
      <Node pos="s" depth="0" NCoef="0" IVar="3" Cut="5.8401359558105469e+01" cType="1" res="-3.1927313655614853e-02" rms="4.6592375636100769e-01" purity="4.9476042389869690e-01" nType="0">
        <Node pos="l" depth="1" NCoef="0" IVar="7" Cut="1.3206982612609863e+00" cType="1" res="-1.8449600040912628e-01" rms="4.4774967432022095e-01" purity="3.0311870574951172e-01" nType="0">
          <Node pos="l" depth="2" NCoef="0" IVar="-1" Cut="0.0000000000000000e+00" cType="1" res="-4.1103628464043140e-03" rms="4.8425623774528503e-01" purity="4.2352664470672607e-01" nType="-99"/>
          <Node pos="r" depth="2" NCoef="0" IVar="-1" Cut="0.0000000000000000e+00" cType="1" res="-1.4592831954360008e-02" rms="3.6060974001884460e-01" purity="1.6706855595111847e-01" nType="-99"/>
        </Node>
        <Node pos="r" depth="1" NCoef="0" IVar="5" Cut="1.2320344543457031e+02" cType="1" res="1.3968576490879059e-01" rms="4.2441612482070923e-01" purity="7.1032375097274780e-01" nType="0">
          <Node pos="l" depth="2" NCoef="0" IVar="-1" Cut="0.0000000000000000e+00" cType="1" res="2.8417581692337990e-02" rms="3.8817083835601807e-01" purity="8.0958646535873413e-01" nType="-99"/>
          <Node pos="r" depth="2" NCoef="0" IVar="-1" Cut="0.0000000000000000e+00" cType="1" res="-2.1174885332584381e-02" rms="3.6851817369461060e-01" purity="1.6297127306461334e-01" nType="-99"/>
        </Node>
      </Node>
    </BinaryTree>
    <BinaryTree type="DecisionTree" boostWeight="1.0000000000000000e+00" itree="8">
      <Node pos="s" depth="0" NCoef="0" IVar="3" Cut="5.0330711364746094e+01" cType="1" res="-3.1757719814777374e-02" rms="4.6472710371017456e-01" purity="5.0008225440979004e-01" nType="0">
        <Node pos="l" depth="1" NCoef="0" IVar="7" Cut="1.4293079376220703e+00" cType="1" res="-2.0075008273124695e-01" rms="4.3502360582351685e-01" purity="2.6824066042900085e-01" nType="0">
          <Node pos="l" depth="2" NCoef="0" IVar="-1" Cut="0.0000000000000000e+00" cType="1" res="-8.4412405267357826e-03" rms="4.7730576992034912e-01" purity="3.7817698717117310e-01" nType="-99"/>
          <Node pos="r" depth="2" NCoef="0" IVar="-1" Cut="0.0000000000000000e+00" cType="1" res="-1.3571453280746937e-02" rms="3.4078392386436462e-01" purity="1.3935767114162445e-01" nType="-99"/>
        </Node>
        <Node pos="r" depth="1" NCoef="0" IVar="5" Cut="1.2476876068115234e+02" cType="1" res="8.3530694246292114e-02" rms="4.4880905747413635e-01" purity="6.5824711322784424e-01" nType="0">
          <Node pos="l" depth="2" NCoef="0" IVar="-1" Cut="0.0000000000000000e+00" cType="1" res="1.6217008233070374e-02" rms="4.3679115176200867e-01" purity="7.2605490684509277e-01" nType="-99"/>
          <Node pos="r" depth="2" NCoef="0" IVar="-1" Cut="0.0000000000000000e+00" cType="1" res="-2.1850472316145897e-02" rms="3.8956445455551147e-01" purity="1.8739669024944305e-01" nType="-99"/>
        </Node>
      </Node>
    </BinaryTree>
    <BinaryTree type="DecisionTree" boostWeight="1.0000000000000000e+00" itree="9">
      <Node pos="s" depth="0" NCoef="0" IVar="3" Cut="6.3623855590820312e+01" cType="1" res="-3.1102264299988747e-02" rms="4.5947337150573730e-01" purity="4.9820163846015930e-01" nType="0">
        <Node pos="l" depth="1" NCoef="0" IVar="2" Cut="2.2709168750000000e+05" cType="1" res="-1.6652561724185944e-01" rms="4.5320463180541992e-01" purity="3.2569488883018494e-01" nType="0">
          <Node pos="l" depth="2" NCoef="0" IVar="-1" Cut="0.0000000000000000e+00" cType="1" res="-1.0842878371477127e-02" rms="3.5222196578979492e-01" purity="1.5401153266429901e-01" nType="-99"/>
          <Node pos="r" depth="2" NCoef="0" IVar="-1" Cut="0.0000000000000000e+00" cType="1" res="-2.4954562541097403e-03" rms="4.8413217067718506e-01" purity="4.6024107933044434e-01" nType="-99"/>
        </Node>
        <Node pos="r" depth="1" NCoef="0" IVar="5" Cut="1.2569354248046875e+02" cType="1" res="1.7144019901752472e-01" rms="3.8887056708335876e-01" purity="7.5620687007904053e-01" nType="0">
          <Node pos="l" depth="2" NCoef="0" IVar="-1" Cut="0.0000000000000000e+00" cType="1" res="3.6512147635221481e-02" rms="3.4435644745826721e-01" purity="8.5229295492172241e-01" nType="-99"/>
          <Node pos="r" depth="2" NCoef="0" IVar="-1" Cut="0.0000000000000000e+00" cType="1" res="-2.1195342764258385e-02" rms="4.0531671047210693e-01" purity="2.0911362767219543e-01" nType="-99"/>
        </Node>
      </Node>
    </BinaryTree>
    <BinaryTree type="DecisionTree" boostWeight="1.0000000000000000e+00" itree="10">
      <Node pos="s" depth="0" NCoef="0" IVar="2" Cut="2.5777114062500000e+05" cType="1" res="-2.7634095400571823e-02" rms="4.6052241325378418e-01" purity="5.1202756166458130e-01" nType="0">
        <Node pos="l" depth="1" NCoef="0" IVar="4" Cut="3.5432937622070312e+01" cType="1" res="-1.7986537516117096e-01" rms="4.3878242373466492e-01" purity="3.3570536971092224e-01" nType="0">
          <Node pos="l" depth="2" NCoef="0" IVar="-1" Cut="0.0000000000000000e+00" cType="1" res="-2.2686909884214401e-02" rms="3.9247310161590576e-01" purity="2.1624958515167236e-01" nType="-99"/>
          <Node pos="r" depth="2" NCoef="0" IVar="-1" Cut="0.0000000000000000e+00" cType="1" res="-4.2938478873111308e-04" rms="4.6068403124809265e-01" purity="5.4727953672409058e-01" nType="-99"/>
        </Node>
        <Node pos="r" depth="1" NCoef="0" IVar="7" Cut="1.6735894680023193e+00" cType="1" res="9.6137009561061859e-02" rms="4.4024488329887390e-01" purity="6.5538567304611206e-01" nType="0">
          <Node pos="l" depth="2" NCoef="0" IVar="-1" Cut="0.0000000000000000e+00" cType="1" res="1.8830547109246254e-02" rms="4.1035705804824829e-01" purity="7.3946028947830200e-01" nType="-99"/>
          <Node pos="r" depth="2" NCoef="0" IVar="-1" Cut="0.0000000000000000e+00" cType="1" res="-1.1143590323626995e-02" rms="4.5699331164360046e-01" purity="3.8839241862297058e-01" nType="-99"/>
        </Node>
      </Node>
    </BinaryTree>
    <BinaryTree type="DecisionTree" boostWeight="1.0000000000000000e+00" itree="11">
      <Node pos="s" depth="0" NCoef="0" IVar="4" Cut="3.3258743286132812e+01" cType="1" res="-6.2296666204929352e-02" rms="4.5437148213386536e-01" purity="4.7103235125541687e-01" nType="0">
        <Node pos="l" depth="1" NCoef="0" IVar="2" Cut="2.9442628125000000e+05" cType="1" res="-1.8535487353801727e-01" rms="4.3287223577499390e-01" purity="3.1876200437545776e-01" nType="0">
          <Node pos="l" depth="2" NCoef="0" IVar="-1" Cut="0.0000000000000000e+00" cType="1" res="-1.1966717429459095e-02" rms="3.7797003984451294e-01" purity="1.9477307796478271e-01" nType="-99"/>
          <Node pos="r" depth="2" NCoef="0" IVar="-1" Cut="0.0000000000000000e+00" cType="1" res="-1.1064915452152491e-03" rms="4.6492409706115723e-01" purity="5.2330827713012695e-01" nType="-99"/>
        </Node>
        <Node pos="r" depth="1" NCoef="0" IVar="7" Cut="1.6734977960586548e+00" cType="1" res="7.4342399835586548e-02" rms="4.3834790587425232e-01" purity="6.4010745286941528e-01" nType="0">
          <Node pos="l" depth="2" NCoef="0" IVar="-1" Cut="0.0000000000000000e+00" cType="1" res="2.1142797544598579e-02" rms="4.1081595420837402e-01" purity="7.3435169458389282e-01" nType="-99"/>
          <Node pos="r" depth="2" NCoef="0" IVar="-1" Cut="0.0000000000000000e+00" cType="1" res="-1.2470102868974209e-02" rms="4.3833127617835999e-01" purity="3.5529184341430664e-01" nType="-99"/>
        </Node>
      </Node>
    </BinaryTree>
    <BinaryTree type="DecisionTree" boostWeight="1.0000000000000000e+00" itree="12">
      <Node pos="s" depth="0" NCoef="0" IVar="3" Cut="7.0669845581054688e+01" cType="1" res="-2.0598364993929863e-02" rms="4.5088732242584229e-01" purity="5.1424264907836914e-01" nType="0">
        <Node pos="l" depth="1" NCoef="0" IVar="2" Cut="2.8425731250000000e+05" cType="1" res="-1.1948896199464798e-01" rms="4.5862069725990295e-01" purity="3.7960636615753174e-01" nType="0">
          <Node pos="l" depth="2" NCoef="0" IVar="-1" Cut="0.0000000000000000e+00" cType="1" res="-1.1974083259701729e-02" rms="4.1468074917793274e-01" purity="2.5419652462005615e-01" nType="-99"/>
          <Node pos="r" depth="2" NCoef="0" IVar="-1" Cut="0.0000000000000000e+00" cType="1" res="4.6975170262157917e-03" rms="4.7342494130134583e-01" purity="5.7617956399917603e-01" nType="-99"/>
        </Node>
        <Node pos="r" depth="1" NCoef="0" IVar="5" Cut="1.2654329681396484e+02" cType="1" res="1.7814734578132629e-01" rms="3.6056855320930481e-01" purity="7.8482842445373535e-01" nType="0">
          <Node pos="l" depth="2" NCoef="0" IVar="-1" Cut="0.0000000000000000e+00" cType="1" res="4.8429090529680252e-02" rms="3.0497655272483826e-01" purity="8.8961011171340942e-01" nType="-99"/>
          <Node pos="r" depth="2" NCoef="0" IVar="-1" Cut="0.0000000000000000e+00" cType="1" res="-1.4678565785288811e-02" rms="4.1958221793174744e-01" purity="2.3502133786678314e-01" nType="-99"/>
        </Node>
      </Node>
    </BinaryTree>
    <BinaryTree type="DecisionTree" boostWeight="1.0000000000000000e+00" itree="13">
      <Node pos="s" depth="0" NCoef="0" IVar="0" Cut="3.0952382087707520e+00" cType="1" res="-5.0175409764051437e-02" rms="4.4579675793647766e-01" purity="4.8844408988952637e-01" nType="0">
        <Node pos="l" depth="1" NCoef="0" IVar="3" Cut="9.9966461181640625e+01" cType="1" res="0.0000000000000000e+00" rms="0.0000000000000000e+00" purity="3.0457746982574463e-01" nType="0">
          <Node pos="l" depth="2" NCoef="0" IVar="-1" Cut="0.0000000000000000e+00" cType="1" res="-1.7319921404123306e-02" rms="4.0181529521942139e-01" purity="2.4526102840900421e-01" nType="-99"/>
          <Node pos="r" depth="2" NCoef="0" IVar="-1" Cut="0.0000000000000000e+00" cType="1" res="2.7076011523604393e-02" rms="3.7747737765312195e-01" purity="7.5897759199142456e-01" nType="-99"/>
        </Node>
        <Node pos="r" depth="1" NCoef="0" IVar="3" Cut="4.6329460144042969e+01" cType="1" res="7.4065260589122772e-02" rms="4.2783129215240479e-01" purity="6.3923412561416626e-01" nType="0">
          <Node pos="l" depth="2" NCoef="0" IVar="-1" Cut="0.0000000000000000e+00" cType="1" res="-8.3475252613425255e-03" rms="4.5961427688598633e-01" purity="3.2680699229240417e-01" nType="-99"/>
          <Node pos="r" depth="2" NCoef="0" IVar="-1" Cut="0.0000000000000000e+00" cType="1" res="2.5444300845265388e-02" rms="3.7066844105720520e-01" purity="7.9179996252059937e-01" nType="-99"/>
        </Node>
      </Node>
    </BinaryTree>
    <BinaryTree type="DecisionTree" boostWeight="1.0000000000000000e+00" itree="14">
      <Node pos="s" depth="0" NCoef="0" IVar="0" Cut="3.0952382087707520e+00" cType="1" res="-5.6531999260187149e-02" rms="4.4563305377960205e-01" purity="4.8212215304374695e-01" nType="0">
        <Node pos="l" depth="1" NCoef="0" IVar="4" Cut="3.2876617431640625e+01" cType="1" res="0.0000000000000000e+00" rms="0.0000000000000000e+00" purity="2.9246768355369568e-01" nType="0">
          <Node pos="l" depth="2" NCoef="0" IVar="-1" Cut="0.0000000000000000e+00" cType="1" res="-1.3818629086017609e-02" rms="3.5356390476226807e-01" purity="1.6629858314990997e-01" nType="-99"/>
          <Node pos="r" depth="2" NCoef="0" IVar="-1" Cut="0.0000000000000000e+00" cType="1" res="-6.3045839779078960e-03" rms="4.5281681418418884e-01" purity="4.7068539261817932e-01" nType="-99"/>
        </Node>
        <Node pos="r" depth="1" NCoef="0" IVar="7" Cut="1.7854745388031006e+00" cType="1" res="6.5865039825439453e-02" rms="4.3429461121559143e-01" purity="6.4162689447402954e-01" nType="0">
          <Node pos="l" depth="2" NCoef="0" IVar="-1" Cut="0.0000000000000000e+00" cType="1" res="1.8282430246472359e-02" rms="4.0395730733871460e-01" purity="7.4488615989685059e-01" nType="-99"/>
          <Node pos="r" depth="2" NCoef="0" IVar="-1" Cut="0.0000000000000000e+00" cType="1" res="-7.6940609142184258e-03" rms="4.2773294448852539e-01" purity="3.0123081803321838e-01" nType="-99"/>
        </Node>
      </Node>
    </BinaryTree>
    <BinaryTree type="DecisionTree" boostWeight="1.0000000000000000e+00" itree="15">
      <Node pos="s" depth="0" NCoef="0" IVar="2" Cut="2.7263453125000000e+05" cType="1" res="-2.6637422852218151e-03" rms="4.3990698456764221e-01" purity="5.3953856229782104e-01" nType="0">
        <Node pos="l" depth="1" NCoef="0" IVar="4" Cut="3.6489082336425781e+01" cType="1" res="-1.4712238311767578e-01" rms="4.3046909570693970e-01" purity="3.4697359800338745e-01" nType="0">
          <Node pos="l" depth="2" NCoef="0" IVar="-1" Cut="0.0000000000000000e+00" cType="1" res="-1.0929254814982414e-02" rms="4.0510845184326172e-01" purity="2.5112357735633850e-01" nType="-99"/>
          <Node pos="r" depth="2" NCoef="0" IVar="-1" Cut="0.0000000000000000e+00" cType="1" res="6.5278256079182029e-04" rms="4.4216302037239075e-01" purity="5.4913681745529175e-01" nType="-99"/>
        </Node>
        <Node pos="r" depth="1" NCoef="0" IVar="5" Cut="1.1789618682861328e+02" cType="1" res="1.4079806208610535e-01" rms="4.0046271681785583e-01" purity="7.3077476024627686e-01" nType="0">
          <Node pos="l" depth="2" NCoef="0" IVar="-1" Cut="0.0000000000000000e+00" cType="1" res="2.4773929268121719e-02" rms="3.7991407513618469e-01" purity="7.8567278385162354e-01" nType="-99"/>
          <Node pos="r" depth="2" NCoef="0" IVar="-1" Cut="0.0000000000000000e+00" cType="1" res="-1.2292956002056599e-02" rms="4.3669340014457703e-01" purity="3.2474195957183838e-01" nType="-99"/>
        </Node>
      </Node>
    </BinaryTree>
    <BinaryTree type="DecisionTree" boostWeight="1.0000000000000000e+00" itree="16">
      <Node pos="s" depth="0" NCoef="0" IVar="3" Cut="5.8401359558105469e+01" cType="1" res="-3.5849589854478836e-02" rms="4.3707677721977234e-01" purity="5.0796204805374146e-01" nType="0">
        <Node pos="l" depth="1" NCoef="0" IVar="7" Cut="1.4172571897506714e+00" cType="1" res="-1.6086243093013763e-01" rms="4.4117531180381775e-01" purity="3.1095102429389954e-01" nType="0">
          <Node pos="l" depth="2" NCoef="0" IVar="-1" Cut="0.0000000000000000e+00" cType="1" res="-4.5221294276416302e-03" rms="4.7294875979423523e-01" purity="4.2005458474159241e-01" nType="-99"/>
          <Node pos="r" depth="2" NCoef="0" IVar="-1" Cut="0.0000000000000000e+00" cType="1" res="-1.1538819409906864e-02" rms="3.7621688842773438e-01" purity="1.8775606155395508e-01" nType="-99"/>
        </Node>
        <Node pos="r" depth="1" NCoef="0" IVar="5" Cut="1.2606816864013672e+02" cType="1" res="1.0771039128303528e-01" rms="3.8515737652778625e-01" purity="7.3420202732086182e-01" nType="0">
          <Node pos="l" depth="2" NCoef="0" IVar="-1" Cut="0.0000000000000000e+00" cType="1" res="2.8772998601198196e-02" rms="3.5515588521957397e-01" purity="8.3345550298690796e-01" nType="-99"/>
          <Node pos="r" depth="2" NCoef="0" IVar="-1" Cut="0.0000000000000000e+00" cType="1" res="-1.5118246898055077e-02" rms="3.9581888914108276e-01" purity="2.0695106685161591e-01" nType="-99"/>
        </Node>
      </Node>
    </BinaryTree>
    <BinaryTree type="DecisionTree" boostWeight="1.0000000000000000e+00" itree="17">
      <Node pos="s" depth="0" NCoef="0" IVar="2" Cut="1.7586121875000000e+05" cType="1" res="-5.9937715530395508e-02" rms="4.3222841620445251e-01" purity="4.8410558700561523e-01" nType="0">
        <Node pos="l" depth="1" NCoef="0" IVar="4" Cut="4.4481052398681641e+01" cType="1" res="-2.8610593080520630e-01" rms="3.5524350404739380e-01" purity="1.7956244945526123e-01" nType="0">
          <Node pos="l" depth="2" NCoef="0" IVar="-1" Cut="0.0000000000000000e+00" cType="1" res="-7.9041244462132454e-03" rms="3.3362972736358643e-01" purity="1.4085842669010162e-01" nType="-99"/>
          <Node pos="r" depth="2" NCoef="0" IVar="-1" Cut="0.0000000000000000e+00" cType="1" res="-7.7871917746961117e-03" rms="4.2070099711418152e-01" purity="4.2913433909416199e-01" nType="-99"/>
        </Node>
        <Node pos="r" depth="1" NCoef="0" IVar="6" Cut="1.5769461393356323e+00" cType="1" res="4.5930691994726658e-03" rms="4.3053406476974487e-01" purity="5.7099848985671997e-01" nType="0">
          <Node pos="l" depth="2" NCoef="0" IVar="-1" Cut="0.0000000000000000e+00" cType="1" res="5.6258370168507099e-03" rms="4.1925826668739319e-01" purity="6.4114415645599365e-01" nType="-99"/>
          <Node pos="r" depth="2" NCoef="0" IVar="-1" Cut="0.0000000000000000e+00" cType="1" res="-1.6534766182303429e-02" rms="3.9448869228363037e-01" purity="2.5503307580947876e-01" nType="-99"/>
        </Node>
      </Node>
    </BinaryTree>
    <BinaryTree type="DecisionTree" boostWeight="1.0000000000000000e+00" itree="18">
      <Node pos="s" depth="0" NCoef="0" IVar="4" Cut="3.2876617431640625e+01" cType="1" res="-5.1902435719966888e-02" rms="4.4089850783348083e-01" purity="4.9614205956459045e-01" nType="0">
        <Node pos="l" depth="1" NCoef="0" IVar="6" Cut="1.2497339248657227e+00" cType="1" res="-1.6799262166023254e-01" rms="4.3629658222198486e-01" purity="3.3769366145133972e-01" nType="0">
          <Node pos="l" depth="2" NCoef="0" IVar="-1" Cut="0.0000000000000000e+00" cType="1" res="-4.8144627362489700e-03" rms="4.7106653451919556e-01" purity="4.6602538228034973e-01" nType="-99"/>
          <Node pos="r" depth="2" NCoef="0" IVar="-1" Cut="0.0000000000000000e+00" cType="1" res="-1.7826171591877937e-02" rms="3.4352305531501770e-01" purity="1.6013936698436737e-01" nType="-99"/>
        </Node>
        <Node pos="r" depth="1" NCoef="0" IVar="2" Cut="1.7586121875000000e+05" cType="1" res="6.9486126303672791e-02" rms="4.1205012798309326e-01" purity="6.6182202100753784e-01" nType="0">
          <Node pos="l" depth="2" NCoef="0" IVar="-1" Cut="0.0000000000000000e+00" cType="1" res="-1.6285970807075500e-02" rms="4.0216508507728577e-01" purity="2.9706475138664246e-01" nType="-99"/>
          <Node pos="r" depth="2" NCoef="0" IVar="-1" Cut="0.0000000000000000e+00" cType="1" res="1.6659235581755638e-02" rms="3.9484328031539917e-01" purity="7.2803258895874023e-01" nType="-99"/>
        </Node>
      </Node>
    </BinaryTree>
    <BinaryTree type="DecisionTree" boostWeight="1.0000000000000000e+00" itree="19">
      <Node pos="s" depth="0" NCoef="0" IVar="7" Cut="1.3111228942871094e+00" cType="1" res="-5.9248853474855423e-02" rms="4.3412593007087708e-01" purity="4.8755893111228943e-01" nType="0">
        <Node pos="l" depth="1" NCoef="0" IVar="0" Cut="3.0952382087707520e+00" cType="1" res="4.4236075133085251e-02" rms="4.2939355969429016e-01" purity="6.3310283422470093e-01" nType="0">
          <Node pos="l" depth="2" NCoef="0" IVar="-1" Cut="0.0000000000000000e+00" cType="1" res="-8.0713098868727684e-03" rms="4.5589038729667664e-01" purity="4.3609184026718140e-01" nType="-99"/>
          <Node pos="r" depth="2" NCoef="0" IVar="-1" Cut="0.0000000000000000e+00" cType="1" res="1.9392333924770355e-02" rms="3.8079622387886047e-01" purity="7.7194976806640625e-01" nType="-99"/>
        </Node>
        <Node pos="r" depth="1" NCoef="0" IVar="3" Cut="5.3070095062255859e+01" cType="1" res="-2.1308800578117371e-01" rms="3.9364159107208252e-01" purity="2.7119562029838562e-01" nType="0">
          <Node pos="l" depth="2" NCoef="0" IVar="-1" Cut="0.0000000000000000e+00" cType="1" res="-1.3146671466529369e-02" rms="3.3763340115547180e-01" purity="1.4241264760494232e-01" nType="-99"/>
          <Node pos="r" depth="2" NCoef="0" IVar="-1" Cut="0.0000000000000000e+00" cType="1" res="-1.1883682571351528e-02" rms="4.3760034441947937e-01" purity="4.4741970300674438e-01" nType="-99"/>
        </Node>
      </Node>
    </BinaryTree>
    <BinaryTree type="DecisionTree" boostWeight="1.0000000000000000e+00" itree="20">
      <Node pos="s" depth="0" NCoef="0" IVar="4" Cut="3.3363162994384766e+01" cType="1" res="-2.6626307517290115e-02" rms="4.3297457695007324e-01" purity="5.1739084720611572e-01" nType="0">
        <Node pos="l" depth="1" NCoef="0" IVar="0" Cut="3.0952382087707520e+00" cType="1" res="-1.3909184932708740e-01" rms="4.3682745099067688e-01" purity="3.5305500030517578e-01" nType="0">
          <Node pos="l" depth="2" NCoef="0" IVar="-1" Cut="0.0000000000000000e+00" cType="1" res="-1.3958608731627464e-02" rms="3.8441440463066101e-01" purity="2.1985580027103424e-01" nType="-99"/>
          <Node pos="r" depth="2" NCoef="0" IVar="-1" Cut="0.0000000000000000e+00" cType="1" res="-4.1703470051288605e-03" rms="4.6763417124748230e-01" purity="4.9403309822082520e-01" nType="-99"/>
        </Node>
        <Node pos="r" depth="1" NCoef="0" IVar="5" Cut="1.4511813354492188e+02" cType="1" res="9.3214511871337891e-02" rms="3.9503946900367737e-01" purity="6.9250345230102539e-01" nType="0">
          <Node pos="l" depth="2" NCoef="0" IVar="-1" Cut="0.0000000000000000e+00" cType="1" res="2.2715222090482712e-02" rms="3.7469783425331116e-01" purity="7.7350819110870361e-01" nType="-99"/>
          <Node pos="r" depth="2" NCoef="0" IVar="-1" Cut="0.0000000000000000e+00" cType="1" res="-1.8781246617436409e-02" rms="3.6102038621902466e-01" purity="1.6505330801010132e-01" nType="-99"/>
        </Node>
      </Node>
    </BinaryTree>
    <BinaryTree type="DecisionTree" boostWeight="1.0000000000000000e+00" itree="21">
      <Node pos="s" depth="0" NCoef="0" IVar="0" Cut="3.0952382087707520e+00" cType="1" res="-5.8758351951837540e-02" rms="4.2555582523345947e-01" purity="4.8690313100814819e-01" nType="0">
        <Node pos="l" depth="1" NCoef="0" IVar="3" Cut="9.0787094116210938e+01" cType="1" res="0.0000000000000000e+00" rms="0.0000000000000000e+00" purity="2.9135942459106445e-01" nType="0">
          <Node pos="l" depth="2" NCoef="0" IVar="-1" Cut="0.0000000000000000e+00" cType="1" res="-1.1488568969070911e-02" rms="3.8541445136070251e-01" purity="2.2575990855693817e-01" nType="-99"/>
          <Node pos="r" depth="2" NCoef="0" IVar="-1" Cut="0.0000000000000000e+00" cType="1" res="1.7200089991092682e-02" rms="4.0094652771949768e-01" purity="6.8967145681381226e-01" nType="-99"/>
        </Node>
        <Node pos="r" depth="1" NCoef="0" IVar="7" Cut="1.5622719526290894e+00" cType="1" res="6.3707672059535980e-02" rms="4.0610182285308838e-01" purity="6.6757112741470337e-01" nType="0">
          <Node pos="l" depth="2" NCoef="0" IVar="-1" Cut="0.0000000000000000e+00" cType="1" res="1.9189752638339996e-02" rms="3.6987522244453430e-01" purity="7.7766090631484985e-01" nType="-99"/>
          <Node pos="r" depth="2" NCoef="0" IVar="-1" Cut="0.0000000000000000e+00" cType="1" res="-8.6921537294983864e-03" rms="4.3210586905479431e-01" purity="4.1218546032905579e-01" nType="-99"/>
        </Node>
      </Node>
    </BinaryTree>
    <BinaryTree type="DecisionTree" boostWeight="1.0000000000000000e+00" itree="22">
      <Node pos="s" depth="0" NCoef="0" IVar="2" Cut="3.0777353125000000e+05" cType="1" res="-4.9853783100843430e-02" rms="4.2981374263763428e-01" purity="4.9500373005867004e-01" nType="0">
        <Node pos="l" depth="1" NCoef="0" IVar="7" Cut="1.3114732503890991e+00" cType="1" res="-1.4906550943851471e-01" rms="4.1897529363632202e-01" purity="3.4341964125633240e-01" nType="0">
          <Node pos="l" depth="2" NCoef="0" IVar="-1" Cut="0.0000000000000000e+00" cType="1" res="-5.4697222076356411e-03" rms="4.4289520382881165e-01" purity="4.6313130855560303e-01" nType="-99"/>
          <Node pos="r" depth="2" NCoef="0" IVar="-1" Cut="0.0000000000000000e+00" cType="1" res="-1.5478579327464104e-02" rms="3.6395552754402161e-01" purity="1.9424046576023102e-01" nType="-99"/>
        </Node>
        <Node pos="r" depth="1" NCoef="0" IVar="4" Cut="3.4698505401611328e+01" cType="1" res="9.2649832367897034e-02" rms="4.0436175465583801e-01" purity="7.1273291110992432e-01" nType="0">
          <Node pos="l" depth="2" NCoef="0" IVar="-1" Cut="0.0000000000000000e+00" cType="1" res="-1.4116028323769569e-03" rms="4.6709647774696350e-01" purity="5.4946070909500122e-01" nType="-99"/>
          <Node pos="r" depth="2" NCoef="0" IVar="-1" Cut="0.0000000000000000e+00" cType="1" res="4.1310872882604599e-02" rms="2.9260212182998657e-01" purity="8.7496739625930786e-01" nType="-99"/>
        </Node>
      </Node>
    </BinaryTree>
    <BinaryTree type="DecisionTree" boostWeight="1.0000000000000000e+00" itree="23">
      <Node pos="s" depth="0" NCoef="0" IVar="4" Cut="3.3366363525390625e+01" cType="1" res="-4.6724859625101089e-02" rms="4.3085655570030212e-01" purity="5.0254464149475098e-01" nType="0">
        <Node pos="l" depth="1" NCoef="0" IVar="7" Cut="1.2217321395874023e+00" cType="1" res="-1.4994853734970093e-01" rms="4.2560675740242004e-01" purity="3.3413299918174744e-01" nType="0">
          <Node pos="l" depth="2" NCoef="0" IVar="-1" Cut="0.0000000000000000e+00" cType="1" res="-3.2680889125913382e-03" rms="4.6424776315689087e-01" purity="5.0241476297378540e-01" nType="-99"/>
          <Node pos="r" depth="2" NCoef="0" IVar="-1" Cut="0.0000000000000000e+00" cType="1" res="-7.7945110388100147e-03" rms="3.5338392853736877e-01" purity="1.7603208124637604e-01" nType="-99"/>
        </Node>
        <Node pos="r" depth="1" NCoef="0" IVar="7" Cut="2.1191942691802979e+00" cType="1" res="7.7952899038791656e-02" rms="4.0330371260643005e-01" purity="7.0595908164978027e-01" nType="0">
          <Node pos="l" depth="2" NCoef="0" IVar="-1" Cut="0.0000000000000000e+00" cType="1" res="1.8843743950128555e-02" rms="3.8541445136070251e-01" purity="7.5459247827529907e-01" nType="-99"/>
          <Node pos="r" depth="2" NCoef="0" IVar="-1" Cut="0.0000000000000000e+00" cType="1" res="-1.6090771183371544e-02" rms="4.2882478237152100e-01" purity="2.7216920256614685e-01" nType="-99"/>
        </Node>
      </Node>
    </BinaryTree>
    <BinaryTree type="DecisionTree" boostWeight="1.0000000000000000e+00" itree="24">
      <Node pos="s" depth="0" NCoef="0" IVar="0" Cut="3.0952382087707520e+00" cType="1" res="-6.3432469964027405e-02" rms="4.2284581065177917e-01" purity="4.9241840839385986e-01" nType="0">
        <Node pos="l" depth="1" NCoef="0" IVar="3" Cut="8.1278938293457031e+01" cType="1" res="0.0000000000000000e+00" rms="0.0000000000000000e+00" purity="2.9242393374443054e-01" nType="0">
          <Node pos="l" depth="2" NCoef="0" IVar="-1" Cut="0.0000000000000000e+00" cType="1" res="-1.3952481560409069e-02" rms="3.8076874613761902e-01" purity="2.1130569279193878e-01" nType="-99"/>
          <Node pos="r" depth="2" NCoef="0" IVar="-1" Cut="0.0000000000000000e+00" cType="1" res="7.3547550709918141e-04" rms="4.3322727084159851e-01" purity="6.2681955099105835e-01" nType="-99"/>
        </Node>
        <Node pos="r" depth="1" NCoef="0" IVar="5" Cut="1.1693585205078125e+02" cType="1" res="3.9236113429069519e-02" rms="4.1081634163856506e-01" purity="6.5629303455352783e-01" nType="0">
          <Node pos="l" depth="2" NCoef="0" IVar="-1" Cut="0.0000000000000000e+00" cType="1" res="9.4654932618141174e-03" rms="4.0166115760803223e-01" purity="7.2214746475219727e-01" nType="-99"/>
          <Node pos="r" depth="2" NCoef="0" IVar="-1" Cut="0.0000000000000000e+00" cType="1" res="-1.8227735534310341e-02" rms="3.7414109706878662e-01" purity="2.4120493233203888e-01" nType="-99"/>
        </Node>
      </Node>
    </BinaryTree>
    <BinaryTree type="DecisionTree" boostWeight="1.0000000000000000e+00" itree="25">
      <Node pos="s" depth="0" NCoef="0" IVar="7" Cut="1.1916794776916504e+00" cType="1" res="-4.0656037628650665e-02" rms="4.2745187878608704e-01" purity="5.1781761646270752e-01" nType="0">
        <Node pos="l" depth="1" NCoef="0" IVar="3" Cut="7.0948692321777344e+01" cType="1" res="4.1550066322088242e-02" rms="4.1313767433166504e-01" purity="6.5840756893157959e-01" nType="0">
          <Node pos="l" depth="2" NCoef="0" IVar="-1" Cut="0.0000000000000000e+00" cType="1" res="-4.6206773258745670e-03" rms="4.6146580576896667e-01" purity="4.8868566751480103e-01" nType="-99"/>
          <Node pos="r" depth="2" NCoef="0" IVar="-1" Cut="0.0000000000000000e+00" cType="1" res="2.8728244826197624e-02" rms="3.0931174755096436e-01" purity="8.7271571159362793e-01" nType="-99"/>
        </Node>
        <Node pos="r" depth="1" NCoef="0" IVar="5" Cut="1.4454710388183594e+02" cType="1" res="-1.3388766348361969e-01" rms="4.2426985502243042e-01" purity="3.5837167501449585e-01" nType="0">
          <Node pos="l" depth="2" NCoef="0" IVar="-1" Cut="0.0000000000000000e+00" cType="1" res="-7.1984585374593735e-03" rms="4.4197508692741394e-01" purity="4.1539794206619263e-01" nType="-99"/>
          <Node pos="r" depth="2" NCoef="0" IVar="-1" Cut="0.0000000000000000e+00" cType="1" res="-2.4966759607195854e-02" rms="2.4451498687267303e-01" purity="6.4055770635604858e-02" nType="-99"/>
        </Node>
      </Node>
    </BinaryTree>
    <BinaryTree type="DecisionTree" boostWeight="1.0000000000000000e+00" itree="26">
      <Node pos="s" depth="0" NCoef="0" IVar="4" Cut="3.4656143188476562e+01" cType="1" res="-5.6932657957077026e-02" rms="4.1881150007247925e-01" purity="4.9091076850891113e-01" nType="0">
        <Node pos="l" depth="1" NCoef="0" IVar="2" Cut="4.8109656250000000e+05" cType="1" res="-1.5603391826152802e-01" rms="4.2005130648612976e-01" purity="3.3024588227272034e-01" nType="0">
          <Node pos="l" depth="2" NCoef="0" IVar="-1" Cut="0.0000000000000000e+00" cType="1" res="-9.8011298105120659e-03" rms="4.1295912861824036e-01" purity="2.9189097881317139e-01" nType="-99"/>
          <Node pos="r" depth="2" NCoef="0" IVar="-1" Cut="0.0000000000000000e+00" cType="1" res="1.4592886902391911e-02" rms="3.9276948571205139e-01" purity="6.9482994079589844e-01" nType="-99"/>
        </Node>
        <Node pos="r" depth="1" NCoef="0" IVar="5" Cut="1.2159283447265625e+02" cType="1" res="8.4542840719223022e-02" rms="3.7400886416435242e-01" purity="7.2027355432510376e-01" nType="0">
          <Node pos="l" depth="2" NCoef="0" IVar="-1" Cut="0.0000000000000000e+00" cType="1" res="2.9207652434706688e-02" rms="3.4248763322830200e-01" purity="8.3310455083847046e-01" nType="-99"/>
          <Node pos="r" depth="2" NCoef="0" IVar="-1" Cut="0.0000000000000000e+00" cType="1" res="-1.2426658533513546e-02" rms="3.7850201129913330e-01" purity="2.0858564972877502e-01" nType="-99"/>
        </Node>
      </Node>
    </BinaryTree>
    <BinaryTree type="DecisionTree" boostWeight="1.0000000000000000e+00" itree="27">
      <Node pos="s" depth="0" NCoef="0" IVar="7" Cut="1.3163572549819946e+00" cType="1" res="-4.9993366003036499e-02" rms="4.1891041398048401e-01" purity="5.0632083415985107e-01" nType="0">
        <Node pos="l" depth="1" NCoef="0" IVar="5" Cut="3.8113662719726562e+01" cType="1" res="2.9801225289702415e-02" rms="4.1681364178657532e-01" purity="6.4832210540771484e-01" nType="0">
          <Node pos="l" depth="2" NCoef="0" IVar="-1" Cut="0.0000000000000000e+00" cType="1" res="-1.9451538100838661e-02" rms="3.8264557719230652e-01" purity="1.8347622454166412e-01" nType="-99"/>
          <Node pos="r" depth="2" NCoef="0" IVar="-1" Cut="0.0000000000000000e+00" cType="1" res="7.9114334657788277e-03" rms="4.0352165699005127e-01" purity="6.8757313489913940e-01" nType="-99"/>
        </Node>
        <Node pos="r" depth="1" NCoef="0" IVar="5" Cut="1.2113721466064453e+02" cType="1" res="-1.7170113325119019e-01" rms="3.9196208119392395e-01" purity="2.8973141312599182e-01" nType="0">
          <Node pos="l" depth="2" NCoef="0" IVar="-1" Cut="0.0000000000000000e+00" cType="1" res="-9.0448698028922081e-03" rms="4.2663037776947021e-01" purity="3.7972003221511841e-01" nType="-99"/>
          <Node pos="r" depth="2" NCoef="0" IVar="-1" Cut="0.0000000000000000e+00" cType="1" res="-1.9112406298518181e-02" rms="2.2673749923706055e-01" purity="5.5913671851158142e-02" nType="-99"/>
        </Node>
      </Node>
    </BinaryTree>
    <BinaryTree type="DecisionTree" boostWeight="1.0000000000000000e+00" itree="28">
      <Node pos="s" depth="0" NCoef="0" IVar="2" Cut="2.5364675000000000e+05" cType="1" res="-6.2979571521282196e-02" rms="4.2007827758789062e-01" purity="4.8601260781288147e-01" nType="0">
        <Node pos="l" depth="1" NCoef="0" IVar="5" Cut="5.5817378997802734e+01" cType="1" res="-1.7649278044700623e-01" rms="4.0589576959609985e-01" purity="2.9130306839942932e-01" nType="0">
          <Node pos="l" depth="2" NCoef="0" IVar="-1" Cut="0.0000000000000000e+00" cType="1" res="-8.5329106077551842e-03" rms="2.9654487967491150e-01" purity="1.0412159562110901e-01" nType="-99"/>
          <Node pos="r" depth="2" NCoef="0" IVar="-1" Cut="0.0000000000000000e+00" cType="1" res="-1.1547626927495003e-02" rms="4.1833052039146423e-01" purity="3.3332350850105286e-01" nType="-99"/>
        </Node>
        <Node pos="r" depth="1" NCoef="0" IVar="6" Cut="9.6384638547897339e-01" cType="1" res="3.0979828909039497e-02" rms="4.0825018286705017e-01" purity="6.4718145132064819e-01" nType="0">
          <Node pos="l" depth="2" NCoef="0" IVar="-1" Cut="0.0000000000000000e+00" cType="1" res="1.4155537821352482e-02" rms="3.8480839133262634e-01" purity="7.5429308414459229e-01" nType="-99"/>
          <Node pos="r" depth="2" NCoef="0" IVar="-1" Cut="0.0000000000000000e+00" cType="1" res="-4.8846793361008167e-03" rms="4.1904038190841675e-01" purity="4.8803228139877319e-01" nType="-99"/>
        </Node>
      </Node>
    </BinaryTree>
    <BinaryTree type="DecisionTree" boostWeight="1.0000000000000000e+00" itree="29">
      <Node pos="s" depth="0" NCoef="0" IVar="4" Cut="3.4656143188476562e+01" cType="1" res="-6.6681258380413055e-02" rms="4.2051467299461365e-01" purity="4.8685023188591003e-01" nType="0">
        <Node pos="l" depth="1" NCoef="0" IVar="6" Cut="1.1101154088973999e+00" cType="1" res="-1.5194803476333618e-01" rms="4.1708415746688843e-01" purity="3.2848098874092102e-01" nType="0">
          <Node pos="l" depth="2" NCoef="0" IVar="-1" Cut="0.0000000000000000e+00" cType="1" res="-7.4588521383702755e-03" rms="4.5595231652259827e-01" purity="4.4910588860511780e-01" nType="-99"/>
          <Node pos="r" depth="2" NCoef="0" IVar="-1" Cut="0.0000000000000000e+00" cType="1" res="-1.3499782420694828e-02" rms="3.5574057698249817e-01" purity="1.9451771676540375e-01" nType="-99"/>
        </Node>
        <Node pos="r" depth="1" NCoef="0" IVar="7" Cut="1.1984505653381348e+00" cType="1" res="4.7882791608572006e-02" rms="3.9724028110504150e-01" purity="6.9963437318801880e-01" nType="0">
          <Node pos="l" depth="2" NCoef="0" IVar="-1" Cut="0.0000000000000000e+00" cType="1" res="2.5414111092686653e-02" rms="3.4973871707916260e-01" purity="8.2751417160034180e-01" nType="-99"/>
          <Node pos="r" depth="2" NCoef="0" IVar="-1" Cut="0.0000000000000000e+00" cType="1" res="-6.9745494984090328e-03" rms="4.3622666597366333e-01" purity="5.0824373960494995e-01" nType="-99"/>
        </Node>
      </Node>
    </BinaryTree>
    <BinaryTree type="DecisionTree" boostWeight="1.0000000000000000e+00" itree="30">
      <Node pos="s" depth="0" NCoef="0" IVar="3" Cut="9.1167709350585938e+01" cType="1" res="-4.7831039875745773e-02" rms="4.1871878504753113e-01" purity="5.1102560758590698e-01" nType="0">
        <Node pos="l" depth="1" NCoef="0" IVar="6" Cut="1.6578383445739746e+00" cType="1" res="-9.8318733274936676e-02" rms="4.3201649188995361e-01" purity="4.2035692930221558e-01" nType="0">
          <Node pos="l" depth="2" NCoef="0" IVar="-1" Cut="0.0000000000000000e+00" cType="1" res="-4.7831987030804157e-03" rms="4.3793806433677673e-01" purity="4.8693040013313293e-01" nType="-99"/>
          <Node pos="r" depth="2" NCoef="0" IVar="-1" Cut="0.0000000000000000e+00" cType="1" res="-1.6160834580659866e-02" rms="3.6340710520744324e-01" purity="1.8021129071712494e-01" nType="-99"/>
        </Node>
        <Node pos="r" depth="1" NCoef="0" IVar="6" Cut="1.5671867132186890e+00" cType="1" res="1.4535987377166748e-01" rms="2.9147985577583313e-01" purity="8.5796910524368286e-01" nType="0">
          <Node pos="l" depth="2" NCoef="0" IVar="-1" Cut="0.0000000000000000e+00" cType="1" res="4.4710312038660049e-02" rms="2.5186309218406677e-01" purity="9.1319221258163452e-01" nType="-99"/>
          <Node pos="r" depth="2" NCoef="0" IVar="-1" Cut="0.0000000000000000e+00" cType="1" res="-1.0233194567263126e-02" rms="4.2391538619995117e-01" purity="4.7969737648963928e-01" nType="-99"/>
        </Node>
      </Node>
    </BinaryTree>
    <BinaryTree type="DecisionTree" boostWeight="1.0000000000000000e+00" itree="31">
      <Node pos="s" depth="0" NCoef="0" IVar="3" Cut="5.0441848754882812e+01" cType="1" res="-6.8490318953990936e-02" rms="4.1521340608596802e-01" purity="4.8406118154525757e-01" nType="0">
        <Node pos="l" depth="1" NCoef="0" IVar="0" Cut="4.0476188659667969e+00" cType="1" res="-1.6716369986534119e-01" rms="4.0903556346893311e-01" purity="2.5511014461517334e-01" nType="0">
          <Node pos="l" depth="2" NCoef="0" IVar="-1" Cut="0.0000000000000000e+00" cType="1" res="-9.9233221262693405e-03" rms="3.8020274043083191e-01" purity="1.9359481334686279e-01" nType="-99"/>
          <Node pos="r" depth="2" NCoef="0" IVar="-1" Cut="0.0000000000000000e+00" cType="1" res="2.3420413490384817e-03" rms="4.6810451149940491e-01" purity="5.2457153797149658e-01" nType="-99"/>
        </Node>
        <Node pos="r" depth="1" NCoef="0" IVar="2" Cut="1.7816351562500000e+05" cType="1" res="5.4660588502883911e-03" rms="4.0429154038429260e-01" purity="6.5566158294677734e-01" nType="0">
          <Node pos="l" depth="2" NCoef="0" IVar="-1" Cut="0.0000000000000000e+00" cType="1" res="-1.7658445984125137e-02" rms="4.1955772042274475e-01" purity="3.1612503528594971e-01" nType="-99"/>
          <Node pos="r" depth="2" NCoef="0" IVar="-1" Cut="0.0000000000000000e+00" cType="1" res="4.9209333956241608e-03" rms="3.9182513952255249e-01" purity="7.1367198228836060e-01" nType="-99"/>
        </Node>
      </Node>
    </BinaryTree>
    <BinaryTree type="DecisionTree" boostWeight="1.0000000000000000e+00" itree="32">
      <Node pos="s" depth="0" NCoef="0" IVar="0" Cut="3.0952382087707520e+00" cType="1" res="-5.4782111197710037e-02" rms="4.1277965903282166e-01" purity="4.9537959694862366e-01" nType="0">
        <Node pos="l" depth="1" NCoef="0" IVar="3" Cut="9.8937019348144531e+01" cType="1" res="0.0000000000000000e+00" rms="0.0000000000000000e+00" purity="3.2186803221702576e-01" nType="0">
          <Node pos="l" depth="2" NCoef="0" IVar="-1" Cut="0.0000000000000000e+00" cType="1" res="-1.0405371896922588e-02" rms="3.9688557386398315e-01" purity="2.5706383585929871e-01" nType="-99"/>
          <Node pos="r" depth="2" NCoef="0" IVar="-1" Cut="0.0000000000000000e+00" cType="1" res="1.3776593841612339e-02" rms="3.7770700454711914e-01" purity="7.2674179077148438e-01" nType="-99"/>
        </Node>
        <Node pos="r" depth="1" NCoef="0" IVar="7" Cut="1.6735894680023193e+00" cType="1" res="2.0423179492354393e-02" rms="4.0292218327522278e-01" purity="6.2875247001647949e-01" nType="0">
          <Node pos="l" depth="2" NCoef="0" IVar="-1" Cut="0.0000000000000000e+00" cType="1" res="1.4117597602307796e-02" rms="3.7281104922294617e-01" purity="7.6434534788131714e-01" nType="-99"/>
          <Node pos="r" depth="2" NCoef="0" IVar="-1" Cut="0.0000000000000000e+00" cType="1" res="-8.7826158851385117e-03" rms="4.1318172216415405e-01" purity="3.3087795972824097e-01" nType="-99"/>
        </Node>
      </Node>
    </BinaryTree>
    <BinaryTree type="DecisionTree" boostWeight="1.0000000000000000e+00" itree="33">
      <Node pos="s" depth="0" NCoef="0" IVar="7" Cut="1.5513740777969360e+00" cType="1" res="-3.1278029084205627e-02" rms="4.1077223420143127e-01" purity="5.3159904479980469e-01" nType="0">
        <Node pos="l" depth="1" NCoef="0" IVar="2" Cut="1.9197585937500000e+05" cType="1" res="3.4213867038488388e-02" rms="4.0734225511550903e-01" purity="6.5472537279129028e-01" nType="0">
          <Node pos="l" depth="2" NCoef="0" IVar="-1" Cut="0.0000000000000000e+00" cType="1" res="-1.4008303172886372e-02" rms="4.3288019299507141e-01" purity="3.4271422028541565e-01" nType="-99"/>
          <Node pos="r" depth="2" NCoef="0" IVar="-1" Cut="0.0000000000000000e+00" cType="1" res="1.1533633805811405e-02" rms="3.8926371932029724e-01" purity="7.3491078615188599e-01" nType="-99"/>
        </Node>
        <Node pos="r" depth="1" NCoef="0" IVar="4" Cut="4.9385471343994141e+01" cType="1" res="-1.5780779719352722e-01" rms="3.8711595535278320e-01" purity="2.9372006654739380e-01" nType="0">
          <Node pos="l" depth="2" NCoef="0" IVar="-1" Cut="0.0000000000000000e+00" cType="1" res="-1.1704447679221630e-02" rms="3.7686374783515930e-01" purity="2.5326594710350037e-01" nType="-99"/>
          <Node pos="r" depth="2" NCoef="0" IVar="-1" Cut="0.0000000000000000e+00" cType="1" res="3.8587421178817749e-02" rms="3.4920570254325867e-01" purity="7.5775915384292603e-01" nType="-99"/>
        </Node>
      </Node>
    </BinaryTree>
    <BinaryTree type="DecisionTree" boostWeight="1.0000000000000000e+00" itree="34">
      <Node pos="s" depth="0" NCoef="0" IVar="4" Cut="3.4656143188476562e+01" cType="1" res="-4.9760032445192337e-02" rms="4.0786349773406982e-01" purity="4.9749904870986938e-01" nType="0">
        <Node pos="l" depth="1" NCoef="0" IVar="3" Cut="4.6881347656250000e+01" cType="1" res="-1.3619686663150787e-01" rms="4.1031995415687561e-01" purity="3.3368316292762756e-01" nType="0">
          <Node pos="l" depth="2" NCoef="0" IVar="-1" Cut="0.0000000000000000e+00" cType="1" res="-6.7539201118052006e-03" rms="3.6963167786598206e-01" purity="1.8501821160316467e-01" nType="-99"/>
          <Node pos="r" depth="2" NCoef="0" IVar="-1" Cut="0.0000000000000000e+00" cType="1" res="-5.2440916188061237e-03" rms="4.4124332070350647e-01" purity="5.1206141710281372e-01" nType="-99"/>
        </Node>
        <Node pos="r" depth="1" NCoef="0" IVar="5" Cut="1.3261816406250000e+02" cType="1" res="7.2712145745754242e-02" rms="3.7137493491172791e-01" purity="7.2960948944091797e-01" nType="0">
          <Node pos="l" depth="2" NCoef="0" IVar="-1" Cut="0.0000000000000000e+00" cType="1" res="2.0662035793066025e-02" rms="3.5650566220283508e-01" purity="8.1189388036727905e-01" nType="-99"/>
          <Node pos="r" depth="2" NCoef="0" IVar="-1" Cut="0.0000000000000000e+00" cType="1" res="-1.4666190370917320e-02" rms="3.6757242679595947e-01" purity="2.0141226053237915e-01" nType="-99"/>
        </Node>
      </Node>
    </BinaryTree>
    <BinaryTree type="DecisionTree" boostWeight="1.0000000000000000e+00" itree="35">
      <Node pos="s" depth="0" NCoef="0" IVar="4" Cut="3.4656143188476562e+01" cType="1" res="-5.6296795606613159e-02" rms="4.0370061993598938e-01" purity="4.9663859605789185e-01" nType="0">
        <Node pos="l" depth="1" NCoef="0" IVar="2" Cut="2.9018990625000000e+05" cType="1" res="-1.2963478267192841e-01" rms="4.1069808602333069e-01" purity="3.4608480334281921e-01" nType="0">
          <Node pos="l" depth="2" NCoef="0" IVar="-1" Cut="0.0000000000000000e+00" cType="1" res="-1.0442834347486496e-02" rms="3.7406265735626221e-01" purity="2.0862239599227905e-01" nType="-99"/>
          <Node pos="r" depth="2" NCoef="0" IVar="-1" Cut="0.0000000000000000e+00" cType="1" res="-2.1986260544508696e-03" rms="4.3669164180755615e-01" purity="5.3798002004623413e-01" nType="-99"/>
        </Node>
        <Node pos="r" depth="1" NCoef="0" IVar="2" Cut="1.7431871875000000e+05" cType="1" res="4.4996537268161774e-02" rms="3.7069424986839294e-01" purity="7.0458126068115234e-01" nType="0">
          <Node pos="l" depth="2" NCoef="0" IVar="-1" Cut="0.0000000000000000e+00" cType="1" res="-1.5166382305324078e-02" rms="3.7705343961715698e-01" purity="2.7502223849296570e-01" nType="-99"/>
          <Node pos="r" depth="2" NCoef="0" IVar="-1" Cut="0.0000000000000000e+00" cType="1" res="1.6439260914921761e-02" rms="3.5360479354858398e-01" purity="7.8060573339462280e-01" nType="-99"/>
        </Node>
      </Node>
    </BinaryTree>
    <BinaryTree type="DecisionTree" boostWeight="1.0000000000000000e+00" itree="36">
      <Node pos="s" depth="0" NCoef="0" IVar="6" Cut="1.2274099588394165e+00" cType="1" res="-5.6114960461854935e-02" rms="4.0820437669754028e-01" purity="4.9751758575439453e-01" nType="0">
        <Node pos="l" depth="1" NCoef="0" IVar="5" Cut="1.3460365295410156e+02" cType="1" res="1.4667673036456108e-02" rms="4.0407556295394897e-01" purity="6.2398833036422729e-01" nType="0">
          <Node pos="l" depth="2" NCoef="0" IVar="-1" Cut="0.0000000000000000e+00" cType="1" res="6.6800531931221485e-03" rms="4.0305551886558533e-01" purity="6.8288469314575195e-01" nType="-99"/>
          <Node pos="r" depth="2" NCoef="0" IVar="-1" Cut="0.0000000000000000e+00" cType="1" res="-2.1285664290189743e-02" rms="2.8683552145957947e-01" purity="1.0973460972309113e-01" nType="-99"/>
        </Node>
        <Node pos="r" depth="1" NCoef="0" IVar="7" Cut="2.1306257247924805e+00" cType="1" res="-1.6285218298435211e-01" rms="3.9081987738609314e-01" purity="3.0680504441261292e-01" nType="0">
          <Node pos="l" depth="2" NCoef="0" IVar="-1" Cut="0.0000000000000000e+00" cType="1" res="-9.4481753185391426e-03" rms="4.1588836908340454e-01" purity="3.8030856847763062e-01" nType="-99"/>
          <Node pos="r" depth="2" NCoef="0" IVar="-1" Cut="0.0000000000000000e+00" cType="1" res="-1.0999009944498539e-02" rms="2.2558365762233734e-01" purity="5.4583583027124405e-02" nType="-99"/>
        </Node>
      </Node>
    </BinaryTree>
    <BinaryTree type="DecisionTree" boostWeight="1.0000000000000000e+00" itree="37">
      <Node pos="s" depth="0" NCoef="0" IVar="0" Cut="3.0952382087707520e+00" cType="1" res="-7.0518046617507935e-02" rms="4.0860739350318909e-01" purity="4.8228117823600769e-01" nType="0">
        <Node pos="l" depth="1" NCoef="0" IVar="3" Cut="5.0489952087402344e+01" cType="1" res="0.0000000000000000e+00" rms="0.0000000000000000e+00" purity="2.9581344127655029e-01" nType="0">
          <Node pos="l" depth="2" NCoef="0" IVar="-1" Cut="0.0000000000000000e+00" cType="1" res="-1.0387785732746124e-02" rms="3.3073514699935913e-01" purity="1.3851672410964966e-01" nType="-99"/>
          <Node pos="r" depth="2" NCoef="0" IVar="-1" Cut="0.0000000000000000e+00" cType="1" res="-7.9230237752199173e-03" rms="4.4555529952049255e-01" purity="4.7223523259162903e-01" nType="-99"/>
        </Node>
        <Node pos="r" depth="1" NCoef="0" IVar="7" Cut="1.7875680923461914e+00" cType="1" res="-4.1898657218553126e-04" rms="4.0586259961128235e-01" purity="6.3708496093750000e-01" nType="0">
          <Node pos="l" depth="2" NCoef="0" IVar="-1" Cut="0.0000000000000000e+00" cType="1" res="6.6345692612230778e-03" rms="3.9802697300910950e-01" purity="7.3534733057022095e-01" nType="-99"/>
          <Node pos="r" depth="2" NCoef="0" IVar="-1" Cut="0.0000000000000000e+00" cType="1" res="-6.8765473552048206e-03" rms="3.8664656877517700e-01" purity="2.9733151197433472e-01" nType="-99"/>
        </Node>
      </Node>
    </BinaryTree>
    <BinaryTree type="DecisionTree" boostWeight="1.0000000000000000e+00" itree="38">
      <Node pos="s" depth="0" NCoef="0" IVar="0" Cut="3.0952382087707520e+00" cType="1" res="-6.0731079429388046e-02" rms="4.0548244118690491e-01" purity="4.8896953463554382e-01" nType="0">
        <Node pos="l" depth="1" NCoef="0" IVar="3" Cut="9.0563438415527344e+01" cType="1" res="0.0000000000000000e+00" rms="0.0000000000000000e+00" purity="2.9501578211784363e-01" nType="0">
          <Node pos="l" depth="2" NCoef="0" IVar="-1" Cut="0.0000000000000000e+00" cType="1" res="-1.2130638584494591e-02" rms="3.7684038281440735e-01" purity="2.2785021364688873e-01" nType="-99"/>
          <Node pos="r" depth="2" NCoef="0" IVar="-1" Cut="0.0000000000000000e+00" cType="1" res="7.3020528070628643e-03" rms="3.9980772137641907e-01" purity="6.8875014781951904e-01" nType="-99"/>
        </Node>
        <Node pos="r" depth="1" NCoef="0" IVar="4" Cut="3.9205619812011719e+01" cType="1" res="1.6977299004793167e-02" rms="4.0283164381980896e-01" purity="6.5108442306518555e-01" nType="0">
          <Node pos="l" depth="2" NCoef="0" IVar="-1" Cut="0.0000000000000000e+00" cType="1" res="-3.3677171450108290e-03" rms="4.4679227471351624e-01" purity="5.2834260463714600e-01" nType="-99"/>
          <Node pos="r" depth="2" NCoef="0" IVar="-1" Cut="0.0000000000000000e+00" cType="1" res="2.9045494273304939e-02" rms="2.7349534630775452e-01" purity="8.7860971689224243e-01" nType="-99"/>
        </Node>
      </Node>
    </BinaryTree>
    <BinaryTree type="DecisionTree" boostWeight="1.0000000000000000e+00" itree="39">
      <Node pos="s" depth="0" NCoef="0" IVar="4" Cut="3.4656143188476562e+01" cType="1" res="-7.2028845548629761e-02" rms="4.1316750645637512e-01" purity="4.8617628216743469e-01" nType="0">
        <Node pos="l" depth="1" NCoef="0" IVar="5" Cut="5.0729976654052734e+01" cType="1" res="-1.4502142369747162e-01" rms="4.1396144032478333e-01" purity="3.1910303235054016e-01" nType="0">
          <Node pos="l" depth="2" NCoef="0" IVar="-1" Cut="0.0000000000000000e+00" cType="1" res="-1.4783202670514584e-02" rms="3.6015799641609192e-01" purity="1.6344745457172394e-01" nType="-99"/>
          <Node pos="r" depth="2" NCoef="0" IVar="-1" Cut="0.0000000000000000e+00" cType="1" res="-6.0604647733271122e-03" rms="4.1795450448989868e-01" purity="3.5267138481140137e-01" nType="-99"/>
        </Node>
        <Node pos="r" depth="1" NCoef="0" IVar="6" Cut="1.6280421018600464e+00" cType="1" res="2.3974889889359474e-02" rms="3.9194309711456299e-01" purity="7.0591986179351807e-01" nType="0">
          <Node pos="l" depth="2" NCoef="0" IVar="-1" Cut="0.0000000000000000e+00" cType="1" res="1.0372266173362732e-02" rms="3.7548014521598816e-01" purity="7.6697629690170288e-01" nType="-99"/>
          <Node pos="r" depth="2" NCoef="0" IVar="-1" Cut="0.0000000000000000e+00" cType="1" res="-1.3526196591556072e-02" rms="4.3051159381866455e-01" purity="4.0610054135322571e-01" nType="-99"/>
        </Node>
      </Node>
    </BinaryTree>
    <BinaryTree type="DecisionTree" boostWeight="1.0000000000000000e+00" itree="40">
      <Node pos="s" depth="0" NCoef="0" IVar="4" Cut="3.3360549926757812e+01" cType="1" res="-6.9608926773071289e-02" rms="4.0654876828193665e-01" purity="4.7722917795181274e-01" nType="0">
        <Node pos="l" depth="1" NCoef="0" IVar="5" Cut="1.0396875000000000e+02" cType="1" res="-1.4447526633739471e-01" rms="4.0598118305206299e-01" purity="3.0645447969436646e-01" nType="0">
          <Node pos="l" depth="2" NCoef="0" IVar="-1" Cut="0.0000000000000000e+00" cType="1" res="-8.9527033269405365e-03" rms="4.3008339405059814e-01" purity="3.5563096404075623e-01" nType="-99"/>
          <Node pos="r" depth="2" NCoef="0" IVar="-1" Cut="0.0000000000000000e+00" cType="1" res="-1.2248562648892403e-02" rms="2.2091501951217651e-01" purity="8.6578972637653351e-02" nType="-99"/>
        </Node>
        <Node pos="r" depth="1" NCoef="0" IVar="5" Cut="1.1185078430175781e+02" cType="1" res="1.6242800280451775e-02" rms="3.8988822698593140e-01" purity="6.7306220531463623e-01" nType="0">
          <Node pos="l" depth="2" NCoef="0" IVar="-1" Cut="0.0000000000000000e+00" cType="1" res="1.0787129402160645e-02" rms="3.8460502028465271e-01" purity="7.6734727621078491e-01" nType="-99"/>
          <Node pos="r" depth="2" NCoef="0" IVar="-1" Cut="0.0000000000000000e+00" cType="1" res="-1.2978909537196159e-02" rms="3.6862444877624512e-01" purity="3.5271129012107849e-01" nType="-99"/>
        </Node>
      </Node>
    </BinaryTree>
    <BinaryTree type="DecisionTree" boostWeight="1.0000000000000000e+00" itree="41">
      <Node pos="s" depth="0" NCoef="0" IVar="2" Cut="2.4256017187500000e+05" cType="1" res="-3.6723237484693527e-02" rms="4.0685144066810608e-01" purity="5.3192394971847534e-01" nType="0">
        <Node pos="l" depth="1" NCoef="0" IVar="5" Cut="5.2368553161621094e+01" cType="1" res="-1.5454757213592529e-01" rms="4.0152075886726379e-01" purity="2.9290878772735596e-01" nType="0">
          <Node pos="l" depth="2" NCoef="0" IVar="-1" Cut="0.0000000000000000e+00" cType="1" res="-2.8150416910648346e-02" rms="3.0459013581275940e-01" purity="1.0798540711402893e-01" nType="-99"/>
          <Node pos="r" depth="2" NCoef="0" IVar="-1" Cut="0.0000000000000000e+00" cType="1" res="-1.2296544387936592e-02" rms="4.1038885712623596e-01" purity="3.2710674405097961e-01" nType="-99"/>
        </Node>
        <Node pos="r" depth="1" NCoef="0" IVar="7" Cut="1.6783272027969360e+00" cType="1" res="3.5597667098045349e-02" rms="3.9296516776084900e-01" purity="6.7863214015960693e-01" nType="0">
          <Node pos="l" depth="2" NCoef="0" IVar="-1" Cut="0.0000000000000000e+00" cType="1" res="1.1814616620540619e-02" rms="3.7077504396438599e-01" purity="7.7632939815521240e-01" nType="-99"/>
          <Node pos="r" depth="2" NCoef="0" IVar="-1" Cut="0.0000000000000000e+00" cType="1" res="-4.7470619902014732e-03" rms="4.2567294836044312e-01" purity="3.9758342504501343e-01" nType="-99"/>
        </Node>
      </Node>
    </BinaryTree>
    <BinaryTree type="DecisionTree" boostWeight="1.0000000000000000e+00" itree="42">
      <Node pos="s" depth="0" NCoef="0" IVar="3" Cut="4.6057186126708984e+01" cType="1" res="-1.1989770457148552e-02" rms="3.9257720112800598e-01" purity="5.3690135478973389e-01" nType="0">
        <Node pos="l" depth="1" NCoef="0" IVar="4" Cut="3.0942262649536133e+01" cType="1" res="-1.3604050874710083e-01" rms="3.8635408878326416e-01" purity="2.4885573983192444e-01" nType="0">
          <Node pos="l" depth="2" NCoef="0" IVar="-1" Cut="0.0000000000000000e+00" cType="1" res="-5.8909584768116474e-03" rms="3.4413632750511169e-01" purity="1.6508609056472778e-01" nType="-99"/>
          <Node pos="r" depth="2" NCoef="0" IVar="-1" Cut="0.0000000000000000e+00" cType="1" res="6.4289884176105261e-04" rms="4.5120459794998169e-01" purity="4.7133392095565796e-01" nType="-99"/>
        </Node>
        <Node pos="r" depth="1" NCoef="0" IVar="5" Cut="1.1979278564453125e+02" cType="1" res="5.9415012598037720e-02" rms="3.7808811664581299e-01" purity="7.0270311832427979e-01" nType="0">
          <Node pos="l" depth="2" NCoef="0" IVar="-1" Cut="0.0000000000000000e+00" cType="1" res="1.7028193920850754e-02" rms="3.6421293020248413e-01" purity="7.8926950693130493e-01" nType="-99"/>
          <Node pos="r" depth="2" NCoef="0" IVar="-1" Cut="0.0000000000000000e+00" cType="1" res="-1.1087059974670410e-02" rms="3.8346907496452332e-01" purity="2.6542231440544128e-01" nType="-99"/>
        </Node>
      </Node>
    </BinaryTree>
    <BinaryTree type="DecisionTree" boostWeight="1.0000000000000000e+00" itree="43">
      <Node pos="s" depth="0" NCoef="0" IVar="7" Cut="1.3100773096084595e+00" cType="1" res="-5.7341724634170532e-02" rms="4.0129932761192322e-01" purity="5.0253713130950928e-01" nType="0">
        <Node pos="l" depth="1" NCoef="0" IVar="5" Cut="6.7315986633300781e+01" cType="1" res="8.5939029231667519e-03" rms="4.0440696477890015e-01" purity="6.4877271652221680e-01" nType="0">
          <Node pos="l" depth="2" NCoef="0" IVar="-1" Cut="0.0000000000000000e+00" cType="1" res="-8.8969925418496132e-03" rms="4.2787441611289978e-01" purity="4.3526601791381836e-01" nType="-99"/>
          <Node pos="r" depth="2" NCoef="0" IVar="-1" Cut="0.0000000000000000e+00" cType="1" res="1.0190342552959919e-02" rms="3.8375860452651978e-01" purity="7.4060261249542236e-01" nType="-99"/>
        </Node>
        <Node pos="r" depth="1" NCoef="0" IVar="3" Cut="5.6625858306884766e+01" cType="1" res="-1.5853965282440186e-01" rms="3.7454599142074585e-01" purity="2.7809485793113708e-01" nType="0">
          <Node pos="l" depth="2" NCoef="0" IVar="-1" Cut="0.0000000000000000e+00" cType="1" res="-1.1728612706065178e-02" rms="3.4859505295753479e-01" purity="1.6846804320812225e-01" nType="-99"/>
          <Node pos="r" depth="2" NCoef="0" IVar="-1" Cut="0.0000000000000000e+00" cType="1" res="-1.0196074843406677e-02" rms="4.0451768040657043e-01" purity="4.6800827980041504e-01" nType="-99"/>
        </Node>
      </Node>
    </BinaryTree>
    <BinaryTree type="DecisionTree" boostWeight="1.0000000000000000e+00" itree="44">
      <Node pos="s" depth="0" NCoef="0" IVar="4" Cut="4.4348571777343750e+01" cType="1" res="-6.5315298736095428e-02" rms="4.0725076198577881e-01" purity="4.8351004719734192e-01" nType="0">
        <Node pos="l" depth="1" NCoef="0" IVar="5" Cut="3.3397392272949219e+01" cType="1" res="-1.0607392340898514e-01" rms="4.1996979713439941e-01" purity="3.9968279004096985e-01" nType="0">
          <Node pos="l" depth="2" NCoef="0" IVar="-1" Cut="0.0000000000000000e+00" cType="1" res="-2.0063839852809906e-02" rms="3.4204670786857605e-01" purity="9.2733986675739288e-02" nType="-99"/>
          <Node pos="r" depth="2" NCoef="0" IVar="-1" Cut="0.0000000000000000e+00" cType="1" res="-5.7535916566848755e-03" rms="4.1701865196228027e-01" purity="4.2064598202705383e-01" nType="-99"/>
        </Node>
        <Node pos="r" depth="1" NCoef="0" IVar="4" Cut="6.1823917388916016e+01" cType="1" res="1.0688570886850357e-01" rms="2.9108306765556335e-01" purity="8.3767133951187134e-01" nType="0">
          <Node pos="l" depth="2" NCoef="0" IVar="-1" Cut="0.0000000000000000e+00" cType="1" res="1.2382827699184418e-02" rms="3.5056984424591064e-01" purity="7.5445306301116943e-01" nType="-99"/>
          <Node pos="r" depth="2" NCoef="0" IVar="-1" Cut="0.0000000000000000e+00" cType="1" res="6.0330837965011597e-02" rms="1.3908383250236511e-01" purity="9.6289372444152832e-01" nType="-99"/>
        </Node>
      </Node>
    </BinaryTree>
    <BinaryTree type="DecisionTree" boostWeight="1.0000000000000000e+00" itree="45">
      <Node pos="s" depth="0" NCoef="0" IVar="0" Cut="3.0952382087707520e+00" cType="1" res="-4.0974851697683334e-02" rms="3.9655545353889465e-01" purity="4.9486997723579407e-01" nType="0">
        <Node pos="l" depth="1" NCoef="0" IVar="3" Cut="5.5625167846679688e+01" cType="1" res="0.0000000000000000e+00" rms="0.0000000000000000e+00" purity="3.1978094577789307e-01" nType="0">
          <Node pos="l" depth="2" NCoef="0" IVar="-1" Cut="0.0000000000000000e+00" cType="1" res="-7.4599464423954487e-03" rms="3.4485906362533569e-01" purity="1.6343823075294495e-01" nType="-99"/>
          <Node pos="r" depth="2" NCoef="0" IVar="-1" Cut="0.0000000000000000e+00" cType="1" res="-4.6809701598249376e-04" rms="4.2494136095046997e-01" purity="5.7602632045745850e-01" nType="-99"/>
        </Node>
        <Node pos="r" depth="1" NCoef="0" IVar="5" Cut="1.1765322113037109e+02" cType="1" res="2.8309170156717300e-02" rms="3.9318275451660156e-01" purity="6.6136234998703003e-01" nType="0">
          <Node pos="l" depth="2" NCoef="0" IVar="-1" Cut="0.0000000000000000e+00" cType="1" res="1.1684818193316460e-02" rms="3.9016199111938477e-01" purity="7.3718404769897461e-01" nType="-99"/>
          <Node pos="r" depth="2" NCoef="0" IVar="-1" Cut="0.0000000000000000e+00" cType="1" res="-1.6286749392747879e-02" rms="3.1880506873130798e-01" purity="2.1083648502826691e-01" nType="-99"/>
        </Node>
      </Node>
    </BinaryTree>
    <BinaryTree type="DecisionTree" boostWeight="1.0000000000000000e+00" itree="46">
      <Node pos="s" depth="0" NCoef="0" IVar="5" Cut="1.1629158020019531e+02" cType="1" res="-4.3188378214836121e-02" rms="3.9907366037368774e-01" purity="5.1211988925933838e-01" nType="0">
        <Node pos="l" depth="1" NCoef="0" IVar="5" Cut="7.6468902587890625e+01" cType="1" res="-1.1874476447701454e-02" rms="4.0515643358230591e-01" purity="5.7464313507080078e-01" nType="0">
          <Node pos="l" depth="2" NCoef="0" IVar="-1" Cut="0.0000000000000000e+00" cType="1" res="-8.5637504234910011e-03" rms="4.2187181115150452e-01" purity="4.3121349811553955e-01" nType="-99"/>
          <Node pos="r" depth="2" NCoef="0" IVar="-1" Cut="0.0000000000000000e+00" cType="1" res="1.1063123121857643e-02" rms="3.6992609500885010e-01" purity="7.2432184219360352e-01" nType="-99"/>
        </Node>
        <Node pos="r" depth="1" NCoef="0" IVar="3" Cut="1.0732782745361328e+02" cType="1" res="-2.0978987216949463e-01" rms="3.1663841009140015e-01" purity="1.7947316169738770e-01" nType="0">
          <Node pos="l" depth="2" NCoef="0" IVar="-1" Cut="0.0000000000000000e+00" cType="1" res="-2.1775664761662483e-02" rms="2.7652341127395630e-01" purity="1.2186189740896225e-01" nType="-99"/>
          <Node pos="r" depth="2" NCoef="0" IVar="-1" Cut="0.0000000000000000e+00" cType="1" res="-6.9291773252189159e-03" rms="4.0165954828262329e-01" purity="3.9139917492866516e-01" nType="-99"/>
        </Node>
      </Node>
    </BinaryTree>
    <BinaryTree type="DecisionTree" boostWeight="1.0000000000000000e+00" itree="47">
      <Node pos="s" depth="0" NCoef="0" IVar="7" Cut="1.1925349235534668e+00" cType="1" res="-6.8521767854690552e-02" rms="3.9839139580726624e-01" purity="4.8113811016082764e-01" nType="0">
        <Node pos="l" depth="1" NCoef="0" IVar="6" Cut="1.3266712427139282e+00" cType="1" res="-8.3640143275260925e-03" rms="3.9832279086112976e-01" purity="6.2275058031082153e-01" nType="0">
          <Node pos="l" depth="2" NCoef="0" IVar="-1" Cut="0.0000000000000000e+00" cType="1" res="7.2950148023664951e-03" rms="3.8332816958427429e-01" purity="7.3234474658966064e-01" nType="-99"/>
          <Node pos="r" depth="2" NCoef="0" IVar="-1" Cut="0.0000000000000000e+00" cType="1" res="-1.1227472685277462e-02" rms="4.0448600053787231e-01" purity="3.6623784899711609e-01" nType="-99"/>
        </Node>
        <Node pos="r" depth="1" NCoef="0" IVar="2" Cut="3.8390218750000000e+05" cType="1" res="-1.4182215929031372e-01" rms="3.8600489497184753e-01" purity="3.0858758091926575e-01" nType="0">
          <Node pos="l" depth="2" NCoef="0" IVar="-1" Cut="0.0000000000000000e+00" cType="1" res="-1.2337937951087952e-02" rms="3.6907073855400085e-01" purity="2.3483233153820038e-01" nType="-99"/>
          <Node pos="r" depth="2" NCoef="0" IVar="-1" Cut="0.0000000000000000e+00" cType="1" res="2.6928759180009365e-03" rms="4.0926727652549744e-01" purity="6.1913776397705078e-01" nType="-99"/>
        </Node>
      </Node>
    </BinaryTree>
    <BinaryTree type="DecisionTree" boostWeight="1.0000000000000000e+00" itree="48">
      <Node pos="s" depth="0" NCoef="0" IVar="3" Cut="5.1524929046630859e+01" cType="1" res="-4.7634124755859375e-02" rms="4.0353742241859436e-01" purity="5.0125116109848022e-01" nType="0">
        <Node pos="l" depth="1" NCoef="0" IVar="3" Cut="3.5087146759033203e+01" cType="1" res="-1.2089241296052933e-01" rms="4.1168376803398132e-01" purity="2.8431460261344910e-01" nType="0">
          <Node pos="l" depth="2" NCoef="0" IVar="-1" Cut="0.0000000000000000e+00" cType="1" res="-1.4397580176591873e-02" rms="3.1583452224731445e-01" purity="1.2299893051385880e-01" nType="-99"/>
          <Node pos="r" depth="2" NCoef="0" IVar="-1" Cut="0.0000000000000000e+00" cType="1" res="-5.4755462333559990e-03" rms="4.3861523270606995e-01" purity="3.5088327527046204e-01" nType="-99"/>
        </Node>
        <Node pos="r" depth="1" NCoef="0" IVar="6" Cut="2.1519849300384521e+00" cType="1" res="1.4437540434300900e-02" rms="3.8576588034629822e-01" purity="6.8506121635437012e-01" nType="0">
          <Node pos="l" depth="2" NCoef="0" IVar="-1" Cut="0.0000000000000000e+00" cType="1" res="4.7553614713251591e-03" rms="3.7874841690063477e-01" purity="7.1369105577468872e-01" nType="-99"/>
          <Node pos="r" depth="2" NCoef="0" IVar="-1" Cut="0.0000000000000000e+00" cType="1" res="-1.6179570928215981e-02" rms="3.9592757821083069e-01" purity="2.2908705472946167e-01" nType="-99"/>
        </Node>
      </Node>
    </BinaryTree>
    <BinaryTree type="DecisionTree" boostWeight="1.0000000000000000e+00" itree="49">
      <Node pos="s" depth="0" NCoef="0" IVar="3" Cut="5.8512496948242188e+01" cType="1" res="-4.9074105918407440e-02" rms="3.9831995964050293e-01" purity="5.0481706857681274e-01" nType="0">
        <Node pos="l" depth="1" NCoef="0" IVar="6" Cut="1.2258312702178955e+00" cType="1" res="-1.2023744732141495e-01" rms="4.1689541935920715e-01" purity="3.1345430016517639e-01" nType="0">
          <Node pos="l" depth="2" NCoef="0" IVar="-1" Cut="0.0000000000000000e+00" cType="1" res="-5.7925800792872906e-03" rms="4.3494156002998352e-01" purity="3.9555627107620239e-01" nType="-99"/>
          <Node pos="r" depth="2" NCoef="0" IVar="-1" Cut="0.0000000000000000e+00" cType="1" res="-1.1889251880347729e-02" rms="3.7687897682189941e-01" purity="1.9299700856208801e-01" nType="-99"/>
        </Node>
        <Node pos="r" depth="1" NCoef="0" IVar="5" Cut="1.2038630676269531e+02" cType="1" res="3.3259920775890350e-02" rms="3.5846996307373047e-01" purity="7.2621852159500122e-01" nType="0">
          <Node pos="l" depth="2" NCoef="0" IVar="-1" Cut="0.0000000000000000e+00" cType="1" res="1.4928683638572693e-02" rms="3.4046593308448792e-01" purity="8.2624971866607666e-01" nType="-99"/>
          <Node pos="r" depth="2" NCoef="0" IVar="-1" Cut="0.0000000000000000e+00" cType="1" res="-1.6646288335323334e-02" rms="3.8402625918388367e-01" purity="2.4456602334976196e-01" nType="-99"/>
        </Node>
      </Node>
    </BinaryTree>
    <BinaryTree type="DecisionTree" boostWeight="1.0000000000000000e+00" itree="50">
      <Node pos="s" depth="0" NCoef="0" IVar="4" Cut="4.0758548736572266e+01" cType="1" res="-4.8332102596759796e-02" rms="3.8979735970497131e-01" purity="4.9732720851898193e-01" nType="0">
        <Node pos="l" depth="1" NCoef="0" IVar="5" Cut="5.2496780395507812e+01" cType="1" res="-9.7273088991641998e-02" rms="4.0483692288398743e-01" purity="3.7443599104881287e-01" nType="0">
          <Node pos="l" depth="2" NCoef="0" IVar="-1" Cut="0.0000000000000000e+00" cType="1" res="-8.7951049208641052e-03" rms="3.4213125705718994e-01" purity="1.7484124004840851e-01" nType="-99"/>
          <Node pos="r" depth="2" NCoef="0" IVar="-1" Cut="0.0000000000000000e+00" cType="1" res="-4.0913028642535210e-03" rms="4.1122511029243469e-01" purity="4.2066198587417603e-01" nType="-99"/>
        </Node>
        <Node pos="r" depth="1" NCoef="0" IVar="6" Cut="1.6540383100509644e+00" cType="1" res="7.2584405541419983e-02" rms="3.1918120384216309e-01" purity="8.0094951391220093e-01" nType="0">
          <Node pos="l" depth="2" NCoef="0" IVar="-1" Cut="0.0000000000000000e+00" cType="1" res="2.5810167193412781e-02" rms="2.8487738966941833e-01" purity="8.6279493570327759e-01" nType="-99"/>
          <Node pos="r" depth="2" NCoef="0" IVar="-1" Cut="0.0000000000000000e+00" cType="1" res="-9.8430914804339409e-03" rms="4.3237483501434326e-01" purity="4.4465568661689758e-01" nType="-99"/>
        </Node>
      </Node>
    </BinaryTree>
    <BinaryTree type="DecisionTree" boostWeight="1.0000000000000000e+00" itree="51">
      <Node pos="s" depth="0" NCoef="0" IVar="2" Cut="4.3617231250000000e+05" cType="1" res="-4.6687256544828415e-02" rms="3.9456054568290710e-01" purity="5.0643527507781982e-01" nType="0">
        <Node pos="l" depth="1" NCoef="0" IVar="3" Cut="6.2491210937500000e+01" cType="1" res="-7.9900130629539490e-02" rms="4.0258893370628357e-01" purity="4.2923179268836975e-01" nType="0">
          <Node pos="l" depth="2" NCoef="0" IVar="-1" Cut="0.0000000000000000e+00" cType="1" res="-9.9757397547364235e-03" rms="4.0881001949310303e-01" purity="2.8217354416847229e-01" nType="-99"/>
          <Node pos="r" depth="2" NCoef="0" IVar="-1" Cut="0.0000000000000000e+00" cType="1" res="4.3348898179829121e-04" rms="3.7776035070419312e-01" purity="6.7649507522583008e-01" nType="-99"/>
        </Node>
        <Node pos="r" depth="1" NCoef="0" IVar="7" Cut="1.6519680023193359e+00" cType="1" res="8.3226673305034637e-02" rms="3.3083578944206238e-01" purity="8.0842083692550659e-01" nType="0">
          <Node pos="l" depth="2" NCoef="0" IVar="-1" Cut="0.0000000000000000e+00" cType="1" res="2.5858985260128975e-02" rms="2.8952386975288391e-01" purity="8.8067269325256348e-01" nType="-99"/>
          <Node pos="r" depth="2" NCoef="0" IVar="-1" Cut="0.0000000000000000e+00" cType="1" res="-5.9320772998034954e-03" rms="4.5310339331626892e-01" purity="4.5707511901855469e-01" nType="-99"/>
        </Node>
      </Node>
    </BinaryTree>
    <BinaryTree type="DecisionTree" boostWeight="1.0000000000000000e+00" itree="52">
      <Node pos="s" depth="0" NCoef="0" IVar="5" Cut="5.6619136810302734e+01" cType="1" res="-6.4614646136760712e-02" rms="3.9484816789627075e-01" purity="4.7916468977928162e-01" nType="0">
        <Node pos="l" depth="1" NCoef="0" IVar="0" Cut="4.0476188659667969e+00" cType="1" res="-2.2343958914279938e-01" rms="3.8816669583320618e-01" purity="2.4920441210269928e-01" nType="0">
          <Node pos="l" depth="2" NCoef="0" IVar="-1" Cut="0.0000000000000000e+00" cType="1" res="-1.1692637577652931e-02" rms="3.7572818994522095e-01" purity="2.6003614068031311e-01" nType="-99"/>
          <Node pos="r" depth="2" NCoef="0" IVar="-1" Cut="0.0000000000000000e+00" cType="1" res="-9.9437767639756203e-03" rms="3.8852083683013916e-01" purity="2.2968639433383942e-01" nType="-99"/>
        </Node>
        <Node pos="r" depth="1" NCoef="0" IVar="7" Cut="1.4332810640335083e+00" cType="1" res="-2.9023705050349236e-02" rms="3.8750225305557251e-01" purity="5.3069621324539185e-01" nType="0">
          <Node pos="l" depth="2" NCoef="0" IVar="-1" Cut="0.0000000000000000e+00" cType="1" res="3.1002610921859741e-03" rms="3.9198344945907593e-01" purity="6.7766064405441284e-01" nType="-99"/>
          <Node pos="r" depth="2" NCoef="0" IVar="-1" Cut="0.0000000000000000e+00" cType="1" res="-8.4950486198067665e-03" rms="3.6304262280464172e-01" purity="2.7772340178489685e-01" nType="-99"/>
        </Node>
      </Node>
    </BinaryTree>
    <BinaryTree type="DecisionTree" boostWeight="1.0000000000000000e+00" itree="53">
      <Node pos="s" depth="0" NCoef="0" IVar="2" Cut="2.9730625000000000e+05" cType="1" res="-3.6812853068113327e-02" rms="3.9221957325935364e-01" purity="5.0547051429748535e-01" nType="0">
        <Node pos="l" depth="1" NCoef="0" IVar="2" Cut="2.3725620312500000e+05" cType="1" res="-9.6241936087608337e-02" rms="3.9978313446044922e-01" purity="3.5182994604110718e-01" nType="0">
          <Node pos="l" depth="2" NCoef="0" IVar="-1" Cut="0.0000000000000000e+00" cType="1" res="-9.1052670031785965e-03" rms="3.8660019636154175e-01" purity="2.7918854355812073e-01" nType="-99"/>
          <Node pos="r" depth="2" NCoef="0" IVar="-1" Cut="0.0000000000000000e+00" cType="1" res="5.1925488514825702e-04" rms="4.1297656297683716e-01" purity="5.2918159961700439e-01" nType="-99"/>
        </Node>
        <Node pos="r" depth="1" NCoef="0" IVar="6" Cut="9.3687522411346436e-01" cType="1" res="4.0508545935153961e-02" rms="3.6806052923202515e-01" purity="7.0536762475967407e-01" nType="0">
          <Node pos="l" depth="2" NCoef="0" IVar="-1" Cut="0.0000000000000000e+00" cType="1" res="2.1839544177055359e-02" rms="3.1690728664398193e-01" purity="8.3040678501129150e-01" nType="-99"/>
          <Node pos="r" depth="2" NCoef="0" IVar="-1" Cut="0.0000000000000000e+00" cType="1" res="-5.8384137228131294e-03" rms="4.1520130634307861e-01" purity="5.1057022809982300e-01" nType="-99"/>
        </Node>
      </Node>
    </BinaryTree>
    <BinaryTree type="DecisionTree" boostWeight="1.0000000000000000e+00" itree="54">
      <Node pos="s" depth="0" NCoef="0" IVar="5" Cut="5.1299304962158203e+01" cType="1" res="-6.9235250353813171e-02" rms="3.9060536026954651e-01" purity="4.6887701749801636e-01" nType="0">
        <Node pos="l" depth="1" NCoef="0" IVar="3" Cut="5.5705509185791016e+01" cType="1" res="-2.3267847299575806e-01" rms="3.9489844441413879e-01" purity="2.1590131521224976e-01" nType="0">
          <Node pos="l" depth="2" NCoef="0" IVar="-1" Cut="0.0000000000000000e+00" cType="1" res="-9.0060718357563019e-03" rms="3.6689969897270203e-01" purity="1.9773603975772858e-01" nType="-99"/>
          <Node pos="r" depth="2" NCoef="0" IVar="-1" Cut="0.0000000000000000e+00" cType="1" res="-1.6180338338017464e-02" rms="4.0872097015380859e-01" purity="2.5803980231285095e-01" nType="-99"/>
        </Node>
        <Node pos="r" depth="1" NCoef="0" IVar="5" Cut="1.2232057189941406e+02" cType="1" res="-4.3822813779115677e-02" rms="3.8373029232025146e-01" purity="5.0821012258529663e-01" nType="0">
          <Node pos="l" depth="2" NCoef="0" IVar="-1" Cut="0.0000000000000000e+00" cType="1" res="-1.4153037918731570e-03" rms="3.9229470491409302e-01" purity="5.8160072565078735e-01" nType="-99"/>
          <Node pos="r" depth="2" NCoef="0" IVar="-1" Cut="0.0000000000000000e+00" cType="1" res="-1.6396708786487579e-02" rms="2.8834244608879089e-01" purity="1.2243287265300751e-01" nType="-99"/>
        </Node>
      </Node>
    </BinaryTree>
    <BinaryTree type="DecisionTree" boostWeight="1.0000000000000000e+00" itree="55">
      <Node pos="s" depth="0" NCoef="0" IVar="5" Cut="4.9355957031250000e+01" cType="1" res="-4.9468066543340683e-02" rms="3.9403304457664490e-01" purity="4.8191636800765991e-01" nType="0">
        <Node pos="l" depth="1" NCoef="0" IVar="7" Cut="7.3792636394500732e-01" cType="1" res="-2.2955860197544098e-01" rms="3.5455945134162903e-01" purity="1.9672203063964844e-01" nType="0">
          <Node pos="l" depth="2" NCoef="0" IVar="-1" Cut="0.0000000000000000e+00" cType="1" res="-1.0810011997818947e-02" rms="4.0470501780509949e-01" purity="3.6804980039596558e-01" nType="-99"/>
          <Node pos="r" depth="2" NCoef="0" IVar="-1" Cut="0.0000000000000000e+00" cType="1" res="-1.2864671647548676e-02" rms="3.1364372372627258e-01" purity="1.2610493600368500e-01" nType="-99"/>
        </Node>
        <Node pos="r" depth="1" NCoef="0" IVar="5" Cut="1.1675511169433594e+02" cType="1" res="-2.7154153212904930e-02" rms="3.9294645190238953e-01" purity="5.1725310087203979e-01" nType="0">
          <Node pos="l" depth="2" NCoef="0" IVar="-1" Cut="0.0000000000000000e+00" cType="1" res="1.0330871009500697e-04" rms="4.0072163939476013e-01" purity="5.8353906869888306e-01" nType="-99"/>
          <Node pos="r" depth="2" NCoef="0" IVar="-1" Cut="0.0000000000000000e+00" cType="1" res="-1.2422370724380016e-02" rms="3.1855961680412292e-01" purity="1.9478270411491394e-01" nType="-99"/>
        </Node>
      </Node>
    </BinaryTree>
    <BinaryTree type="DecisionTree" boostWeight="1.0000000000000000e+00" itree="56">
      <Node pos="s" depth="0" NCoef="0" IVar="4" Cut="4.0113178253173828e+01" cType="1" res="-5.4247938096523285e-02" rms="3.9890438318252563e-01" purity="4.8973432183265686e-01" nType="0">
        <Node pos="l" depth="1" NCoef="0" IVar="3" Cut="4.7203025817871094e+01" cType="1" res="-8.9605003595352173e-02" rms="4.1296899318695068e-01" purity="3.8552436232566833e-01" nType="0">
          <Node pos="l" depth="2" NCoef="0" IVar="-1" Cut="0.0000000000000000e+00" cType="1" res="-6.7938403226435184e-03" rms="3.8596895337104797e-01" purity="2.2715842723846436e-01" nType="-99"/>
          <Node pos="r" depth="2" NCoef="0" IVar="-1" Cut="0.0000000000000000e+00" cType="1" res="-5.1136896945536137e-03" rms="4.3478155136108398e-01" purity="5.5493718385696411e-01" nType="-99"/>
        </Node>
        <Node pos="r" depth="1" NCoef="0" IVar="5" Cut="1.2310085296630859e+02" cType="1" res="3.2914087176322937e-02" rms="3.4683772921562195e-01" purity="7.4663203954696655e-01" nType="0">
          <Node pos="l" depth="2" NCoef="0" IVar="-1" Cut="0.0000000000000000e+00" cType="1" res="1.2505625374615192e-02" rms="3.2837533950805664e-01" purity="8.4044480323791504e-01" nType="-99"/>
          <Node pos="r" depth="2" NCoef="0" IVar="-1" Cut="0.0000000000000000e+00" cType="1" res="-1.0638905689120293e-02" rms="4.0041559934616089e-01" purity="2.5861796736717224e-01" nType="-99"/>
        </Node>
      </Node>
    </BinaryTree>
    <BinaryTree type="DecisionTree" boostWeight="1.0000000000000000e+00" itree="57">
      <Node pos="s" depth="0" NCoef="0" IVar="3" Cut="4.4547908782958984e+01" cType="1" res="-3.0532469972968102e-02" rms="3.8565495610237122e-01" purity="5.0658053159713745e-01" nType="0">
        <Node pos="l" depth="1" NCoef="0" IVar="2" Cut="3.5754603125000000e+05" cType="1" res="-1.2866443395614624e-01" rms="3.6276236176490784e-01" purity="2.1283183991909027e-01" nType="0">
          <Node pos="l" depth="2" NCoef="0" IVar="-1" Cut="0.0000000000000000e+00" cType="1" res="-8.3825299516320229e-03" rms="3.3093559741973877e-01" purity="1.5611684322357178e-01" nType="-99"/>
          <Node pos="r" depth="2" NCoef="0" IVar="-1" Cut="0.0000000000000000e+00" cType="1" res="-1.2663418892771006e-03" rms="4.5772016048431396e-01" purity="4.5409029722213745e-01" nType="-99"/>
        </Node>
        <Node pos="r" depth="1" NCoef="0" IVar="2" Cut="1.8709821875000000e+05" cType="1" res="2.2104268893599510e-02" rms="3.8727742433547974e-01" purity="6.6414368152618408e-01" nType="0">
          <Node pos="l" depth="2" NCoef="0" IVar="-1" Cut="0.0000000000000000e+00" cType="1" res="-1.2566043063998222e-02" rms="3.9417392015457153e-01" purity="3.3589929342269897e-01" nType="-99"/>
          <Node pos="r" depth="2" NCoef="0" IVar="-1" Cut="0.0000000000000000e+00" cType="1" res="9.4441100955009460e-03" rms="3.7913095951080322e-01" purity="7.4160510301589966e-01" nType="-99"/>
        </Node>
      </Node>
    </BinaryTree>
    <BinaryTree type="DecisionTree" boostWeight="1.0000000000000000e+00" itree="58">
      <Node pos="s" depth="0" NCoef="0" IVar="6" Cut="1.0668842792510986e+00" cType="1" res="-5.0021879374980927e-02" rms="3.8740295171737671e-01" purity="4.9699378013610840e-01" nType="0">
        <Node pos="l" depth="1" NCoef="0" IVar="2" Cut="1.8934256250000000e+05" cType="1" res="2.5836301967501640e-02" rms="3.6707243323326111e-01" purity="6.5282356739044189e-01" nType="0">
          <Node pos="l" depth="2" NCoef="0" IVar="-1" Cut="0.0000000000000000e+00" cType="1" res="-1.6328606754541397e-02" rms="3.8078752160072327e-01" purity="2.4917784333229065e-01" nType="-99"/>
          <Node pos="r" depth="2" NCoef="0" IVar="-1" Cut="0.0000000000000000e+00" cType="1" res="7.9373009502887726e-03" rms="3.5203075408935547e-01" purity="7.3329484462738037e-01" nType="-99"/>
        </Node>
        <Node pos="r" depth="1" NCoef="0" IVar="4" Cut="4.6976974487304688e+01" cType="1" res="-1.3563835620880127e-01" rms="3.9187777042388916e-01" purity="3.2111823558807373e-01" nType="0">
          <Node pos="l" depth="2" NCoef="0" IVar="-1" Cut="0.0000000000000000e+00" cType="1" res="-1.1155333369970322e-02" rms="3.9225721359252930e-01" purity="2.6650291681289673e-01" nType="-99"/>
          <Node pos="r" depth="2" NCoef="0" IVar="-1" Cut="0.0000000000000000e+00" cType="1" res="1.1014235205948353e-02" rms="3.3299404382705688e-01" purity="6.8984770774841309e-01" nType="-99"/>
        </Node>
      </Node>
    </BinaryTree>
    <BinaryTree type="DecisionTree" boostWeight="1.0000000000000000e+00" itree="59">
      <Node pos="s" depth="0" NCoef="0" IVar="5" Cut="1.1506153869628906e+02" cType="1" res="-3.2567754387855530e-02" rms="3.8849323987960815e-01" purity="5.1043701171875000e-01" nType="0">
        <Node pos="l" depth="1" NCoef="0" IVar="5" Cut="4.2759555816650391e+01" cType="1" res="-4.6549942344427109e-03" rms="3.9491784572601318e-01" purity="5.6952971220016479e-01" nType="0">
          <Node pos="l" depth="2" NCoef="0" IVar="-1" Cut="0.0000000000000000e+00" cType="1" res="-1.2744353152811527e-02" rms="3.5223066806793213e-01" purity="1.6550701856613159e-01" nType="-99"/>
          <Node pos="r" depth="2" NCoef="0" IVar="-1" Cut="0.0000000000000000e+00" cType="1" res="1.9714112859219313e-03" rms="3.9152029156684875e-01" purity="6.0823774337768555e-01" nType="-99"/>
        </Node>
        <Node pos="r" depth="1" NCoef="0" IVar="3" Cut="9.9722122192382812e+01" cType="1" res="-1.8196992576122284e-01" rms="3.1224372982978821e-01" purity="1.9414499402046204e-01" nType="0">
          <Node pos="l" depth="2" NCoef="0" IVar="-1" Cut="0.0000000000000000e+00" cType="1" res="-1.4762439765036106e-02" rms="2.5969052314758301e-01" purity="1.0781408101320267e-01" nType="-99"/>
          <Node pos="r" depth="2" NCoef="0" IVar="-1" Cut="0.0000000000000000e+00" cType="1" res="-1.6991923330351710e-03" rms="4.0736731886863708e-01" purity="4.9763295054435730e-01" nType="-99"/>
        </Node>
      </Node>
    </BinaryTree>
    <BinaryTree type="DecisionTree" boostWeight="1.0000000000000000e+00" itree="60">
      <Node pos="s" depth="0" NCoef="0" IVar="2" Cut="2.9242890625000000e+05" cType="1" res="-4.8826273530721664e-02" rms="3.9153671264648438e-01" purity="4.9564594030380249e-01" nType="0">
        <Node pos="l" depth="1" NCoef="0" IVar="4" Cut="4.2008773803710938e+01" cType="1" res="-1.0689178854227066e-01" rms="3.9356368780136108e-01" purity="3.3358407020568848e-01" nType="0">
          <Node pos="l" depth="2" NCoef="0" IVar="-1" Cut="0.0000000000000000e+00" cType="1" res="-8.5386298596858978e-03" rms="3.8748961687088013e-01" purity="2.5488641858100891e-01" nType="-99"/>
          <Node pos="r" depth="2" NCoef="0" IVar="-1" Cut="0.0000000000000000e+00" cType="1" res="3.6445662844926119e-03" rms="3.9313590526580811e-01" purity="6.7298603057861328e-01" nType="-99"/>
        </Node>
        <Node pos="r" depth="1" NCoef="0" IVar="3" Cut="5.8710407257080078e+01" cType="1" res="2.4978037923574448e-02" rms="3.7622565031051636e-01" purity="7.0163506269454956e-01" nType="0">
          <Node pos="l" depth="2" NCoef="0" IVar="-1" Cut="0.0000000000000000e+00" cType="1" res="-3.7335543893277645e-03" rms="4.6178248524665833e-01" purity="4.6345508098602295e-01" nType="-99"/>
          <Node pos="r" depth="2" NCoef="0" IVar="-1" Cut="0.0000000000000000e+00" cType="1" res="3.0133355408906937e-02" rms="2.7202373743057251e-01" purity="8.8644617795944214e-01" nType="-99"/>
        </Node>
      </Node>
    </BinaryTree>
    <BinaryTree type="DecisionTree" boostWeight="1.0000000000000000e+00" itree="61">
      <Node pos="s" depth="0" NCoef="0" IVar="3" Cut="5.8512496948242188e+01" cType="1" res="-3.6611333489418030e-02" rms="3.7831151485443115e-01" purity="4.9943175911903381e-01" nType="0">
        <Node pos="l" depth="1" NCoef="0" IVar="2" Cut="3.8761515625000000e+05" cType="1" res="-1.0022423416376114e-01" rms="3.9865428209304810e-01" purity="2.9923152923583984e-01" nType="0">
          <Node pos="l" depth="2" NCoef="0" IVar="-1" Cut="0.0000000000000000e+00" cType="1" res="-8.2990638911724091e-03" rms="3.7926054000854492e-01" purity="2.3229739069938660e-01" nType="-99"/>
          <Node pos="r" depth="2" NCoef="0" IVar="-1" Cut="0.0000000000000000e+00" cType="1" res="4.1152099147439003e-03" rms="4.4833868741989136e-01" purity="6.0560369491577148e-01" nType="-99"/>
        </Node>
        <Node pos="r" depth="1" NCoef="0" IVar="5" Cut="1.2606816864013672e+02" cType="1" res="3.8497999310493469e-02" rms="3.3769536018371582e-01" purity="7.3581314086914062e-01" nType="0">
          <Node pos="l" depth="2" NCoef="0" IVar="-1" Cut="0.0000000000000000e+00" cType="1" res="1.7252560704946518e-02" rms="3.2409766316413879e-01" purity="8.4748423099517822e-01" nType="-99"/>
          <Node pos="r" depth="2" NCoef="0" IVar="-1" Cut="0.0000000000000000e+00" cType="1" res="-1.2899659574031830e-02" rms="3.3445820212364197e-01" purity="1.7268015444278717e-01" nType="-99"/>
        </Node>
      </Node>
    </BinaryTree>
    <BinaryTree type="DecisionTree" boostWeight="1.0000000000000000e+00" itree="62">
      <Node pos="s" depth="0" NCoef="0" IVar="6" Cut="1.5176780223846436e+00" cType="1" res="-2.5448817759752274e-02" rms="3.9166474342346191e-01" purity="5.2003866434097290e-01" nType="0">
        <Node pos="l" depth="1" NCoef="0" IVar="2" Cut="2.3664876562500000e+05" cType="1" res="8.9972782880067825e-03" rms="3.8609033823013306e-01" purity="5.9992873668670654e-01" nType="0">
          <Node pos="l" depth="2" NCoef="0" IVar="-1" Cut="0.0000000000000000e+00" cType="1" res="-7.4494476430118084e-03" rms="3.9818260073661804e-01" purity="3.4244120121002197e-01" nType="-99"/>
          <Node pos="r" depth="2" NCoef="0" IVar="-1" Cut="0.0000000000000000e+00" cType="1" res="7.1851979009807110e-03" rms="3.7315508723258972e-01" purity="7.1870815753936768e-01" nType="-99"/>
        </Node>
        <Node pos="r" depth="1" NCoef="0" IVar="4" Cut="3.0225118637084961e+01" cType="1" res="-1.3128794729709625e-01" rms="3.8971135020256042e-01" purity="2.7456828951835632e-01" nType="0">
