<?xml version="1.0"?>
<MethodSetup Method="BDT::BDTG">
  <GeneralInfo>
    <Info name="TMVA Release" value="4.2.1 [262657]"/>
    <Info name="ROOT Release" value="6.14/04 [396804]"/>
    <Info name="Creator" value="zhoums"/>
    <Info name="Date" value="Thu Apr 11 20:25:11 2019"/>
    <Info name="Host" value="Linux lcgapp-slc6-x86-64-39.cern.ch 2.6.32-696.30.1.el6.x86_64 #1 SMP Tue May 22 06:09:36 CEST 2018 x86_64 x86_64 x86_64 GNU/Linux"/>
    <Info name="Dir" value="/scratchfs/atlas/zhoums/myttHMLAna"/>
    <Info name="Training events" value="4892"/>
    <Info name="TrainingTime" value="3.46196890e-01"/>
    <Info name="AnalysisType" value="Classification"/>
  </GeneralInfo>
  <Options>
    <Option name="V" modified="Yes">False</Option>
    <Option name="VerbosityLevel" modified="No">Default</Option>
    <Option name="VarTransform" modified="No">None</Option>
    <Option name="H" modified="Yes">False</Option>
    <Option name="CreateMVAPdfs" modified="No">False</Option>
    <Option name="IgnoreNegWeightsInTraining" modified="No">False</Option>
    <Option name="NTrees" modified="Yes">150</Option>
    <Option name="MaxDepth" modified="Yes">2</Option>
    <Option name="MinNodeSize" modified="Yes">2.5%</Option>
    <Option name="nCuts" modified="Yes">20</Option>
    <Option name="BoostType" modified="Yes">Grad</Option>
    <Option name="AdaBoostR2Loss" modified="No">quadratic</Option>
    <Option name="UseBaggedBoost" modified="Yes">True</Option>
    <Option name="Shrinkage" modified="Yes">1.000000e-01</Option>
    <Option name="AdaBoostBeta" modified="No">5.000000e-01</Option>
    <Option name="UseRandomisedTrees" modified="No">False</Option>
    <Option name="UseNvars" modified="No">4</Option>
    <Option name="UsePoissonNvars" modified="No">True</Option>
    <Option name="BaggedSampleFraction" modified="Yes">5.000000e-01</Option>
    <Option name="UseYesNoLeaf" modified="No">True</Option>
    <Option name="NegWeightTreatment" modified="No">pray</Option>
    <Option name="Css" modified="No">1.000000e+00</Option>
    <Option name="Cts_sb" modified="No">1.000000e+00</Option>
    <Option name="Ctb_ss" modified="No">1.000000e+00</Option>
    <Option name="Cbb" modified="No">1.000000e+00</Option>
    <Option name="NodePurityLimit" modified="No">5.000000e-01</Option>
    <Option name="SeparationType" modified="No">giniindex</Option>
    <Option name="RegressionLossFunctionBDTG" modified="No">huber</Option>
    <Option name="HuberQuantile" modified="No">7.000000e-01</Option>
    <Option name="DoBoostMonitor" modified="No">False</Option>
    <Option name="UseFisherCuts" modified="No">False</Option>
    <Option name="MinLinCorrForFisher" modified="No">8.000000e-01</Option>
    <Option name="UseExclusiveVars" modified="No">False</Option>
    <Option name="DoPreselection" modified="No">False</Option>
    <Option name="SigToBkgFraction" modified="No">1.000000e+00</Option>
    <Option name="PruneMethod" modified="No">nopruning</Option>
    <Option name="PruneStrength" modified="No">0.000000e+00</Option>
    <Option name="PruningValFraction" modified="No">5.000000e-01</Option>
    <Option name="SkipNormalization" modified="No">False</Option>
    <Option name="nEventsMin" modified="No">0</Option>
    <Option name="UseBaggedGrad" modified="No">False</Option>
    <Option name="GradBaggingFraction" modified="No">5.000000e-01</Option>
    <Option name="UseNTrainEvents" modified="No">0</Option>
    <Option name="NNodesMax" modified="No">0</Option>
  </Options>
  <Variables NVar="12">
    <Variable VarIndex="0" Expression="mindR_lepj" Label="mindR_lepj" Title="mindR_lepj" Unit="" Internal="mindR_lepj" Type="F" Min="1.06411681e-01" Max="3.89827156e+00"/>
    <Variable VarIndex="1" Expression="avdR_jj" Label="avdR_jj" Title="avdR_jj" Unit="" Internal="avdR_jj" Type="F" Min="5.50433218e-01" Max="4.16287756e+00"/>
    <Variable VarIndex="2" Expression="dR_tautau" Label="dR_tautau" Title="dR_tautau" Unit="" Internal="dR_tautau" Type="F" Min="4.13403511e-01" Max="5.45970297e+00"/>
    <Variable VarIndex="3" Expression="dR_leptau1" Label="dR_leptau1" Title="dR_leptau1" Unit="" Internal="dR_leptau1" Type="F" Min="3.70233893e-01" Max="5.01092005e+00"/>
    <Variable VarIndex="4" Expression="dR_ssleptau" Label="dR_ssleptau" Title="dR_ssleptau" Unit="" Internal="dR_ssleptau" Type="F" Min="3.41178179e-01" Max="5.47040701e+00"/>
    <Variable VarIndex="5" Expression="costheta_tautau" Label="costheta_tautau" Title="costheta_tautau" Unit="" Internal="costheta_tautau" Type="F" Min="1.04962935e-04" Max="9.99824166e-01"/>
    <Variable VarIndex="6" Expression="tau_pt_0" Label="tau_pt_0" Title="tau_pt_0" Unit="" Internal="tau_pt_0" Type="F" Min="2.51701374e+01" Max="5.82391968e+02"/>
    <Variable VarIndex="7" Expression="tau_pt_1" Label="tau_pt_1" Title="tau_pt_1" Unit="" Internal="tau_pt_1" Type="F" Min="2.50024166e+01" Max="2.30318787e+02"/>
    <Variable VarIndex="8" Expression="maxeta" Label="maxeta" Title="maxeta" Unit="" Internal="maxeta" Type="F" Min="5.75448480e-03" Max="2.49990988e+00"/>
    <Variable VarIndex="9" Expression="htjets_1l2tau" Label="htjets_1l2tau" Title="htjets_1l2tau" Unit="" Internal="htjets_1l2tau" Type="F" Min="8.13554453e+04" Max="2.13521800e+06"/>
    <Variable VarIndex="10" Expression="jjdrmin_1l2tau" Label="jjdrmin_1l2tau" Title="jjdrmin_1l2tau" Unit="" Internal="jjdrmin_1l2tau" Type="F" Min="3.81436348e-01" Max="3.28255200e+00"/>
    <Variable VarIndex="11" Expression="mtautau_1l2tau" Label="mtautau_1l2tau" Title="mtautau_1l2tau" Unit="" Internal="mtautau_1l2tau" Type="F" Min="1.33556976e+01" Max="6.37083618e+02"/>
  </Variables>
  <Spectators NSpec="0"/>
  <Classes NClass="2">
    <Class Name="Signal" Index="0"/>
    <Class Name="Background" Index="1"/>
  </Classes>
  <Transformations NTransformations="0"/>
  <MVAPdfs/>
  <Weights NTrees="150" AnalysisType="1">
    <BinaryTree type="DecisionTree" boostWeight="1.0000000000000000e+00" itree="0">
      <Node pos="s" depth="0" NCoef="0" IVar="6" Cut="5.1704509735107422e+01" cType="1" res="6.7304726690053940e-03" rms="4.9995470046997070e-01" purity="5.0673049688339233e-01" nType="0">
        <Node pos="l" depth="1" NCoef="0" IVar="7" Cut="3.7623310089111328e+01" cType="1" res="-1.8026283383369446e-01" rms="4.6637463569641113e-01" purity="3.1973716616630554e-01" nType="0">
          <Node pos="l" depth="2" NCoef="0" IVar="-1" Cut="0.0000000000000000e+00" cType="1" res="-4.5789316296577454e-02" rms="4.4450360536575317e-01" purity="2.7105340361595154e-01" nType="-99"/>
          <Node pos="r" depth="2" NCoef="0" IVar="-1" Cut="0.0000000000000000e+00" cType="1" res="4.6353384852409363e-02" rms="4.4303959608078003e-01" purity="7.3176693916320801e-01" nType="-99"/>
        </Node>
        <Node pos="r" depth="1" NCoef="0" IVar="11" Cut="1.3550549316406250e+02" cType="1" res="1.3710281252861023e-01" rms="4.8083552718162537e-01" purity="6.3710278272628784e-01" nType="0">
          <Node pos="l" depth="2" NCoef="0" IVar="-1" Cut="0.0000000000000000e+00" cType="1" res="4.4117033481597900e-02" rms="4.4871169328689575e-01" purity="7.2058510780334473e-01" nType="-99"/>
          <Node pos="r" depth="2" NCoef="0" IVar="-1" Cut="0.0000000000000000e+00" cType="1" res="-5.0206139683723450e-02" rms="4.3241599202156067e-01" purity="2.4896930158138275e-01" nType="-99"/>
        </Node>
      </Node>
    </BinaryTree>
    <BinaryTree type="DecisionTree" boostWeight="1.0000000000000000e+00" itree="1">
      <Node pos="s" depth="0" NCoef="0" IVar="7" Cut="3.2592395782470703e+01" cType="1" res="5.9416773729026318e-03" rms="4.9086582660675049e-01" purity="5.0689405202865601e-01" nType="0">
        <Node pos="l" depth="1" NCoef="0" IVar="9" Cut="2.0397571875000000e+05" cType="1" res="-1.4953339099884033e-01" rms="4.6830853819847107e-01" purity="3.4234547615051270e-01" nType="0">
          <Node pos="l" depth="2" NCoef="0" IVar="-1" Cut="0.0000000000000000e+00" cType="1" res="-6.5863937139511108e-02" rms="3.6640056967735291e-01" purity="1.6213600337505341e-01" nType="-99"/>
          <Node pos="r" depth="2" NCoef="0" IVar="-1" Cut="0.0000000000000000e+00" cType="1" res="-9.0517755597829819e-03" rms="4.8917660117149353e-01" purity="4.4735428690910339e-01" nType="-99"/>
        </Node>
        <Node pos="r" depth="1" NCoef="0" IVar="9" Cut="3.1420434375000000e+05" cType="1" res="1.5835373103618622e-01" rms="4.6393281221389771e-01" purity="6.6820096969604492e-01" nType="0">
          <Node pos="l" depth="2" NCoef="0" IVar="-1" Cut="0.0000000000000000e+00" cType="1" res="7.1573313325643539e-03" rms="4.9142804741859436e-01" purity="5.4316860437393188e-01" nType="-99"/>
          <Node pos="r" depth="2" NCoef="0" IVar="-1" Cut="0.0000000000000000e+00" cType="1" res="6.7544110119342804e-02" rms="3.5088333487510681e-01" purity="8.5037040710449219e-01" nType="-99"/>
        </Node>
      </Node>
    </BinaryTree>
    <BinaryTree type="DecisionTree" boostWeight="1.0000000000000000e+00" itree="2">
      <Node pos="s" depth="0" NCoef="0" IVar="6" Cut="5.1789897918701172e+01" cType="1" res="-1.1454223655164242e-02" rms="4.8302489519119263e-01" purity="4.9029627442359924e-01" nType="0">
        <Node pos="l" depth="1" NCoef="0" IVar="8" Cut="1.3262112140655518e+00" cType="1" res="-1.8037365376949310e-01" rms="4.4779807329177856e-01" purity="2.9498147964477539e-01" nType="0">
          <Node pos="l" depth="2" NCoef="0" IVar="-1" Cut="0.0000000000000000e+00" cType="1" res="-1.6263401135802269e-02" rms="4.8084715008735657e-01" purity="3.9816194772720337e-01" nType="-99"/>
          <Node pos="r" depth="2" NCoef="0" IVar="-1" Cut="0.0000000000000000e+00" cType="1" res="-5.9221033006906509e-02" rms="3.7542375922203064e-01" purity="1.7661502957344055e-01" nType="-99"/>
        </Node>
        <Node pos="r" depth="1" NCoef="0" IVar="11" Cut="1.2929718017578125e+02" cType="1" res="1.1999321728944778e-01" rms="4.6834456920623779e-01" purity="6.4228373765945435e-01" nType="0">
          <Node pos="l" depth="2" NCoef="0" IVar="-1" Cut="0.0000000000000000e+00" cType="1" res="3.4806180745363235e-02" rms="4.5022556185722351e-01" purity="7.0168149471282959e-01" nType="-99"/>
          <Node pos="r" depth="2" NCoef="0" IVar="-1" Cut="0.0000000000000000e+00" cType="1" res="-3.6899022758007050e-02" rms="4.5381581783294678e-01" purity="3.0255517363548279e-01" nType="-99"/>
        </Node>
      </Node>
    </BinaryTree>
    <BinaryTree type="DecisionTree" boostWeight="1.0000000000000000e+00" itree="3">
      <Node pos="s" depth="0" NCoef="0" IVar="8" Cut="1.6718314886093140e+00" cType="1" res="1.7795981839299202e-02" rms="4.7696042060852051e-01" purity="5.1956635713577271e-01" nType="0">
        <Node pos="l" depth="1" NCoef="0" IVar="11" Cut="7.0052352905273438e+01" cType="1" res="1.0969749093055725e-01" rms="4.6768611669540405e-01" purity="6.2358629703521729e-01" nType="0">
          <Node pos="l" depth="2" NCoef="0" IVar="-1" Cut="0.0000000000000000e+00" cType="1" res="-6.5819127485156059e-03" rms="4.8546448349952698e-01" purity="4.6695092320442200e-01" nType="-99"/>
          <Node pos="r" depth="2" NCoef="0" IVar="-1" Cut="0.0000000000000000e+00" cType="1" res="4.2456798255443573e-02" rms="4.2700350284576416e-01" purity="7.3426914215087891e-01" nType="-99"/>
        </Node>
        <Node pos="r" depth="1" NCoef="0" IVar="11" Cut="1.0877371215820312e+02" cType="1" res="-2.1738521754741669e-01" rms="4.1591733694076538e-01" purity="2.5337356328964233e-01" nType="0">
          <Node pos="l" depth="2" NCoef="0" IVar="-1" Cut="0.0000000000000000e+00" cType="1" res="-2.5953603908419609e-02" rms="4.5488217473030090e-01" purity="3.4695875644683838e-01" nType="-99"/>
          <Node pos="r" depth="2" NCoef="0" IVar="-1" Cut="0.0000000000000000e+00" cType="1" res="-7.3028773069381714e-02" rms="2.9171556234359741e-01" purity="1.0319509357213974e-01" nType="-99"/>
        </Node>
      </Node>
    </BinaryTree>
    <BinaryTree type="DecisionTree" boostWeight="1.0000000000000000e+00" itree="4">
      <Node pos="s" depth="0" NCoef="0" IVar="6" Cut="6.6550773620605469e+01" cType="1" res="-1.2756773270666599e-02" rms="4.6877121925354004e-01" purity="4.8917606472969055e-01" nType="0">
        <Node pos="l" depth="1" NCoef="0" IVar="7" Cut="3.6181182861328125e+01" cType="1" res="-1.2514810264110565e-01" rms="4.5666593313217163e-01" purity="3.5241547226905823e-01" nType="0">
          <Node pos="l" depth="2" NCoef="0" IVar="-1" Cut="0.0000000000000000e+00" cType="1" res="-3.9248485118150711e-02" rms="4.2978698015213013e-01" purity="2.6681280136108398e-01" nType="-99"/>
          <Node pos="r" depth="2" NCoef="0" IVar="-1" Cut="0.0000000000000000e+00" cType="1" res="1.9577572122216225e-02" rms="4.7068259119987488e-01" purity="6.3035243749618530e-01" nType="-99"/>
        </Node>
        <Node pos="r" depth="1" NCoef="0" IVar="11" Cut="1.3140472412109375e+02" cType="1" res="1.6307923197746277e-01" rms="4.3196326494216919e-01" purity="7.0313769578933716e-01" nType="0">
          <Node pos="l" depth="2" NCoef="0" IVar="-1" Cut="0.0000000000000000e+00" cType="1" res="4.8591382801532745e-02" rms="3.9106339216232300e-01" purity="7.9838871955871582e-01" nType="-99"/>
          <Node pos="r" depth="2" NCoef="0" IVar="-1" Cut="0.0000000000000000e+00" cType="1" res="-2.7155539020895958e-02" rms="4.5580357313156128e-01" purity="3.2914054393768311e-01" nType="-99"/>
        </Node>
      </Node>
    </BinaryTree>
    <BinaryTree type="DecisionTree" boostWeight="1.0000000000000000e+00" itree="5">
      <Node pos="s" depth="0" NCoef="0" IVar="9" Cut="2.8106493750000000e+05" cType="1" res="-1.3890174217522144e-02" rms="4.6415945887565613e-01" purity="4.8877519369125366e-01" nType="0">
        <Node pos="l" depth="1" NCoef="0" IVar="7" Cut="4.0138813018798828e+01" cType="1" res="-1.2493072450160980e-01" rms="4.5064988732337952e-01" purity="3.5560852289199829e-01" nType="0">
          <Node pos="l" depth="2" NCoef="0" IVar="-1" Cut="0.0000000000000000e+00" cType="1" res="-3.7264578044414520e-02" rms="4.2815700173377991e-01" purity="2.8039550781250000e-01" nType="-99"/>
          <Node pos="r" depth="2" NCoef="0" IVar="-1" Cut="0.0000000000000000e+00" cType="1" res="1.4356078580021858e-02" rms="4.6996057033538818e-01" purity="6.1118328571319580e-01" nType="-99"/>
        </Node>
        <Node pos="r" depth="1" NCoef="0" IVar="8" Cut="1.9026989936828613e+00" cType="1" res="1.1296162754297256e-01" rms="4.4652590155601501e-01" purity="6.4090365171432495e-01" nType="0">
          <Node pos="l" depth="2" NCoef="0" IVar="-1" Cut="0.0000000000000000e+00" cType="1" res="3.5730246454477310e-02" rms="4.2742082476615906e-01" purity="7.1718800067901611e-01" nType="-99"/>
          <Node pos="r" depth="2" NCoef="0" IVar="-1" Cut="0.0000000000000000e+00" cType="1" res="-3.9604410529136658e-02" rms="4.1270020604133606e-01" purity="2.5967377424240112e-01" nType="-99"/>
        </Node>
      </Node>
    </BinaryTree>
    <BinaryTree type="DecisionTree" boostWeight="1.0000000000000000e+00" itree="6">
      <Node pos="s" depth="0" NCoef="0" IVar="6" Cut="8.7317939758300781e+01" cType="1" res="9.0032983571290970e-03" rms="4.5801302790641785e-01" purity="5.1037603616714478e-01" nType="0">
        <Node pos="l" depth="1" NCoef="0" IVar="8" Cut="1.3121827840805054e+00" cType="1" res="-4.9492254853248596e-02" rms="4.6147772669792175e-01" purity="4.3173891305923462e-01" nType="0">
          <Node pos="l" depth="2" NCoef="0" IVar="-1" Cut="0.0000000000000000e+00" cType="1" res="7.8751044347882271e-03" rms="4.7274625301361084e-01" purity="5.5026936531066895e-01" nType="-99"/>
          <Node pos="r" depth="2" NCoef="0" IVar="-1" Cut="0.0000000000000000e+00" cType="1" res="-3.4896824508905411e-02" rms="4.1725775599479675e-01" purity="2.7142724394798279e-01" nType="-99"/>
        </Node>
        <Node pos="r" depth="1" NCoef="0" IVar="11" Cut="1.2094776153564453e+02" cType="1" res="2.0791573822498322e-01" rms="3.8437119126319885e-01" purity="7.7777916193008423e-01" nType="0">
          <Node pos="l" depth="2" NCoef="0" IVar="-1" Cut="0.0000000000000000e+00" cType="1" res="6.0568246990442276e-02" rms="3.0813887715339661e-01" purity="8.8957196474075317e-01" nType="-99"/>
          <Node pos="r" depth="2" NCoef="0" IVar="-1" Cut="0.0000000000000000e+00" cType="1" res="-5.7962187565863132e-03" rms="4.7524124383926392e-01" purity="4.5339664816856384e-01" nType="-99"/>
        </Node>
      </Node>
    </BinaryTree>
    <BinaryTree type="DecisionTree" boostWeight="1.0000000000000000e+00" itree="7">
      <Node pos="s" depth="0" NCoef="0" IVar="7" Cut="3.9488719940185547e+01" cType="1" res="-6.4408737234771252e-03" rms="4.5010787248611450e-01" purity="4.9308872222900391e-01" nType="0">
        <Node pos="l" depth="1" NCoef="0" IVar="8" Cut="1.5438446998596191e+00" cType="1" res="-8.7711222469806671e-02" rms="4.4762915372848511e-01" purity="3.7609425187110901e-01" nType="0">
          <Node pos="l" depth="2" NCoef="0" IVar="-1" Cut="0.0000000000000000e+00" cType="1" res="-2.6113968488061801e-05" rms="4.7041615843772888e-01" purity="4.9736121296882629e-01" nType="-99"/>
          <Node pos="r" depth="2" NCoef="0" IVar="-1" Cut="0.0000000000000000e+00" cType="1" res="-4.5729763805866241e-02" rms="3.7552204728126526e-01" purity="1.9605445861816406e-01" nType="-99"/>
        </Node>
        <Node pos="r" depth="1" NCoef="0" IVar="8" Cut="9.8296636343002319e-01" cType="1" res="1.8984337151050568e-01" rms="3.9178043603897095e-01" purity="7.7565395832061768e-01" nType="0">
          <Node pos="l" depth="2" NCoef="0" IVar="-1" Cut="0.0000000000000000e+00" cType="1" res="6.0653146356344223e-02" rms="2.9360383749008179e-01" purity="8.9647054672241211e-01" nType="-99"/>
          <Node pos="r" depth="2" NCoef="0" IVar="-1" Cut="0.0000000000000000e+00" cType="1" res="1.9054604694247246e-02" rms="4.5087090134620667e-01" purity="6.5208619832992554e-01" nType="-99"/>
        </Node>
      </Node>
    </BinaryTree>
    <BinaryTree type="DecisionTree" boostWeight="1.0000000000000000e+00" itree="8">
      <Node pos="s" depth="0" NCoef="0" IVar="9" Cut="2.8106493750000000e+05" cType="1" res="-1.2185141444206238e-02" rms="4.4351771473884583e-01" purity="4.8534449934959412e-01" nType="0">
        <Node pos="l" depth="1" NCoef="0" IVar="7" Cut="3.6073650360107422e+01" cType="1" res="-1.1532860994338989e-01" rms="4.3292647600173950e-01" purity="3.4043124318122864e-01" nType="0">
          <Node pos="l" depth="2" NCoef="0" IVar="-1" Cut="0.0000000000000000e+00" cType="1" res="-3.9131831377744675e-02" rms="4.0075448155403137e-01" purity="2.3340021073818207e-01" nType="-99"/>
          <Node pos="r" depth="2" NCoef="0" IVar="-1" Cut="0.0000000000000000e+00" cType="1" res="1.1885696090757847e-02" rms="4.5901936292648315e-01" purity="6.0154205560684204e-01" nType="-99"/>
        </Node>
        <Node pos="r" depth="1" NCoef="0" IVar="8" Cut="1.7574034929275513e+00" cType="1" res="1.1721212416887283e-01" rms="4.2221227288246155e-01" purity="6.6714346408843994e-01" nType="0">
          <Node pos="l" depth="2" NCoef="0" IVar="-1" Cut="0.0000000000000000e+00" cType="1" res="3.6778494715690613e-02" rms="4.0143594145774841e-01" purity="7.5707578659057617e-01" nType="-99"/>
          <Node pos="r" depth="2" NCoef="0" IVar="-1" Cut="0.0000000000000000e+00" cType="1" res="-2.0690871402621269e-02" rms="4.2943939566612244e-01" purity="3.2626995444297791e-01" nType="-99"/>
        </Node>
      </Node>
    </BinaryTree>
    <BinaryTree type="DecisionTree" boostWeight="1.0000000000000000e+00" itree="9">
      <Node pos="s" depth="0" NCoef="0" IVar="6" Cut="5.0592308044433594e+01" cType="1" res="1.4633988030254841e-02" rms="4.4386497139930725e-01" purity="5.1838433742523193e-01" nType="0">
        <Node pos="l" depth="1" NCoef="0" IVar="7" Cut="2.8310741424560547e+01" cType="1" res="-1.1870168894529343e-01" rms="4.3358358740806580e-01" purity="2.9546803236007690e-01" nType="0">
          <Node pos="l" depth="2" NCoef="0" IVar="-1" Cut="0.0000000000000000e+00" cType="1" res="-4.3740577995777130e-02" rms="3.7336176633834839e-01" purity="1.8153871595859528e-01" nType="-99"/>
          <Node pos="r" depth="2" NCoef="0" IVar="-1" Cut="0.0000000000000000e+00" cType="1" res="-1.2552317231893539e-02" rms="4.6161159873008728e-01" purity="3.7417182326316833e-01" nType="-99"/>
        </Node>
        <Node pos="r" depth="1" NCoef="0" IVar="8" Cut="1.6555154323577881e+00" cType="1" res="1.1433303356170654e-01" rms="4.2488628625869751e-01" purity="6.8506550788879395e-01" nType="0">
          <Node pos="l" depth="2" NCoef="0" IVar="-1" Cut="0.0000000000000000e+00" cType="1" res="3.7509419023990631e-02" rms="3.9642274379730225e-01" purity="7.7881443500518799e-01" nType="-99"/>
          <Node pos="r" depth="2" NCoef="0" IVar="-1" Cut="0.0000000000000000e+00" cType="1" res="-1.6407085582613945e-02" rms="4.5265364646911621e-01" purity="3.8919195532798767e-01" nType="-99"/>
        </Node>
      </Node>
    </BinaryTree>
    <BinaryTree type="DecisionTree" boostWeight="1.0000000000000000e+00" itree="10">
      <Node pos="s" depth="0" NCoef="0" IVar="10" Cut="1.2950475215911865e+00" cType="1" res="-1.4460015110671520e-02" rms="4.4189873337745667e-01" purity="4.8941212892532349e-01" nType="0">
        <Node pos="l" depth="1" NCoef="0" IVar="9" Cut="1.7915842187500000e+05" cType="1" res="6.2067806720733643e-02" rms="4.3277004361152649e-01" purity="5.8418411016464233e-01" nType="0">
          <Node pos="l" depth="2" NCoef="0" IVar="-1" Cut="0.0000000000000000e+00" cType="1" res="-4.0566053241491318e-02" rms="4.1896900534629822e-01" purity="2.6235383749008179e-01" nType="-99"/>
          <Node pos="r" depth="2" NCoef="0" IVar="-1" Cut="0.0000000000000000e+00" cType="1" res="2.4124981835484505e-02" rms="4.1755998134613037e-01" purity="6.4755129814147949e-01" nType="-99"/>
        </Node>
        <Node pos="r" depth="1" NCoef="0" IVar="11" Cut="1.2673896789550781e+02" cType="1" res="-1.5452241897583008e-01" rms="4.2373555898666382e-01" purity="3.1595900654792786e-01" nType="0">
          <Node pos="l" depth="2" NCoef="0" IVar="-1" Cut="0.0000000000000000e+00" cType="1" res="-2.5436436757445335e-02" rms="4.3787220120429993e-01" purity="3.5982605814933777e-01" nType="-99"/>
          <Node pos="r" depth="2" NCoef="0" IVar="-1" Cut="0.0000000000000000e+00" cType="1" res="-6.4923495054244995e-02" rms="3.1574481725692749e-01" purity="1.2956792116165161e-01" nType="-99"/>
        </Node>
      </Node>
    </BinaryTree>
    <BinaryTree type="DecisionTree" boostWeight="1.0000000000000000e+00" itree="11">
      <Node pos="s" depth="0" NCoef="0" IVar="8" Cut="2.0276780128479004e+00" cType="1" res="-2.8698437381535769e-03" rms="4.3449544906616211e-01" purity="5.0209134817123413e-01" nType="0">
        <Node pos="l" depth="1" NCoef="0" IVar="9" Cut="3.1281543750000000e+05" cType="1" res="3.7727925926446915e-02" rms="4.4294518232345581e-01" purity="5.7201045751571655e-01" nType="0">
          <Node pos="l" depth="2" NCoef="0" IVar="-1" Cut="0.0000000000000000e+00" cType="1" res="-8.1171123310923576e-03" rms="4.5642152428627014e-01" purity="4.4923454523086548e-01" nType="-99"/>
          <Node pos="r" depth="2" NCoef="0" IVar="-1" Cut="0.0000000000000000e+00" cType="1" res="3.4955251961946487e-02" rms="3.9082366228103638e-01" purity="7.6853650808334351e-01" nType="-99"/>
        </Node>
        <Node pos="r" depth="1" NCoef="0" IVar="2" Cut="2.4479980468750000e+00" cType="1" res="-2.1566164493560791e-01" rms="3.0984833836555481e-01" purity="1.3561220467090607e-01" nType="0">
          <Node pos="l" depth="2" NCoef="0" IVar="-1" Cut="0.0000000000000000e+00" cType="1" res="-2.0187878981232643e-02" rms="4.3079340457916260e-01" purity="3.1574788689613342e-01" nType="-99"/>
          <Node pos="r" depth="2" NCoef="0" IVar="-1" Cut="0.0000000000000000e+00" cType="1" res="-6.2967643141746521e-02" rms="2.0811407268047333e-01" purity="5.0519615411758423e-02" nType="-99"/>
        </Node>
      </Node>
    </BinaryTree>
    <BinaryTree type="DecisionTree" boostWeight="1.0000000000000000e+00" itree="12">
      <Node pos="s" depth="0" NCoef="0" IVar="8" Cut="2.1436018943786621e+00" cType="1" res="-2.6885105762630701e-03" rms="4.3397155404090881e-01" purity="5.0256168842315674e-01" nType="0">
        <Node pos="l" depth="1" NCoef="0" IVar="11" Cut="6.8316734313964844e+01" cType="1" res="2.9444741085171700e-02" rms="4.3992638587951660e-01" purity="5.5697566270828247e-01" nType="0">
          <Node pos="l" depth="2" NCoef="0" IVar="-1" Cut="0.0000000000000000e+00" cType="1" res="-1.7478860914707184e-02" rms="4.4478169083595276e-01" purity="3.9610463380813599e-01" nType="-99"/>
          <Node pos="r" depth="2" NCoef="0" IVar="-1" Cut="0.0000000000000000e+00" cType="1" res="2.0954458042979240e-02" rms="4.2311173677444458e-01" purity="6.5342545509338379e-01" nType="-99"/>
        </Node>
        <Node pos="r" depth="1" NCoef="0" IVar="4" Cut="2.4101812839508057e+00" cType="1" res="-2.3830141127109528e-01" rms="2.9510983824729919e-01" purity="1.0357848554849625e-01" nType="0">
          <Node pos="l" depth="2" NCoef="0" IVar="-1" Cut="0.0000000000000000e+00" cType="1" res="-3.8014676421880722e-02" rms="3.8647007942199707e-01" purity="1.9235488772392273e-01" nType="-99"/>
          <Node pos="r" depth="2" NCoef="0" IVar="-1" Cut="0.0000000000000000e+00" cType="1" res="-6.7237436771392822e-02" rms="1.8536280095577240e-01" purity="3.6993067711591721e-02" nType="-99"/>
        </Node>
      </Node>
    </BinaryTree>
    <BinaryTree type="DecisionTree" boostWeight="1.0000000000000000e+00" itree="13">
      <Node pos="s" depth="0" NCoef="0" IVar="7" Cut="3.3081645965576172e+01" cType="1" res="-5.4895267821848392e-03" rms="4.2943739891052246e-01" purity="4.9278473854064941e-01" nType="0">
        <Node pos="l" depth="1" NCoef="0" IVar="11" Cut="1.1136949157714844e+02" cType="1" res="-9.3709506094455719e-02" rms="4.2341217398643494e-01" purity="3.2526990771293640e-01" nType="0">
          <Node pos="l" depth="2" NCoef="0" IVar="-1" Cut="0.0000000000000000e+00" cType="1" res="-1.1737170629203320e-02" rms="4.4376280903816223e-01" purity="3.8087621331214905e-01" nType="-99"/>
          <Node pos="r" depth="2" NCoef="0" IVar="-1" Cut="0.0000000000000000e+00" cType="1" res="-6.1793379485607147e-02" rms="2.6248848438262939e-01" purity="8.6980640888214111e-02" nType="-99"/>
        </Node>
        <Node pos="r" depth="1" NCoef="0" IVar="11" Cut="1.2796902465820312e+02" cType="1" res="8.5332073271274567e-02" rms="4.1646820306777954e-01" purity="6.6523951292037964e-01" nType="0">
          <Node pos="l" depth="2" NCoef="0" IVar="-1" Cut="0.0000000000000000e+00" cType="1" res="3.1031925231218338e-02" rms="3.9560171961784363e-01" purity="7.5068187713623047e-01" nType="-99"/>
          <Node pos="r" depth="2" NCoef="0" IVar="-1" Cut="0.0000000000000000e+00" cType="1" res="-2.7228550985455513e-02" rms="4.2699527740478516e-01" purity="3.2930541038513184e-01" nType="-99"/>
        </Node>
      </Node>
    </BinaryTree>
    <BinaryTree type="DecisionTree" boostWeight="1.0000000000000000e+00" itree="14">
      <Node pos="s" depth="0" NCoef="0" IVar="2" Cut="2.8176817893981934e+00" cType="1" res="1.9528223492670804e-04" rms="4.2576649785041809e-01" purity="5.0666803121566772e-01" nType="0">
        <Node pos="l" depth="1" NCoef="0" IVar="11" Cut="7.3345878601074219e+01" cType="1" res="4.9079157412052155e-02" rms="4.2587929964065552e-01" purity="5.8844846487045288e-01" nType="0">
          <Node pos="l" depth="2" NCoef="0" IVar="-1" Cut="0.0000000000000000e+00" cType="1" res="-1.6324432566761971e-02" rms="4.3940442800521851e-01" purity="4.0633183717727661e-01" nType="-99"/>
          <Node pos="r" depth="2" NCoef="0" IVar="-1" Cut="0.0000000000000000e+00" cType="1" res="3.8204934448003769e-02" rms="3.7396630644798279e-01" purity="7.6634562015533447e-01" nType="-99"/>
        </Node>
        <Node pos="r" depth="1" NCoef="0" IVar="5" Cut="8.0978769063949585e-01" cType="1" res="-1.5158769488334656e-01" rms="3.8797029852867126e-01" purity="2.5274214148521423e-01" nType="0">
          <Node pos="l" depth="2" NCoef="0" IVar="-1" Cut="0.0000000000000000e+00" cType="1" res="-1.6533203423023224e-02" rms="4.5124226808547974e-01" purity="3.8116919994354248e-01" nType="-99"/>
          <Node pos="r" depth="2" NCoef="0" IVar="-1" Cut="0.0000000000000000e+00" cType="1" res="-6.5710745751857758e-02" rms="1.9767348468303680e-01" purity="4.1748374700546265e-02" nType="-99"/>
        </Node>
      </Node>
    </BinaryTree>
    <BinaryTree type="DecisionTree" boostWeight="1.0000000000000000e+00" itree="15">
      <Node pos="s" depth="0" NCoef="0" IVar="9" Cut="2.3911581250000000e+05" cType="1" res="3.6988793872296810e-03" rms="4.2665538191795349e-01" purity="5.1256191730499268e-01" nType="0">
        <Node pos="l" depth="1" NCoef="0" IVar="11" Cut="7.9786705017089844e+01" cType="1" res="-9.3844413757324219e-02" rms="4.2427781224250793e-01" purity="3.3921048045158386e-01" nType="0">
          <Node pos="l" depth="2" NCoef="0" IVar="-1" Cut="0.0000000000000000e+00" cType="1" res="-3.8205012679100037e-02" rms="3.9842268824577332e-01" purity="2.2898527979850769e-01" nType="-99"/>
          <Node pos="r" depth="2" NCoef="0" IVar="-1" Cut="0.0000000000000000e+00" cType="1" res="2.6945089921355247e-03" rms="4.3362984061241150e-01" purity="4.8343330621719360e-01" nType="-99"/>
        </Node>
        <Node pos="r" depth="1" NCoef="0" IVar="8" Cut="1.0881718397140503e+00" cType="1" res="7.5696483254432678e-02" rms="4.1391009092330933e-01" purity="6.4051419496536255e-01" nType="0">
          <Node pos="l" depth="2" NCoef="0" IVar="-1" Cut="0.0000000000000000e+00" cType="1" res="3.8006737828254700e-02" rms="3.7006363272666931e-01" purity="8.0121368169784546e-01" nType="-99"/>
          <Node pos="r" depth="2" NCoef="0" IVar="-1" Cut="0.0000000000000000e+00" cType="1" res="-3.9882161654531956e-03" rms="4.3535643815994263e-01" purity="4.7438403964042664e-01" nType="-99"/>
        </Node>
      </Node>
    </BinaryTree>
    <BinaryTree type="DecisionTree" boostWeight="1.0000000000000000e+00" itree="16">
      <Node pos="s" depth="0" NCoef="0" IVar="7" Cut="3.9992366790771484e+01" cType="1" res="9.5138913020491600e-03" rms="4.1841670870780945e-01" purity="5.1814115047454834e-01" nType="0">
        <Node pos="l" depth="1" NCoef="0" IVar="11" Cut="1.2196367645263672e+02" cType="1" res="-4.5858684927225113e-02" rms="4.2818996310234070e-01" purity="3.9998447895050049e-01" nType="0">
          <Node pos="l" depth="2" NCoef="0" IVar="-1" Cut="0.0000000000000000e+00" cType="1" res="-4.1629257611930370e-03" rms="4.4346794486045837e-01" purity="4.4730225205421448e-01" nType="-99"/>
          <Node pos="r" depth="2" NCoef="0" IVar="-1" Cut="0.0000000000000000e+00" cType="1" res="-5.3923834115266800e-02" rms="2.5384506583213806e-01" purity="9.7906097769737244e-02" nType="-99"/>
        </Node>
        <Node pos="r" depth="1" NCoef="0" IVar="6" Cut="1.1886106109619141e+02" cType="1" res="1.4709714055061340e-01" rms="3.5772415995597839e-01" purity="8.1172281503677368e-01" nType="0">
          <Node pos="l" depth="2" NCoef="0" IVar="-1" Cut="0.0000000000000000e+00" cType="1" res="2.4783745408058167e-02" rms="3.9386752247810364e-01" purity="7.5816565752029419e-01" nType="-99"/>
          <Node pos="r" depth="2" NCoef="0" IVar="-1" Cut="0.0000000000000000e+00" cType="1" res="7.2750568389892578e-02" rms="8.6730524897575378e-02" purity="1.0000000000000000e+00" nType="-99"/>
        </Node>
      </Node>
    </BinaryTree>
    <BinaryTree type="DecisionTree" boostWeight="1.0000000000000000e+00" itree="17">
      <Node pos="s" depth="0" NCoef="0" IVar="6" Cut="4.3778636932373047e+01" cType="1" res="-1.4246117323637009e-02" rms="4.2086273431777954e-01" purity="4.8737135529518127e-01" nType="0">
        <Node pos="l" depth="1" NCoef="0" IVar="7" Cut="2.9285566329956055e+01" cType="1" res="-1.2974718213081360e-01" rms="3.9042884111404419e-01" purity="2.2453953325748444e-01" nType="0">
          <Node pos="l" depth="2" NCoef="0" IVar="-1" Cut="0.0000000000000000e+00" cType="1" res="-4.3174918740987778e-02" rms="3.3403536677360535e-01" purity="1.4029440283775330e-01" nType="-99"/>
          <Node pos="r" depth="2" NCoef="0" IVar="-1" Cut="0.0000000000000000e+00" cType="1" res="-1.0742876678705215e-02" rms="4.5239311456680298e-01" purity="3.5429289937019348e-01" nType="-99"/>
        </Node>
        <Node pos="r" depth="1" NCoef="0" IVar="9" Cut="2.5473590625000000e+05" cType="1" res="4.1232049465179443e-02" rms="4.2367371916770935e-01" purity="6.1361634731292725e-01" nType="0">
          <Node pos="l" depth="2" NCoef="0" IVar="-1" Cut="0.0000000000000000e+00" cType="1" res="-1.1555835604667664e-02" rms="4.5313584804534912e-01" purity="4.4079649448394775e-01" nType="-99"/>
          <Node pos="r" depth="2" NCoef="0" IVar="-1" Cut="0.0000000000000000e+00" cType="1" res="2.6183038949966431e-02" rms="3.8528665900230408e-01" purity="7.4313592910766602e-01" nType="-99"/>
        </Node>
      </Node>
    </BinaryTree>
    <BinaryTree type="DecisionTree" boostWeight="1.0000000000000000e+00" itree="18">
      <Node pos="s" depth="0" NCoef="0" IVar="9" Cut="1.5850878125000000e+05" cType="1" res="6.2592173926532269e-03" rms="4.1586574912071228e-01" purity="5.0991064310073853e-01" nType="0">
        <Node pos="l" depth="1" NCoef="0" IVar="11" Cut="7.2195281982421875e+01" cType="1" res="-1.7911405861377716e-01" rms="3.5235586762428284e-01" purity="1.8784847855567932e-01" nType="0">
          <Node pos="l" depth="2" NCoef="0" IVar="-1" Cut="0.0000000000000000e+00" cType="1" res="-5.2891481667757034e-02" rms="2.9255121946334839e-01" purity="1.1122082918882370e-01" nType="-99"/>
          <Node pos="r" depth="2" NCoef="0" IVar="-1" Cut="0.0000000000000000e+00" cType="1" res="-2.8704570606350899e-02" rms="3.9989790320396423e-01" purity="2.7033016085624695e-01" nType="-99"/>
        </Node>
        <Node pos="r" depth="1" NCoef="0" IVar="1" Cut="1.9796913862228394e+00" cType="1" res="3.6694731563329697e-02" rms="4.1759622097015381e-01" purity="5.6278848648071289e-01" nType="0">
          <Node pos="l" depth="2" NCoef="0" IVar="-1" Cut="0.0000000000000000e+00" cType="1" res="4.4291798025369644e-02" rms="3.5405707359313965e-01" purity="7.5991094112396240e-01" nType="-99"/>
          <Node pos="r" depth="2" NCoef="0" IVar="-1" Cut="0.0000000000000000e+00" cType="1" res="-5.9165002312511206e-04" rms="4.2340135574340820e-01" purity="5.1260173320770264e-01" nType="-99"/>
        </Node>
      </Node>
    </BinaryTree>
    <BinaryTree type="DecisionTree" boostWeight="1.0000000000000000e+00" itree="19">
      <Node pos="s" depth="0" NCoef="0" IVar="5" Cut="7.6178318262100220e-01" cType="1" res="-1.6196964308619499e-02" rms="4.1833692789077759e-01" purity="4.8876613378524780e-01" nType="0">
        <Node pos="l" depth="1" NCoef="0" IVar="9" Cut="3.8043146875000000e+05" cType="1" res="3.1517375260591507e-02" rms="4.2625781893730164e-01" purity="5.6708484888076782e-01" nType="0">
          <Node pos="l" depth="2" NCoef="0" IVar="-1" Cut="0.0000000000000000e+00" cType="1" res="-2.4765382986515760e-03" rms="4.4119638204574585e-01" purity="4.8457196354866028e-01" nType="-99"/>
          <Node pos="r" depth="2" NCoef="0" IVar="-1" Cut="0.0000000000000000e+00" cType="1" res="4.1978843510150909e-02" rms="3.3803433179855347e-01" purity="8.3588045835494995e-01" nType="-99"/>
        </Node>
        <Node pos="r" depth="1" NCoef="0" IVar="2" Cut="1.8872362375259399e+00" cType="1" res="-1.2723606824874878e-01" rms="3.7657576799392700e-01" purity="3.0650553107261658e-01" nType="0">
          <Node pos="l" depth="2" NCoef="0" IVar="-1" Cut="0.0000000000000000e+00" cType="1" res="-2.9907689895480871e-03" rms="4.0695831179618835e-01" purity="5.3194892406463623e-01" nType="-99"/>
          <Node pos="r" depth="2" NCoef="0" IVar="-1" Cut="0.0000000000000000e+00" cType="1" res="-4.9749419093132019e-02" rms="3.2895043492317200e-01" purity="1.4313726127147675e-01" nType="-99"/>
        </Node>
      </Node>
    </BinaryTree>
    <BinaryTree type="DecisionTree" boostWeight="1.0000000000000000e+00" itree="20">
      <Node pos="s" depth="0" NCoef="0" IVar="7" Cut="3.4779388427734375e+01" cType="1" res="8.4139890968799591e-03" rms="4.1019666194915771e-01" purity="5.1351523399353027e-01" nType="0">
        <Node pos="l" depth="1" NCoef="0" IVar="9" Cut="2.5704284375000000e+05" cType="1" res="-4.6584427356719971e-02" rms="4.1744035482406616e-01" purity="3.6054232716560364e-01" nType="0">
          <Node pos="l" depth="2" NCoef="0" IVar="-1" Cut="0.0000000000000000e+00" cType="1" res="-2.6686707511544228e-02" rms="3.9268672466278076e-01" purity="2.3680044710636139e-01" nType="-99"/>
          <Node pos="r" depth="2" NCoef="0" IVar="-1" Cut="0.0000000000000000e+00" cType="1" res="6.9757173769176006e-03" rms="4.3094936013221741e-01" purity="5.0150042772293091e-01" nType="-99"/>
        </Node>
        <Node pos="r" depth="1" NCoef="0" IVar="1" Cut="2.4349536895751953e+00" cType="1" res="8.1992022693157196e-02" rms="3.8830459117889404e-01" purity="7.1816557645797729e-01" nType="0">
          <Node pos="l" depth="2" NCoef="0" IVar="-1" Cut="0.0000000000000000e+00" cType="1" res="3.3667791634798050e-02" rms="3.5104608535766602e-01" purity="7.9508054256439209e-01" nType="-99"/>
          <Node pos="r" depth="2" NCoef="0" IVar="-1" Cut="0.0000000000000000e+00" cType="1" res="-7.6848743483424187e-03" rms="4.3222209811210632e-01" purity="5.6241750717163086e-01" nType="-99"/>
        </Node>
      </Node>
    </BinaryTree>
    <BinaryTree type="DecisionTree" boostWeight="1.0000000000000000e+00" itree="21">
      <Node pos="s" depth="0" NCoef="0" IVar="2" Cut="3.0567033290863037e+00" cType="1" res="-1.0179654927924275e-03" rms="4.1188994050025940e-01" purity="5.0853788852691650e-01" nType="0">
        <Node pos="l" depth="1" NCoef="0" IVar="6" Cut="7.0941932678222656e+01" cType="1" res="2.8939910233020782e-02" rms="4.1756552457809448e-01" purity="5.7264065742492676e-01" nType="0">
          <Node pos="l" depth="2" NCoef="0" IVar="-1" Cut="0.0000000000000000e+00" cType="1" res="-5.5786245502531528e-03" rms="4.4387489557266235e-01" purity="4.4790562987327576e-01" nType="-99"/>
          <Node pos="r" depth="2" NCoef="0" IVar="-1" Cut="0.0000000000000000e+00" cType="1" res="3.0249143019318581e-02" rms="3.4811004996299744e-01" purity="7.8960919380187988e-01" nType="-99"/>
        </Node>
        <Node pos="r" depth="1" NCoef="0" IVar="0" Cut="7.5736886262893677e-01" cType="1" res="-1.5689498186111450e-01" rms="3.4086817502975464e-01" purity="1.7499780654907227e-01" nType="0">
          <Node pos="l" depth="2" NCoef="0" IVar="-1" Cut="0.0000000000000000e+00" cType="1" res="-6.0251906514167786e-02" rms="3.4331369400024414e-01" purity="1.5155419707298279e-01" nType="-99"/>
          <Node pos="r" depth="2" NCoef="0" IVar="-1" Cut="0.0000000000000000e+00" cType="1" res="-3.0633376911282539e-02" rms="3.3266344666481018e-01" purity="1.8523100018501282e-01" nType="-99"/>
        </Node>
      </Node>
    </BinaryTree>
    <BinaryTree type="DecisionTree" boostWeight="1.0000000000000000e+00" itree="22">
      <Node pos="s" depth="0" NCoef="0" IVar="7" Cut="4.6731872558593750e+01" cType="1" res="-2.1336937323212624e-02" rms="4.0653416514396667e-01" purity="4.7866898775100708e-01" nType="0">
        <Node pos="l" depth="1" NCoef="0" IVar="11" Cut="1.2169014739990234e+02" cType="1" res="-5.2921947091817856e-02" rms="4.1802743077278137e-01" purity="3.9743804931640625e-01" nType="0">
          <Node pos="l" depth="2" NCoef="0" IVar="-1" Cut="0.0000000000000000e+00" cType="1" res="-6.0480940155684948e-03" rms="4.3543380498886108e-01" purity="4.5220875740051270e-01" nType="-99"/>
          <Node pos="r" depth="2" NCoef="0" IVar="-1" Cut="0.0000000000000000e+00" cType="1" res="-5.1256459206342697e-02" rms="2.7253842353820801e-01" purity="1.1156856268644333e-01" nType="-99"/>
        </Node>
        <Node pos="r" depth="1" NCoef="0" IVar="11" Cut="1.1979257202148438e+02" cType="1" res="1.1136381328105927e-01" rms="3.2195192575454712e-01" purity="8.1995129585266113e-01" nType="0">
          <Node pos="l" depth="2" NCoef="0" IVar="-1" Cut="0.0000000000000000e+00" cType="1" res="5.0931122153997421e-02" rms="2.2316706180572510e-01" purity="9.3549120426177979e-01" nType="-99"/>
          <Node pos="r" depth="2" NCoef="0" IVar="-1" Cut="0.0000000000000000e+00" cType="1" res="-2.6653371751308441e-02" rms="4.5363092422485352e-01" purity="4.5165303349494934e-01" nType="-99"/>
        </Node>
      </Node>
    </BinaryTree>
    <BinaryTree type="DecisionTree" boostWeight="1.0000000000000000e+00" itree="23">
      <Node pos="s" depth="0" NCoef="0" IVar="6" Cut="4.6598587036132812e+01" cType="1" res="-6.1403564177453518e-03" rms="4.0607124567031860e-01" purity="5.0666803121566772e-01" nType="0">
        <Node pos="l" depth="1" NCoef="0" IVar="1" Cut="2.5262751579284668e+00" cType="1" res="-9.7194559872150421e-02" rms="3.9779981970787048e-01" purity="2.5233000516891479e-01" nType="0">
          <Node pos="l" depth="2" NCoef="0" IVar="-1" Cut="0.0000000000000000e+00" cType="1" res="-1.2661930173635483e-02" rms="4.1689229011535645e-01" purity="3.0298894643783569e-01" nType="-99"/>
          <Node pos="r" depth="2" NCoef="0" IVar="-1" Cut="0.0000000000000000e+00" cType="1" res="-4.2258117347955704e-02" rms="3.4451320767402649e-01" purity="1.5710827708244324e-01" nType="-99"/>
        </Node>
        <Node pos="r" depth="1" NCoef="0" IVar="11" Cut="1.2768327331542969e+02" cType="1" res="4.0465366095304489e-02" rms="4.0234494209289551e-01" purity="6.3684988021850586e-01" nType="0">
          <Node pos="l" depth="2" NCoef="0" IVar="-1" Cut="0.0000000000000000e+00" cType="1" res="1.8230501562356949e-02" rms="3.9529761672019958e-01" purity="7.1116107702255249e-01" nType="-99"/>
          <Node pos="r" depth="2" NCoef="0" IVar="-1" Cut="0.0000000000000000e+00" cType="1" res="-3.2979253679513931e-02" rms="3.9093098044395447e-01" purity="2.6235383749008179e-01" nType="-99"/>
        </Node>
      </Node>
    </BinaryTree>
    <BinaryTree type="DecisionTree" boostWeight="1.0000000000000000e+00" itree="24">
      <Node pos="s" depth="0" NCoef="0" IVar="10" Cut="1.3484748601913452e+00" cType="1" res="-4.4280723668634892e-03" rms="4.0037855505943298e-01" purity="4.9360892176628113e-01" nType="0">
        <Node pos="l" depth="1" NCoef="0" IVar="9" Cut="2.8995662500000000e+05" cType="1" res="4.6106871217489243e-02" rms="3.9401873946189880e-01" purity="5.8987355232238770e-01" nType="0">
          <Node pos="l" depth="2" NCoef="0" IVar="-1" Cut="0.0000000000000000e+00" cType="1" res="-7.0601524785161018e-03" rms="4.1056594252586365e-01" purity="4.0411353111267090e-01" nType="-99"/>
          <Node pos="r" depth="2" NCoef="0" IVar="-1" Cut="0.0000000000000000e+00" cType="1" res="2.9098667204380035e-02" rms="3.6513924598693848e-01" purity="7.5728124380111694e-01" nType="-99"/>
        </Node>
        <Node pos="r" depth="1" NCoef="0" IVar="7" Cut="3.8750736236572266e+01" cType="1" res="-9.4175979495048523e-02" rms="3.9583510160446167e-01" purity="3.2264700531959534e-01" nType="0">
          <Node pos="l" depth="2" NCoef="0" IVar="-1" Cut="0.0000000000000000e+00" cType="1" res="-3.0439058318734169e-02" rms="3.7203264236450195e-01" purity="2.2199624776840210e-01" nType="-99"/>
          <Node pos="r" depth="2" NCoef="0" IVar="-1" Cut="0.0000000000000000e+00" cType="1" res="-7.5691199162974954e-04" rms="4.4915691018104553e-01" purity="6.3124519586563110e-01" nType="-99"/>
        </Node>
      </Node>
    </BinaryTree>
    <BinaryTree type="DecisionTree" boostWeight="1.0000000000000000e+00" itree="25">
      <Node pos="s" depth="0" NCoef="0" IVar="6" Cut="7.4692245483398438e+01" cType="1" res="-2.8351552318781614e-03" rms="4.0447166562080383e-01" purity="5.0510853528976440e-01" nType="0">
        <Node pos="l" depth="1" NCoef="0" IVar="1" Cut="2.5041139125823975e+00" cType="1" res="-4.3601356446743011e-02" rms="4.1896212100982666e-01" purity="3.9266610145568848e-01" nType="0">
          <Node pos="l" depth="2" NCoef="0" IVar="-1" Cut="0.0000000000000000e+00" cType="1" res="-9.0061605442315340e-04" rms="4.2104461789131165e-01" purity="4.4803643226623535e-01" nType="-99"/>
          <Node pos="r" depth="2" NCoef="0" IVar="-1" Cut="0.0000000000000000e+00" cType="1" res="-3.0302606523036957e-02" rms="4.0153285861015320e-01" purity="2.7459719777107239e-01" nType="-99"/>
        </Node>
        <Node pos="r" depth="1" NCoef="0" IVar="11" Cut="1.2140916442871094e+02" cType="1" res="8.8952362537384033e-02" rms="3.5293781757354736e-01" purity="7.5827932357788086e-01" nType="0">
          <Node pos="l" depth="2" NCoef="0" IVar="-1" Cut="0.0000000000000000e+00" cType="1" res="3.2952450215816498e-02" rms="3.1847077608108521e-01" purity="8.4306341409683228e-01" nType="-99"/>
          <Node pos="r" depth="2" NCoef="0" IVar="-1" Cut="0.0000000000000000e+00" cType="1" res="-9.6576223149895668e-03" rms="4.3771654367446899e-01" purity="4.3520119786262512e-01" nType="-99"/>
        </Node>
      </Node>
    </BinaryTree>
    <BinaryTree type="DecisionTree" boostWeight="1.0000000000000000e+00" itree="26">
      <Node pos="s" depth="0" NCoef="0" IVar="8" Cut="1.2058166265487671e+00" cType="1" res="-7.0859692059457302e-03" rms="4.0096199512481689e-01" purity="4.9031111598014832e-01" nType="0">
        <Node pos="l" depth="1" NCoef="0" IVar="11" Cut="7.4582221984863281e+01" cType="1" res="5.3024273365736008e-02" rms="4.0060058236122131e-01" purity="6.3793402910232544e-01" nType="0">
          <Node pos="l" depth="2" NCoef="0" IVar="-1" Cut="0.0000000000000000e+00" cType="1" res="-5.8294604532420635e-03" rms="4.3442472815513611e-01" purity="4.6973407268524170e-01" nType="-99"/>
          <Node pos="r" depth="2" NCoef="0" IVar="-1" Cut="0.0000000000000000e+00" cType="1" res="3.4448135644197464e-02" rms="3.4366473555564880e-01" purity="8.1318509578704834e-01" nType="-99"/>
        </Node>
        <Node pos="r" depth="1" NCoef="0" IVar="4" Cut="1.8643617630004883e+00" cType="1" res="-7.7298432588577271e-02" rms="3.8981872797012329e-01" purity="3.1787851452827454e-01" nType="0">
          <Node pos="l" depth="2" NCoef="0" IVar="-1" Cut="0.0000000000000000e+00" cType="1" res="1.9698366522789001e-02" rms="3.9928776025772095e-01" purity="4.8213863372802734e-01" nType="-99"/>
          <Node pos="r" depth="2" NCoef="0" IVar="-1" Cut="0.0000000000000000e+00" cType="1" res="-3.1576268374919891e-02" rms="3.7307539582252502e-01" purity="2.6558384299278259e-01" nType="-99"/>
        </Node>
      </Node>
    </BinaryTree>
    <BinaryTree type="DecisionTree" boostWeight="1.0000000000000000e+00" itree="27">
      <Node pos="s" depth="0" NCoef="0" IVar="9" Cut="3.4271962500000000e+05" cType="1" res="-1.0187812149524689e-02" rms="4.0528118610382080e-01" purity="4.9666938185691833e-01" nType="0">
        <Node pos="l" depth="1" NCoef="0" IVar="11" Cut="7.4268157958984375e+01" cType="1" res="-5.0316989421844482e-02" rms="4.1153404116630554e-01" purity="3.8924744725227356e-01" nType="0">
          <Node pos="l" depth="2" NCoef="0" IVar="-1" Cut="0.0000000000000000e+00" cType="1" res="-3.1239826232194901e-02" rms="4.1148653626441956e-01" purity="2.5998505949974060e-01" nType="-99"/>
          <Node pos="r" depth="2" NCoef="0" IVar="-1" Cut="0.0000000000000000e+00" cType="1" res="5.0041493959724903e-03" rms="3.9815640449523926e-01" purity="5.0014430284500122e-01" nType="-99"/>
        </Node>
        <Node pos="r" depth="1" NCoef="0" IVar="5" Cut="8.5668760538101196e-01" cType="1" res="7.7205568552017212e-02" rms="3.7680932879447937e-01" purity="7.3061311244964600e-01" nType="0">
          <Node pos="l" depth="2" NCoef="0" IVar="-1" Cut="0.0000000000000000e+00" cType="1" res="2.7769496664404869e-02" rms="3.6342599987983704e-01" purity="7.8235161304473877e-01" nType="-99"/>
          <Node pos="r" depth="2" NCoef="0" IVar="-1" Cut="0.0000000000000000e+00" cType="1" res="-1.7259322106838226e-02" rms="4.0877348184585571e-01" purity="4.6791186928749084e-01" nType="-99"/>
        </Node>
      </Node>
    </BinaryTree>
    <BinaryTree type="DecisionTree" boostWeight="1.0000000000000000e+00" itree="28">
      <Node pos="s" depth="0" NCoef="0" IVar="11" Cut="1.3351188659667969e+02" cType="1" res="-2.6438443455845118e-03" rms="4.0213143825531006e-01" purity="5.0102549791336060e-01" nType="0">
        <Node pos="l" depth="1" NCoef="0" IVar="11" Cut="6.5713172912597656e+01" cType="1" res="1.7664108425378799e-02" rms="4.0370249748229980e-01" purity="5.4355365037918091e-01" nType="0">
          <Node pos="l" depth="2" NCoef="0" IVar="-1" Cut="0.0000000000000000e+00" cType="1" res="-1.8542770296335220e-02" rms="4.0475496649742126e-01" purity="3.3409848809242249e-01" nType="-99"/>
          <Node pos="r" depth="2" NCoef="0" IVar="-1" Cut="0.0000000000000000e+00" cType="1" res="1.8601795658469200e-02" rms="3.9257735013961792e-01" purity="6.6444236040115356e-01" nType="-99"/>
        </Node>
        <Node pos="r" depth="1" NCoef="0" IVar="4" Cut="2.0901167392730713e+00" cType="1" res="-1.4004589617252350e-01" rms="3.6259371042251587e-01" purity="2.1328331530094147e-01" nType="0">
          <Node pos="l" depth="2" NCoef="0" IVar="-1" Cut="0.0000000000000000e+00" cType="1" res="-4.9576248973608017e-02" rms="4.1080015897750854e-01" purity="2.4452103674411774e-01" nType="-99"/>
          <Node pos="r" depth="2" NCoef="0" IVar="-1" Cut="0.0000000000000000e+00" cType="1" res="-2.5133229792118073e-02" rms="3.1071665883064270e-01" purity="1.8952031433582306e-01" nType="-99"/>
        </Node>
      </Node>
    </BinaryTree>
    <BinaryTree type="DecisionTree" boostWeight="1.0000000000000000e+00" itree="29">
      <Node pos="s" depth="0" NCoef="0" IVar="4" Cut="2.1503050327301025e+00" cType="1" res="-1.3228583149611950e-02" rms="4.0153217315673828e-01" purity="5.0034636259078979e-01" nType="0">
        <Node pos="l" depth="1" NCoef="0" IVar="3" Cut="2.5800843238830566e+00" cType="1" res="5.1781974732875824e-02" rms="3.8933959603309631e-01" purity="5.9308707714080811e-01" nType="0">
          <Node pos="l" depth="2" NCoef="0" IVar="-1" Cut="0.0000000000000000e+00" cType="1" res="2.8019662946462631e-02" rms="3.7956425547599792e-01" purity="6.8564462661743164e-01" nType="-99"/>
          <Node pos="r" depth="2" NCoef="0" IVar="-1" Cut="0.0000000000000000e+00" cType="1" res="-2.8057161718606949e-02" rms="3.6937537789344788e-01" purity="3.3457463979721069e-01" nType="-99"/>
        </Node>
        <Node pos="r" depth="1" NCoef="0" IVar="3" Cut="2.1693465709686279e+00" cType="1" res="-6.1021052300930023e-02" rms="4.0364071726799011e-01" purity="4.3216803669929504e-01" nType="0">
          <Node pos="l" depth="2" NCoef="0" IVar="-1" Cut="0.0000000000000000e+00" cType="1" res="-3.6029625684022903e-02" rms="4.0594753623008728e-01" purity="3.1744486093521118e-01" nType="-99"/>
          <Node pos="r" depth="2" NCoef="0" IVar="-1" Cut="0.0000000000000000e+00" cType="1" res="-5.2476474083960056e-03" rms="3.9633142948150635e-01" purity="4.8951926827430725e-01" nType="-99"/>
        </Node>
      </Node>
    </BinaryTree>
    <BinaryTree type="DecisionTree" boostWeight="1.0000000000000000e+00" itree="30">
      <Node pos="s" depth="0" NCoef="0" IVar="11" Cut="1.2504181671142578e+02" cType="1" res="-9.3717075651511550e-04" rms="4.0198734402656555e-01" purity="5.0617724657058716e-01" nType="0">
        <Node pos="l" depth="1" NCoef="0" IVar="11" Cut="6.6717605590820312e+01" cType="1" res="2.2955060005187988e-02" rms="4.0544813871383667e-01" purity="5.5888205766677856e-01" nType="0">
          <Node pos="l" depth="2" NCoef="0" IVar="-1" Cut="0.0000000000000000e+00" cType="1" res="-1.3255571015179157e-02" rms="4.0414145588874817e-01" purity="3.5738161206245422e-01" nType="-99"/>
          <Node pos="r" depth="2" NCoef="0" IVar="-1" Cut="0.0000000000000000e+00" cType="1" res="1.8749376758933067e-02" rms="3.9846417307853699e-01" purity="6.8799483776092529e-01" nType="-99"/>
        </Node>
        <Node pos="r" depth="1" NCoef="0" IVar="7" Cut="5.8344326019287109e+01" cType="1" res="-1.3262994587421417e-01" rms="3.5454484820365906e-01" purity="2.1567104756832123e-01" nType="0">
          <Node pos="l" depth="2" NCoef="0" IVar="-1" Cut="0.0000000000000000e+00" cType="1" res="-5.0192471593618393e-02" rms="3.0430772900581360e-01" purity="1.3290497660636902e-01" nType="-99"/>
          <Node pos="r" depth="2" NCoef="0" IVar="-1" Cut="0.0000000000000000e+00" cType="1" res="2.3923739790916443e-02" rms="4.6853676438331604e-01" purity="6.2131392955780029e-01" nType="-99"/>
        </Node>
      </Node>
    </BinaryTree>
    <BinaryTree type="DecisionTree" boostWeight="1.0000000000000000e+00" itree="31">
      <Node pos="s" depth="0" NCoef="0" IVar="8" Cut="1.0812997817993164e+00" cType="1" res="-4.5148963108658791e-03" rms="4.0111202001571655e-01" purity="5.0275212526321411e-01" nType="0">
        <Node pos="l" depth="1" NCoef="0" IVar="1" Cut="1.9232100248336792e+00" cType="1" res="5.1291871815919876e-02" rms="4.1229268908500671e-01" purity="6.7032986879348755e-01" nType="0">
          <Node pos="l" depth="2" NCoef="0" IVar="-1" Cut="0.0000000000000000e+00" cType="1" res="4.0195118635892868e-02" rms="3.3587089180946350e-01" purity="8.0797392129898071e-01" nType="-99"/>
          <Node pos="r" depth="2" NCoef="0" IVar="-1" Cut="0.0000000000000000e+00" cType="1" res="6.2322639860212803e-03" rms="4.2646521329879761e-01" purity="6.3369232416152954e-01" nType="-99"/>
        </Node>
        <Node pos="r" depth="1" NCoef="0" IVar="3" Cut="1.6943941116333008e+00" cType="1" res="-5.4554484784603119e-02" rms="3.8397887349128723e-01" purity="3.5249221324920654e-01" nType="0">
          <Node pos="l" depth="2" NCoef="0" IVar="-1" Cut="0.0000000000000000e+00" cType="1" res="1.1657976545393467e-02" rms="3.8493576645851135e-01" purity="4.6822601556777954e-01" nType="-99"/>
          <Node pos="r" depth="2" NCoef="0" IVar="-1" Cut="0.0000000000000000e+00" cType="1" res="-2.2424520924687386e-02" rms="3.7778642773628235e-01" purity="3.1400108337402344e-01" nType="-99"/>
        </Node>
      </Node>
    </BinaryTree>
    <BinaryTree type="DecisionTree" boostWeight="1.0000000000000000e+00" itree="32">
      <Node pos="s" depth="0" NCoef="0" IVar="4" Cut="3.0550541877746582e+00" cType="1" res="1.7859542742371559e-02" rms="3.9583164453506470e-01" purity="5.2952796220779419e-01" nType="0">
        <Node pos="l" depth="1" NCoef="0" IVar="1" Cut="2.6376523971557617e+00" cType="1" res="4.0981668978929520e-02" rms="3.9322113990783691e-01" purity="5.6890195608139038e-01" nType="0">
          <Node pos="l" depth="2" NCoef="0" IVar="-1" Cut="0.0000000000000000e+00" cType="1" res="1.7114803194999695e-02" rms="3.8656184077262878e-01" purity="6.1730456352233887e-01" nType="-99"/>
          <Node pos="r" depth="2" NCoef="0" IVar="-1" Cut="0.0000000000000000e+00" cType="1" res="-1.2542317621409893e-02" rms="4.0271750092506409e-01" purity="3.9796626567840576e-01" nType="-99"/>
        </Node>
        <Node pos="r" depth="1" NCoef="0" IVar="3" Cut="2.8868892192840576e+00" cType="1" res="-8.7786279618740082e-02" rms="3.9049994945526123e-01" purity="3.4962660074234009e-01" nType="0">
          <Node pos="l" depth="2" NCoef="0" IVar="-1" Cut="0.0000000000000000e+00" cType="1" res="-4.5772459357976913e-02" rms="3.5621109604835510e-01" purity="2.3164275288581848e-01" nType="-99"/>
          <Node pos="r" depth="2" NCoef="0" IVar="-1" Cut="0.0000000000000000e+00" cType="1" res="1.4549838379025459e-02" rms="4.0483927726745605e-01" purity="5.5653315782546997e-01" nType="-99"/>
        </Node>
      </Node>
    </BinaryTree>
    <BinaryTree type="DecisionTree" boostWeight="1.0000000000000000e+00" itree="33">
      <Node pos="s" depth="0" NCoef="0" IVar="1" Cut="2.9765913486480713e+00" cType="1" res="1.8612079322338104e-02" rms="3.9548715949058533e-01" purity="5.3086400032043457e-01" nType="0">
        <Node pos="l" depth="1" NCoef="0" IVar="11" Cut="1.2857432556152344e+02" cType="1" res="3.5202212631702423e-02" rms="3.9147195219993591e-01" purity="5.5765062570571899e-01" nType="0">
          <Node pos="l" depth="2" NCoef="0" IVar="-1" Cut="0.0000000000000000e+00" cType="1" res="1.3713753782212734e-02" rms="3.9462274312973022e-01" purity="6.0547149181365967e-01" nType="-99"/>
          <Node pos="r" depth="2" NCoef="0" IVar="-1" Cut="0.0000000000000000e+00" cType="1" res="-2.5380669161677361e-02" rms="3.4375452995300293e-01" purity="2.3071876168251038e-01" nType="-99"/>
        </Node>
        <Node pos="r" depth="1" NCoef="0" IVar="0" Cut="1.2620503902435303e+00" cType="1" res="-1.6541631519794464e-01" rms="3.9311715960502625e-01" purity="2.3372916877269745e-01" nType="0">
          <Node pos="l" depth="2" NCoef="0" IVar="-1" Cut="0.0000000000000000e+00" cType="1" res="-5.5632241070270538e-02" rms="4.2811197042465210e-01" purity="2.2326695919036865e-01" nType="-99"/>
          <Node pos="r" depth="2" NCoef="0" IVar="-1" Cut="0.0000000000000000e+00" cType="1" res="-2.6981092989444733e-02" rms="3.4328064322471619e-01" purity="2.4427197873592377e-01" nType="-99"/>
        </Node>
      </Node>
    </BinaryTree>
    <BinaryTree type="DecisionTree" boostWeight="1.0000000000000000e+00" itree="34">
      <Node pos="s" depth="0" NCoef="0" IVar="9" Cut="3.1699003125000000e+05" cType="1" res="-4.8479405231773853e-03" rms="3.9472681283950806e-01" purity="5.0070834159851074e-01" nType="0">
        <Node pos="l" depth="1" NCoef="0" IVar="11" Cut="6.6990303039550781e+01" cType="1" res="-3.9942622184753418e-02" rms="4.0879857540130615e-01" purity="3.9010688662528992e-01" nType="0">
          <Node pos="l" depth="2" NCoef="0" IVar="-1" Cut="0.0000000000000000e+00" cType="1" res="-2.8048841282725334e-02" rms="3.9070150256156921e-01" purity="2.3499558866024017e-01" nType="-99"/>
          <Node pos="r" depth="2" NCoef="0" IVar="-1" Cut="0.0000000000000000e+00" cType="1" res="1.4707433292642236e-03" rms="4.1288915276527405e-01" purity="4.8527842760086060e-01" nType="-99"/>
        </Node>
        <Node pos="r" depth="1" NCoef="0" IVar="8" Cut="1.6577277183532715e+00" cType="1" res="5.8287724852561951e-02" rms="3.5953584313392639e-01" purity="6.9968140125274658e-01" nType="0">
          <Node pos="l" depth="2" NCoef="0" IVar="-1" Cut="0.0000000000000000e+00" cType="1" res="2.6027819141745567e-02" rms="3.4266653656959534e-01" purity="8.1502372026443481e-01" nType="-99"/>
          <Node pos="r" depth="2" NCoef="0" IVar="-1" Cut="0.0000000000000000e+00" cType="1" res="-8.7549779564142227e-03" rms="3.8876241445541382e-01" purity="3.7235355377197266e-01" nType="-99"/>
        </Node>
      </Node>
    </BinaryTree>
    <BinaryTree type="DecisionTree" boostWeight="1.0000000000000000e+00" itree="35">
      <Node pos="s" depth="0" NCoef="0" IVar="4" Cut="3.2812106609344482e+00" cType="1" res="-1.1801970191299915e-02" rms="3.9101743698120117e-01" purity="4.8973307013511658e-01" nType="0">
        <Node pos="l" depth="1" NCoef="0" IVar="11" Cut="7.9702781677246094e+01" cType="1" res="9.1317147016525269e-03" rms="3.9210346341133118e-01" purity="5.2484911680221558e-01" nType="0">
          <Node pos="l" depth="2" NCoef="0" IVar="-1" Cut="0.0000000000000000e+00" cType="1" res="-9.2268707230687141e-03" rms="4.1737440228462219e-01" purity="4.2669543623924255e-01" nType="-99"/>
          <Node pos="r" depth="2" NCoef="0" IVar="-1" Cut="0.0000000000000000e+00" cType="1" res="1.5826040878891945e-02" rms="3.5774382948875427e-01" purity="6.2652117013931274e-01" nType="-99"/>
        </Node>
        <Node pos="r" depth="1" NCoef="0" IVar="2" Cut="2.2044954299926758e+00" cType="1" res="-1.7866265773773193e-01" rms="3.3879202604293823e-01" purity="2.0982542634010315e-01" nType="0">
          <Node pos="l" depth="2" NCoef="0" IVar="-1" Cut="0.0000000000000000e+00" cType="1" res="-6.0669001191854477e-02" rms="3.9968448877334595e-01" purity="2.8628745675086975e-01" nType="-99"/>
          <Node pos="r" depth="2" NCoef="0" IVar="-1" Cut="0.0000000000000000e+00" cType="1" res="-3.5220988094806671e-02" rms="2.5180268287658691e-01" purity="1.3822712004184723e-01" nType="-99"/>
        </Node>
      </Node>
    </BinaryTree>
    <BinaryTree type="DecisionTree" boostWeight="1.0000000000000000e+00" itree="36">
      <Node pos="s" depth="0" NCoef="0" IVar="6" Cut="7.8645690917968750e+01" cType="1" res="-4.9344520084559917e-03" rms="3.9010357856750488e-01" purity="5.0268787145614624e-01" nType="0">
        <Node pos="l" depth="1" NCoef="0" IVar="3" Cut="2.4750261306762695e+00" cType="1" res="-3.3552315086126328e-02" rms="4.1334581375122070e-01" purity="4.0666896104812622e-01" nType="0">
          <Node pos="l" depth="2" NCoef="0" IVar="-1" Cut="0.0000000000000000e+00" cType="1" res="2.8132388833910227e-03" rms="4.1589701175689697e-01" purity="4.7066390514373779e-01" nType="-99"/>
          <Node pos="r" depth="2" NCoef="0" IVar="-1" Cut="0.0000000000000000e+00" cType="1" res="-2.4435780942440033e-02" rms="4.0119040012359619e-01" purity="3.1571140885353088e-01" nType="-99"/>
        </Node>
        <Node pos="r" depth="1" NCoef="0" IVar="9" Cut="2.8106493750000000e+05" cType="1" res="6.8549774587154388e-02" rms="3.1101021170616150e-01" purity="7.4924272298812866e-01" nType="0">
          <Node pos="l" depth="2" NCoef="0" IVar="-1" Cut="0.0000000000000000e+00" cType="1" res="-3.2363296486437321e-03" rms="4.0297317504882812e-01" purity="5.4029434919357300e-01" nType="-99"/>
          <Node pos="r" depth="2" NCoef="0" IVar="-1" Cut="0.0000000000000000e+00" cType="1" res="4.0560808032751083e-02" rms="2.2328726947307587e-01" purity="8.7740492820739746e-01" nType="-99"/>
        </Node>
      </Node>
    </BinaryTree>
    <BinaryTree type="DecisionTree" boostWeight="1.0000000000000000e+00" itree="37">
      <Node pos="s" depth="0" NCoef="0" IVar="1" Cut="2.0114514827728271e+00" cType="1" res="7.6251956634223461e-03" rms="3.9038830995559692e-01" purity="5.1463341712951660e-01" nType="0">
        <Node pos="l" depth="1" NCoef="0" IVar="9" Cut="2.6261165625000000e+05" cType="1" res="1.0417882353067398e-01" rms="3.5804781317710876e-01" purity="6.8050080537796021e-01" nType="0">
          <Node pos="l" depth="2" NCoef="0" IVar="-1" Cut="0.0000000000000000e+00" cType="1" res="1.2524805963039398e-02" rms="4.1152521967887878e-01" purity="5.0542920827865601e-01" nType="-99"/>
          <Node pos="r" depth="2" NCoef="0" IVar="-1" Cut="0.0000000000000000e+00" cType="1" res="4.7019165009260178e-02" rms="2.8240808844566345e-01" purity="8.6096352338790894e-01" nType="-99"/>
        </Node>
        <Node pos="r" depth="1" NCoef="0" IVar="10" Cut="1.6247715950012207e+00" cType="1" res="-2.2514998912811279e-02" rms="3.9514580368995667e-01" purity="4.6285626292228699e-01" nType="0">
          <Node pos="l" depth="2" NCoef="0" IVar="-1" Cut="0.0000000000000000e+00" cType="1" res="4.7711699153296649e-05" rms="3.9749580621719360e-01" purity="5.2476710081100464e-01" nType="-99"/>
          <Node pos="r" depth="2" NCoef="0" IVar="-1" Cut="0.0000000000000000e+00" cType="1" res="-2.1995803341269493e-02" rms="3.8243275880813599e-01" purity="2.9919838905334473e-01" nType="-99"/>
        </Node>
      </Node>
    </BinaryTree>
    <BinaryTree type="DecisionTree" boostWeight="1.0000000000000000e+00" itree="38">
      <Node pos="s" depth="0" NCoef="0" IVar="1" Cut="2.4691326618194580e+00" cType="1" res="5.9872064739465714e-03" rms="3.9351746439933777e-01" purity="5.1763010025024414e-01" nType="0">
        <Node pos="l" depth="1" NCoef="0" IVar="8" Cut="1.0891931056976318e+00" cType="1" res="4.4948920607566833e-02" rms="3.7479412555694580e-01" purity="5.8619898557662964e-01" nType="0">
          <Node pos="l" depth="2" NCoef="0" IVar="-1" Cut="0.0000000000000000e+00" cType="1" res="2.8818327933549881e-02" rms="3.5852831602096558e-01" purity="7.4982482194900513e-01" nType="-99"/>
          <Node pos="r" depth="2" NCoef="0" IVar="-1" Cut="0.0000000000000000e+00" cType="1" res="-5.0205592997372150e-03" rms="3.8054591417312622e-01" purity="4.1627174615859985e-01" nType="-99"/>
        </Node>
        <Node pos="r" depth="1" NCoef="0" IVar="1" Cut="2.7923028469085693e+00" cType="1" res="-6.8923287093639374e-02" rms="4.1711398959159851e-01" purity="3.8579490780830383e-01" nType="0">
          <Node pos="l" depth="2" NCoef="0" IVar="-1" Cut="0.0000000000000000e+00" cType="1" res="-3.5098618827760220e-03" rms="4.2793858051300049e-01" purity="4.7046387195587158e-01" nType="-99"/>
          <Node pos="r" depth="2" NCoef="0" IVar="-1" Cut="0.0000000000000000e+00" cType="1" res="-3.3611465245485306e-02" rms="3.9500322937965393e-01" purity="2.8842988610267639e-01" nType="-99"/>
        </Node>
      </Node>
    </BinaryTree>
    <BinaryTree type="DecisionTree" boostWeight="1.0000000000000000e+00" itree="39">
      <Node pos="s" depth="0" NCoef="0" IVar="9" Cut="1.7135751562500000e+05" cType="1" res="9.8130032420158386e-03" rms="3.8433733582496643e-01" purity="5.2069830894470215e-01" nType="0">
        <Node pos="l" depth="1" NCoef="0" IVar="9" Cut="1.4721409375000000e+05" cType="1" res="-9.2359587550163269e-02" rms="3.6488440632820129e-01" purity="2.3984496295452118e-01" nType="0">
          <Node pos="l" depth="2" NCoef="0" IVar="-1" Cut="0.0000000000000000e+00" cType="1" res="-4.6147547662258148e-02" rms="3.2989278435707092e-01" purity="1.5155419707298279e-01" nType="-99"/>
          <Node pos="r" depth="2" NCoef="0" IVar="-1" Cut="0.0000000000000000e+00" cType="1" res="4.8477887175977230e-03" rms="3.8199740648269653e-01" purity="3.6276447772979736e-01" nType="-99"/>
        </Node>
        <Node pos="r" depth="1" NCoef="0" IVar="3" Cut="2.5921704769134521e+00" cType="1" res="3.0394438654184341e-02" rms="3.8486960530281067e-01" purity="5.7727289199829102e-01" nType="0">
          <Node pos="l" depth="2" NCoef="0" IVar="-1" Cut="0.0000000000000000e+00" cType="1" res="1.9036751240491867e-02" rms="3.7250563502311707e-01" purity="6.4128017425537109e-01" nType="-99"/>
          <Node pos="r" depth="2" NCoef="0" IVar="-1" Cut="0.0000000000000000e+00" cType="1" res="-8.2888603210449219e-03" rms="3.9522728323936462e-01" purity="4.7897574305534363e-01" nType="-99"/>
        </Node>
      </Node>
    </BinaryTree>
    <BinaryTree type="DecisionTree" boostWeight="1.0000000000000000e+00" itree="40">
      <Node pos="s" depth="0" NCoef="0" IVar="7" Cut="6.4123710632324219e+01" cType="1" res="-2.5137230753898621e-02" rms="4.0107518434524536e-01" purity="4.8736295104026794e-01" nType="0">
        <Node pos="l" depth="1" NCoef="0" IVar="11" Cut="3.7695793151855469e+01" cType="1" res="-3.8997761905193329e-02" rms="4.0955290198326111e-01" purity="4.5058974623680115e-01" nType="0">
          <Node pos="l" depth="2" NCoef="0" IVar="-1" Cut="0.0000000000000000e+00" cType="1" res="-4.7542721033096313e-02" rms="4.1197916865348816e-01" purity="2.1346560120582581e-01" nType="-99"/>
          <Node pos="r" depth="2" NCoef="0" IVar="-1" Cut="0.0000000000000000e+00" cType="1" res="-7.3385122232139111e-03" rms="4.0706264972686768e-01" purity="4.6648913621902466e-01" nType="-99"/>
        </Node>
        <Node pos="r" depth="1" NCoef="0" IVar="0" Cut="1.2440848350524902e+00" cType="1" res="1.4196985960006714e-01" rms="2.1855379641056061e-01" purity="9.3071264028549194e-01" nType="0">
          <Node pos="l" depth="2" NCoef="0" IVar="-1" Cut="0.0000000000000000e+00" cType="1" res="6.6865541040897369e-02" rms="1.1357398331165314e-01" purity="1.0000000000000000e+00" nType="-99"/>
          <Node pos="r" depth="2" NCoef="0" IVar="-1" Cut="0.0000000000000000e+00" cType="1" res="2.9079129919409752e-02" rms="3.0268189311027527e-01" purity="8.3337551355361938e-01" nType="-99"/>
        </Node>
      </Node>
    </BinaryTree>
    <BinaryTree type="DecisionTree" boostWeight="1.0000000000000000e+00" itree="41">
      <Node pos="s" depth="0" NCoef="0" IVar="5" Cut="5.2429771423339844e-01" cType="1" res="7.1775824762880802e-03" rms="3.9340183138847351e-01" purity="5.2668321132659912e-01" nType="0">
        <Node pos="l" depth="1" NCoef="0" IVar="11" Cut="8.0241546630859375e+01" cType="1" res="7.4105598032474518e-02" rms="3.9340108633041382e-01" purity="6.5464276075363159e-01" nType="0">
          <Node pos="l" depth="2" NCoef="0" IVar="-1" Cut="0.0000000000000000e+00" cType="1" res="5.9258271940052509e-03" rms="4.3239486217498779e-01" purity="5.1801568269729614e-01" nType="-99"/>
          <Node pos="r" depth="2" NCoef="0" IVar="-1" Cut="0.0000000000000000e+00" cType="1" res="3.9970248937606812e-02" rms="3.1779652833938599e-01" purity="8.4646415710449219e-01" nType="-99"/>
        </Node>
        <Node pos="r" depth="1" NCoef="0" IVar="2" Cut="1.5245500802993774e+00" cType="1" res="-5.1842533051967621e-02" rms="3.8383859395980835e-01" purity="4.1384276747703552e-01" nType="0">
          <Node pos="l" depth="2" NCoef="0" IVar="-1" Cut="0.0000000000000000e+00" cType="1" res="1.5841793268918991e-02" rms="3.4270486235618591e-01" purity="6.8437498807907104e-01" nType="-99"/>
          <Node pos="r" depth="2" NCoef="0" IVar="-1" Cut="0.0000000000000000e+00" cType="1" res="-2.5996858254075050e-02" rms="3.9189174771308899e-01" purity="2.8814610838890076e-01" nType="-99"/>
        </Node>
      </Node>
    </BinaryTree>
    <BinaryTree type="DecisionTree" boostWeight="1.0000000000000000e+00" itree="42">
      <Node pos="s" depth="0" NCoef="0" IVar="0" Cut="1.5348663330078125e+00" cType="1" res="9.6108457073569298e-03" rms="3.8671571016311646e-01" purity="5.1923364400863647e-01" nType="0">
        <Node pos="l" depth="1" NCoef="0" IVar="11" Cut="1.2206766510009766e+02" cType="1" res="3.6301184445619583e-02" rms="3.8384258747100830e-01" purity="5.7387501001358032e-01" nType="0">
          <Node pos="l" depth="2" NCoef="0" IVar="-1" Cut="0.0000000000000000e+00" cType="1" res="1.5779688954353333e-02" rms="3.8512268662452698e-01" purity="6.3277715444564819e-01" nType="-99"/>
          <Node pos="r" depth="2" NCoef="0" IVar="-1" Cut="0.0000000000000000e+00" cType="1" res="-2.4333534762263298e-02" rms="3.5433372855186462e-01" purity="2.5537687540054321e-01" nType="-99"/>
        </Node>
        <Node pos="r" depth="1" NCoef="0" IVar="3" Cut="1.0789108276367188e+00" cType="1" res="-5.0950724631547928e-02" rms="3.8637852668762207e-01" purity="3.9525011181831360e-01" nType="0">
          <Node pos="l" depth="2" NCoef="0" IVar="-1" Cut="0.0000000000000000e+00" cType="1" res="3.2315056771039963e-02" rms="3.6797749996185303e-01" purity="6.5580624341964722e-01" nType="-99"/>
          <Node pos="r" depth="2" NCoef="0" IVar="-1" Cut="0.0000000000000000e+00" cType="1" res="-2.1047150716185570e-02" rms="3.8210454583168030e-01" purity="3.5176914930343628e-01" nType="-99"/>
        </Node>
      </Node>
    </BinaryTree>
    <BinaryTree type="DecisionTree" boostWeight="1.0000000000000000e+00" itree="43">
      <Node pos="s" depth="0" NCoef="0" IVar="9" Cut="1.7915842187500000e+05" cType="1" res="-8.1271966919302940e-03" rms="3.9288103580474854e-01" purity="4.9235984683036804e-01" nType="0">
        <Node pos="l" depth="1" NCoef="0" IVar="11" Cut="7.5270484924316406e+01" cType="1" res="-8.4596350789070129e-02" rms="3.4518140554428101e-01" purity="2.2546285390853882e-01" nType="0">
          <Node pos="l" depth="2" NCoef="0" IVar="-1" Cut="0.0000000000000000e+00" cType="1" res="-4.0655773133039474e-02" rms="3.1296288967132568e-01" purity="1.2162777036428452e-01" nType="-99"/>
          <Node pos="r" depth="2" NCoef="0" IVar="-1" Cut="0.0000000000000000e+00" cType="1" res="-6.6155311651527882e-03" rms="3.6407563090324402e-01" purity="3.2750475406646729e-01" nType="-99"/>
        </Node>
        <Node pos="r" depth="1" NCoef="0" IVar="6" Cut="1.0485010528564453e+02" cType="1" res="1.2613150291144848e-02" rms="4.0235298871994019e-01" purity="5.6474900245666504e-01" nType="0">
          <Node pos="l" depth="2" NCoef="0" IVar="-1" Cut="0.0000000000000000e+00" cType="1" res="-1.2468616478145123e-03" rms="4.2067682743072510e-01" purity="5.0737345218658447e-01" nType="-99"/>
          <Node pos="r" depth="2" NCoef="0" IVar="-1" Cut="0.0000000000000000e+00" cType="1" res="3.3272262662649155e-02" rms="2.7824848890304565e-01" purity="8.5168677568435669e-01" nType="-99"/>
        </Node>
      </Node>
    </BinaryTree>
    <BinaryTree type="DecisionTree" boostWeight="1.0000000000000000e+00" itree="44">
      <Node pos="s" depth="0" NCoef="0" IVar="11" Cut="7.5183677673339844e+01" cType="1" res="-1.6669016331434250e-02" rms="3.8432732224464417e-01" purity="4.9356666207313538e-01" nType="0">
        <Node pos="l" depth="1" NCoef="0" IVar="1" Cut="2.0064849853515625e+00" cType="1" res="-6.6106893122196198e-02" rms="4.0541607141494751e-01" purity="3.7773266434669495e-01" nType="0">
          <Node pos="l" depth="2" NCoef="0" IVar="-1" Cut="0.0000000000000000e+00" cType="1" res="1.0093493387103081e-02" rms="3.9187833666801453e-01" purity="5.7150298357009888e-01" nType="-99"/>
          <Node pos="r" depth="2" NCoef="0" IVar="-1" Cut="0.0000000000000000e+00" cType="1" res="-2.5670269504189491e-02" rms="4.0403172373771667e-01" purity="3.1790399551391602e-01" nType="-99"/>
        </Node>
        <Node pos="r" depth="1" NCoef="0" IVar="0" Cut="1.5102663040161133e+00" cType="1" res="2.7459058910608292e-02" rms="3.5876551270484924e-01" purity="5.9695965051651001e-01" nType="0">
          <Node pos="l" depth="2" NCoef="0" IVar="-1" Cut="0.0000000000000000e+00" cType="1" res="2.0100932568311691e-02" rms="3.3896666765213013e-01" purity="6.6677939891815186e-01" nType="-99"/>
          <Node pos="r" depth="2" NCoef="0" IVar="-1" Cut="0.0000000000000000e+00" cType="1" res="-1.9166069105267525e-02" rms="3.8554063439369202e-01" purity="4.3085861206054688e-01" nType="-99"/>
        </Node>
      </Node>
    </BinaryTree>
    <BinaryTree type="DecisionTree" boostWeight="1.0000000000000000e+00" itree="45">
      <Node pos="s" depth="0" NCoef="0" IVar="5" Cut="7.1436631679534912e-01" cType="1" res="-1.8331976607441902e-02" rms="3.8399153947830200e-01" purity="4.7610315680503845e-01" nType="0">
        <Node pos="l" depth="1" NCoef="0" IVar="11" Cut="7.7564613342285156e+01" cType="1" res="1.1343298479914665e-02" rms="3.9350953698158264e-01" purity="5.5579608678817749e-01" nType="0">
          <Node pos="l" depth="2" NCoef="0" IVar="-1" Cut="0.0000000000000000e+00" cType="1" res="-1.1519687250256538e-02" rms="4.1104203462600708e-01" purity="3.9101055264472961e-01" nType="-99"/>
          <Node pos="r" depth="2" NCoef="0" IVar="-1" Cut="0.0000000000000000e+00" cType="1" res="2.2648733109235764e-02" rms="3.5799705982208252e-01" purity="7.6326590776443481e-01" nType="-99"/>
        </Node>
        <Node pos="r" depth="1" NCoef="0" IVar="1" Cut="1.8880079984664917e+00" cType="1" res="-7.5114898383617401e-02" rms="3.5830149054527283e-01" purity="3.2361266016960144e-01" nType="0">
          <Node pos="l" depth="2" NCoef="0" IVar="-1" Cut="0.0000000000000000e+00" cType="1" res="7.1732522919774055e-03" rms="3.4435373544692993e-01" purity="5.5951541662216187e-01" nType="-99"/>
          <Node pos="r" depth="2" NCoef="0" IVar="-1" Cut="0.0000000000000000e+00" cType="1" res="-2.6852045208215714e-02" rms="3.5771322250366211e-01" purity="2.7764943242073059e-01" nType="-99"/>
        </Node>
      </Node>
    </BinaryTree>
    <BinaryTree type="DecisionTree" boostWeight="1.0000000000000000e+00" itree="46">
      <Node pos="s" depth="0" NCoef="0" IVar="0" Cut="1.9120591878890991e+00" cType="1" res="-1.3583563268184662e-03" rms="3.8573285937309265e-01" purity="4.9091854691505432e-01" nType="0">
        <Node pos="l" depth="1" NCoef="0" IVar="2" Cut="3.0449185371398926e+00" cType="1" res="1.4839879237115383e-02" rms="3.8637277483940125e-01" purity="5.2459502220153809e-01" nType="0">
          <Node pos="l" depth="2" NCoef="0" IVar="-1" Cut="0.0000000000000000e+00" cType="1" res="8.4185730665922165e-03" rms="3.9235964417457581e-01" purity="5.7915413379669189e-01" nType="-99"/>
          <Node pos="r" depth="2" NCoef="0" IVar="-1" Cut="0.0000000000000000e+00" cType="1" res="-2.5462759658694267e-02" rms="3.3257222175598145e-01" purity="1.9718067348003387e-01" nType="-99"/>
        </Node>
        <Node pos="r" depth="1" NCoef="0" IVar="9" Cut="3.0094931250000000e+05" cType="1" res="-8.2762055099010468e-02" rms="3.7196990847587585e-01" purity="3.2167863845825195e-01" nType="0">
          <Node pos="l" depth="2" NCoef="0" IVar="-1" Cut="0.0000000000000000e+00" cType="1" res="-3.0102815479040146e-02" rms="3.6620146036148071e-01" purity="2.4058772623538971e-01" nType="-99"/>
          <Node pos="r" depth="2" NCoef="0" IVar="-1" Cut="0.0000000000000000e+00" cType="1" res="1.7548026517033577e-02" rms="3.6853617429733276e-01" purity="7.4079900979995728e-01" nType="-99"/>
        </Node>
      </Node>
    </BinaryTree>
    <BinaryTree type="DecisionTree" boostWeight="1.0000000000000000e+00" itree="47">
      <Node pos="s" depth="0" NCoef="0" IVar="4" Cut="2.3901042938232422e+00" cType="1" res="-2.1241165697574615e-02" rms="3.8025817275047302e-01" purity="4.7593414783477783e-01" nType="0">
        <Node pos="l" depth="1" NCoef="0" IVar="3" Cut="2.3871898651123047e+00" cType="1" res="1.8802104517817497e-02" rms="3.7181785702705383e-01" purity="5.3999572992324829e-01" nType="0">
          <Node pos="l" depth="2" NCoef="0" IVar="-1" Cut="0.0000000000000000e+00" cType="1" res="2.3674381896853447e-02" rms="3.6647897958755493e-01" purity="6.6990470886230469e-01" nType="-99"/>
          <Node pos="r" depth="2" NCoef="0" IVar="-1" Cut="0.0000000000000000e+00" cType="1" res="-2.9694003984332085e-02" rms="3.4852212667465210e-01" purity="2.9285001754760742e-01" nType="-99"/>
        </Node>
        <Node pos="r" depth="1" NCoef="0" IVar="3" Cut="2.2715229988098145e+00" cType="1" res="-7.1256302297115326e-02" rms="3.8473436236381531e-01" purity="3.9591947197914124e-01" nType="0">
          <Node pos="l" depth="2" NCoef="0" IVar="-1" Cut="0.0000000000000000e+00" cType="1" res="-5.3766645491123199e-02" rms="3.5399195551872253e-01" purity="2.2417668998241425e-01" nType="-99"/>
          <Node pos="r" depth="2" NCoef="0" IVar="-1" Cut="0.0000000000000000e+00" cType="1" res="1.1106864549219608e-03" rms="3.8579913973808289e-01" purity="5.0950986146926880e-01" nType="-99"/>
        </Node>
      </Node>
    </BinaryTree>
    <BinaryTree type="DecisionTree" boostWeight="1.0000000000000000e+00" itree="48">
      <Node pos="s" depth="0" NCoef="0" IVar="5" Cut="8.0934166908264160e-01" cType="1" res="-1.1390595696866512e-02" rms="3.8303273916244507e-01" purity="4.9537709355354309e-01" nType="0">
        <Node pos="l" depth="1" NCoef="0" IVar="5" Cut="7.7914007008075714e-02" cType="1" res="8.7442090734839439e-03" rms="3.9822691679000854e-01" purity="5.5660194158554077e-01" nType="0">
          <Node pos="l" depth="2" NCoef="0" IVar="-1" Cut="0.0000000000000000e+00" cType="1" res="-3.1340342015028000e-02" rms="3.8956132531166077e-01" purity="4.3399965763092041e-01" nType="-99"/>
          <Node pos="r" depth="2" NCoef="0" IVar="-1" Cut="0.0000000000000000e+00" cType="1" res="6.3144490122795105e-03" rms="3.9666840434074402e-01" purity="5.7057183980941772e-01" nType="-99"/>
        </Node>
        <Node pos="r" depth="1" NCoef="0" IVar="2" Cut="1.3899821043014526e+00" cType="1" res="-7.6422736048698425e-02" rms="3.2067957520484924e-01" purity="2.9763078689575195e-01" nType="0">
          <Node pos="l" depth="2" NCoef="0" IVar="-1" Cut="0.0000000000000000e+00" cType="1" res="1.6184540465474129e-02" rms="3.3358702063560486e-01" purity="7.3831373453140259e-01" nType="-99"/>
          <Node pos="r" depth="2" NCoef="0" IVar="-1" Cut="0.0000000000000000e+00" cType="1" res="-3.5881165415048599e-02" rms="3.0662423372268677e-01" purity="1.6853454709053040e-01" nType="-99"/>
        </Node>
      </Node>
    </BinaryTree>
    <BinaryTree type="DecisionTree" boostWeight="1.0000000000000000e+00" itree="49">
      <Node pos="s" depth="0" NCoef="0" IVar="5" Cut="5.2362650632858276e-01" cType="1" res="-7.7150948345661163e-03" rms="3.7331789731979370e-01" purity="4.9388766288757324e-01" nType="0">
        <Node pos="l" depth="1" NCoef="0" IVar="11" Cut="7.0802062988281250e+01" cType="1" res="3.5644609481096268e-02" rms="3.8201338052749634e-01" purity="6.0775500535964966e-01" nType="0">
          <Node pos="l" depth="2" NCoef="0" IVar="-1" Cut="0.0000000000000000e+00" cType="1" res="-6.2837414443492889e-03" rms="4.0937480330467224e-01" purity="3.9731726050376892e-01" nType="-99"/>
          <Node pos="r" depth="2" NCoef="0" IVar="-1" Cut="0.0000000000000000e+00" cType="1" res="2.4697847664356232e-02" rms="3.4953913092613220e-01" purity="7.8489565849304199e-01" nType="-99"/>
        </Node>
        <Node pos="r" depth="1" NCoef="0" IVar="6" Cut="7.1023056030273438e+01" cType="1" res="-4.7026086598634720e-02" rms="3.6077928543090820e-01" purity="3.9065268635749817e-01" nType="0">
          <Node pos="l" depth="2" NCoef="0" IVar="-1" Cut="0.0000000000000000e+00" cType="1" res="-2.2673815488815308e-02" rms="3.7185820937156677e-01" purity="2.6623457670211792e-01" nType="-99"/>
          <Node pos="r" depth="2" NCoef="0" IVar="-1" Cut="0.0000000000000000e+00" cType="1" res="1.0354647412896156e-02" rms="3.2016798853874207e-01" purity="6.7688804864883423e-01" nType="-99"/>
        </Node>
      </Node>
    </BinaryTree>
    <BinaryTree type="DecisionTree" boostWeight="1.0000000000000000e+00" itree="50">
      <Node pos="s" depth="0" NCoef="0" IVar="3" Cut="2.1629822254180908e+00" cType="1" res="-1.0321770794689655e-02" rms="3.8212561607360840e-01" purity="4.9567806720733643e-01" nType="0">
        <Node pos="l" depth="1" NCoef="0" IVar="4" Cut="2.3246426582336426e+00" cType="1" res="3.0762856826186180e-02" rms="3.7217956781387329e-01" purity="5.7140785455703735e-01" nType="0">
          <Node pos="l" depth="2" NCoef="0" IVar="-1" Cut="0.0000000000000000e+00" cType="1" res="2.4597605690360069e-02" rms="3.6065423488616943e-01" purity="6.9626677036285400e-01" nType="-99"/>
          <Node pos="r" depth="2" NCoef="0" IVar="-1" Cut="0.0000000000000000e+00" cType="1" res="-2.4635069072246552e-02" rms="3.6909252405166626e-01" purity="3.1224533915519714e-01" nType="-99"/>
        </Node>
        <Node pos="r" depth="1" NCoef="0" IVar="4" Cut="1.9400448799133301e+00" cType="1" res="-4.2035412043333054e-02" rms="3.8665544986724854e-01" purity="4.3722149729728699e-01" nType="0">
          <Node pos="l" depth="2" NCoef="0" IVar="-1" Cut="0.0000000000000000e+00" cType="1" res="-4.1185177862644196e-02" rms="3.6215293407440186e-01" purity="2.6502481102943420e-01" nType="-99"/>
          <Node pos="r" depth="2" NCoef="0" IVar="-1" Cut="0.0000000000000000e+00" cType="1" res="-1.6578045324422419e-04" rms="3.8658109307289124e-01" purity="4.9827799201011658e-01" nType="-99"/>
        </Node>
      </Node>
    </BinaryTree>
    <BinaryTree type="DecisionTree" boostWeight="1.0000000000000000e+00" itree="51">
      <Node pos="s" depth="0" NCoef="0" IVar="11" Cut="1.2520558166503906e+02" cType="1" res="-8.0715892836451530e-03" rms="3.8144811987876892e-01" purity="4.9457311630249023e-01" nType="0">
        <Node pos="l" depth="1" NCoef="0" IVar="11" Cut="7.7760032653808594e+01" cType="1" res="5.6376010179519653e-03" rms="3.8763716816902161e-01" purity="5.4153853654861450e-01" nType="0">
          <Node pos="l" depth="2" NCoef="0" IVar="-1" Cut="0.0000000000000000e+00" cType="1" res="-1.0388426482677460e-02" rms="4.0483197569847107e-01" purity="3.8842165470123291e-01" nType="-99"/>
          <Node pos="r" depth="2" NCoef="0" IVar="-1" Cut="0.0000000000000000e+00" cType="1" res="1.8553268164396286e-02" rms="3.5699555277824402e-01" purity="7.3459011316299438e-01" nType="-99"/>
        </Node>
        <Node pos="r" depth="1" NCoef="0" IVar="10" Cut="8.3488136529922485e-01" cType="1" res="-8.8180109858512878e-02" rms="3.3192318677902222e-01" purity="2.2013464570045471e-01" nType="0">
          <Node pos="l" depth="2" NCoef="0" IVar="-1" Cut="0.0000000000000000e+00" cType="1" res="-5.3189713507890701e-03" rms="2.8596141934394836e-01" purity="2.5646814703941345e-01" nType="-99"/>
          <Node pos="r" depth="2" NCoef="0" IVar="-1" Cut="0.0000000000000000e+00" cType="1" res="-3.5119503736495972e-02" rms="3.4412115812301636e-01" purity="2.0588976144790649e-01" nType="-99"/>
        </Node>
      </Node>
    </BinaryTree>
    <BinaryTree type="DecisionTree" boostWeight="1.0000000000000000e+00" itree="52">
      <Node pos="s" depth="0" NCoef="0" IVar="6" Cut="9.9654830932617188e+01" cType="1" res="-1.4592248015105724e-02" rms="3.7944093346595764e-01" purity="4.8864448070526123e-01" nType="0">
        <Node pos="l" depth="1" NCoef="0" IVar="10" Cut="1.1803928613662720e+00" cType="1" res="-3.2288666814565659e-02" rms="3.9622354507446289e-01" purity="4.2379271984100342e-01" nType="0">
          <Node pos="l" depth="2" NCoef="0" IVar="-1" Cut="0.0000000000000000e+00" cType="1" res="5.6664453586563468e-04" rms="4.1368266940116882e-01" purity="5.4229712486267090e-01" nType="-99"/>
          <Node pos="r" depth="2" NCoef="0" IVar="-1" Cut="0.0000000000000000e+00" cType="1" res="-2.1225553005933762e-02" rms="3.6956906318664551e-01" purity="2.7951428294181824e-01" nType="-99"/>
        </Node>
        <Node pos="r" depth="1" NCoef="0" IVar="2" Cut="2.6060979366302490e+00" cType="1" res="6.7269355058670044e-02" rms="2.7496764063835144e-01" purity="7.8864121437072754e-01" nType="0">
          <Node pos="l" depth="2" NCoef="0" IVar="-1" Cut="0.0000000000000000e+00" cType="1" res="3.9714735001325607e-02" rms="2.5019180774688721e-01" purity="9.1942232847213745e-01" nType="-99"/>
          <Node pos="r" depth="2" NCoef="0" IVar="-1" Cut="0.0000000000000000e+00" cType="1" res="-2.0309537649154663e-02" rms="3.2149949669837952e-01" purity="2.6062187552452087e-01" nType="-99"/>
        </Node>
      </Node>
    </BinaryTree>
    <BinaryTree type="DecisionTree" boostWeight="1.0000000000000000e+00" itree="53">
      <Node pos="s" depth="0" NCoef="0" IVar="5" Cut="3.3422800898551941e-01" cType="1" res="-5.6474027223885059e-03" rms="3.7832018733024597e-01" purity="4.8604473471641541e-01" nType="0">
        <Node pos="l" depth="1" NCoef="0" IVar="2" Cut="1.8865399360656738e+00" cType="1" res="5.0026100128889084e-02" rms="3.8119730353355408e-01" purity="6.1042380332946777e-01" nType="0">
          <Node pos="l" depth="2" NCoef="0" IVar="-1" Cut="0.0000000000000000e+00" cType="1" res="7.0201617199927568e-04" rms="3.8112959265708923e-01" purity="5.7812660932540894e-01" nType="-99"/>
          <Node pos="r" depth="2" NCoef="0" IVar="-1" Cut="0.0000000000000000e+00" cType="1" res="2.8527647256851196e-02" rms="3.7420803308486938e-01" purity="6.4633959531784058e-01" nType="-99"/>
        </Node>
        <Node pos="r" depth="1" NCoef="0" IVar="11" Cut="1.0575662994384766e+02" cType="1" res="-3.1206043437123299e-02" rms="3.7422823905944824e-01" purity="4.2894467711448669e-01" nType="0">
          <Node pos="l" depth="2" NCoef="0" IVar="-1" Cut="0.0000000000000000e+00" cType="1" res="-2.5367955677211285e-03" rms="3.8815733790397644e-01" purity="4.9906408786773682e-01" nType="-99"/>
          <Node pos="r" depth="2" NCoef="0" IVar="-1" Cut="0.0000000000000000e+00" cType="1" res="-2.7893412858247757e-02" rms="3.3359110355377197e-01" purity="2.6413911581039429e-01" nType="-99"/>
        </Node>
      </Node>
    </BinaryTree>
    <BinaryTree type="DecisionTree" boostWeight="1.0000000000000000e+00" itree="54">
      <Node pos="s" depth="0" NCoef="0" IVar="1" Cut="2.0821421146392822e+00" cType="1" res="4.2224978096783161e-03" rms="3.8642445206642151e-01" purity="5.1029574871063232e-01" nType="0">
        <Node pos="l" depth="1" NCoef="0" IVar="0" Cut="1.7066335678100586e+00" cType="1" res="6.6467247903347015e-02" rms="3.5888254642486572e-01" purity="6.4445459842681885e-01" nType="0">
          <Node pos="l" depth="2" NCoef="0" IVar="-1" Cut="0.0000000000000000e+00" cType="1" res="2.9730098322033882e-02" rms="3.4757989645004272e-01" purity="7.2020471096038818e-01" nType="-99"/>
          <Node pos="r" depth="2" NCoef="0" IVar="-1" Cut="0.0000000000000000e+00" cType="1" res="-3.5322839394211769e-03" rms="3.7155050039291382e-01" purity="4.7138714790344238e-01" nType="-99"/>
        </Node>
        <Node pos="r" depth="1" NCoef="0" IVar="7" Cut="7.0501266479492188e+01" cType="1" res="-2.1058980375528336e-02" rms="3.9426949620246887e-01" purity="4.5580542087554932e-01" nType="0">
          <Node pos="l" depth="2" NCoef="0" IVar="-1" Cut="0.0000000000000000e+00" cType="1" res="-8.0856764689087868e-03" rms="4.0034231543540955e-01" purity="4.3242099881172180e-01" nType="-99"/>
          <Node pos="r" depth="2" NCoef="0" IVar="-1" Cut="0.0000000000000000e+00" cType="1" res="6.3493244349956512e-02" rms="1.4290235936641693e-01" purity="9.6535664796829224e-01" nType="-99"/>
        </Node>
      </Node>
    </BinaryTree>
    <BinaryTree type="DecisionTree" boostWeight="1.0000000000000000e+00" itree="55">
      <Node pos="s" depth="0" NCoef="0" IVar="11" Cut="7.3255119323730469e+01" cType="1" res="-4.4225607998669147e-03" rms="3.8086810708045959e-01" purity="5.0246095657348633e-01" nType="0">
        <Node pos="l" depth="1" NCoef="0" IVar="9" Cut="5.9249543750000000e+05" cType="1" res="-5.6623645126819611e-02" rms="3.9590036869049072e-01" purity="3.5321581363677979e-01" nType="0">
          <Node pos="l" depth="2" NCoef="0" IVar="-1" Cut="0.0000000000000000e+00" cType="1" res="-1.8789513036608696e-02" rms="3.9324870705604553e-01" purity="3.1958580017089844e-01" nType="-99"/>
          <Node pos="r" depth="2" NCoef="0" IVar="-1" Cut="0.0000000000000000e+00" cType="1" res="3.5475514829158783e-02" rms="3.8330873847007751e-01" purity="8.1420522928237915e-01" nType="-99"/>
        </Node>
        <Node pos="r" depth="1" NCoef="0" IVar="1" Cut="2.2973043918609619e+00" cType="1" res="3.4358855336904526e-02" rms="3.6449593305587769e-01" purity="6.1333858966827393e-01" nType="0">
          <Node pos="l" depth="2" NCoef="0" IVar="-1" Cut="0.0000000000000000e+00" cType="1" res="-1.2442677980288863e-03" rms="3.6598506569862366e-01" purity="6.0860723257064819e-01" nType="-99"/>
          <Node pos="r" depth="2" NCoef="0" IVar="-1" Cut="0.0000000000000000e+00" cType="1" res="2.6378365233540535e-02" rms="3.5568311810493469e-01" purity="6.1987984180450439e-01" nType="-99"/>
        </Node>
      </Node>
    </BinaryTree>
    <BinaryTree type="DecisionTree" boostWeight="1.0000000000000000e+00" itree="56">
      <Node pos="s" depth="0" NCoef="0" IVar="3" Cut="3.2539508342742920e+00" cType="1" res="5.1810784498229623e-04" rms="3.7269020080566406e-01" purity="4.9930581450462341e-01" nType="0">
        <Node pos="l" depth="1" NCoef="0" IVar="0" Cut="1.2862311601638794e+00" cType="1" res="1.3353032991290092e-02" rms="3.7160703539848328e-01" purity="5.2166581153869629e-01" nType="0">
          <Node pos="l" depth="2" NCoef="0" IVar="-1" Cut="0.0000000000000000e+00" cType="1" res="1.1788705363869667e-02" rms="3.7676534056663513e-01" purity="6.0238730907440186e-01" nType="-99"/>
          <Node pos="r" depth="2" NCoef="0" IVar="-1" Cut="0.0000000000000000e+00" cType="1" res="-5.9403250925242901e-03" rms="3.6233443021774292e-01" purity="4.2204239964485168e-01" nType="-99"/>
        </Node>
        <Node pos="r" depth="1" NCoef="0" IVar="0" Cut="1.1731903553009033e+00" cType="1" res="-1.3565203547477722e-01" rms="3.5659673810005188e-01" purity="2.6208093762397766e-01" nType="0">
          <Node pos="l" depth="2" NCoef="0" IVar="-1" Cut="0.0000000000000000e+00" cType="1" res="-8.4632625803351402e-03" rms="4.0936920046806335e-01" purity="4.4744351506233215e-01" nType="-99"/>
          <Node pos="r" depth="2" NCoef="0" IVar="-1" Cut="0.0000000000000000e+00" cType="1" res="-5.4570633918046951e-02" rms="3.0880251526832581e-01" purity="1.6163812577724457e-01" nType="-99"/>
        </Node>
      </Node>
    </BinaryTree>
    <BinaryTree type="DecisionTree" boostWeight="1.0000000000000000e+00" itree="57">
      <Node pos="s" depth="0" NCoef="0" IVar="11" Cut="1.2539779663085938e+02" cType="1" res="1.7289515817537904e-03" rms="3.7805244326591492e-01" purity="5.0306463241577148e-01" nType="0">
        <Node pos="l" depth="1" NCoef="0" IVar="2" Cut="1.1065015792846680e+00" cType="1" res="1.6708802431821823e-02" rms="3.8295277953147888e-01" purity="5.5423551797866821e-01" nType="0">
          <Node pos="l" depth="2" NCoef="0" IVar="-1" Cut="0.0000000000000000e+00" cType="1" res="2.6315512135624886e-02" rms="3.1935086846351624e-01" purity="7.9812586307525635e-01" nType="-99"/>
          <Node pos="r" depth="2" NCoef="0" IVar="-1" Cut="0.0000000000000000e+00" cType="1" res="1.1133888037875295e-03" rms="3.9423909783363342e-01" purity="5.0139516592025757e-01" nType="-99"/>
        </Node>
        <Node pos="r" depth="1" NCoef="0" IVar="8" Cut="9.9704331159591675e-01" cType="1" res="-8.4197208285331726e-02" rms="3.3594971895217896e-01" purity="2.0954294502735138e-01" nType="0">
          <Node pos="l" depth="2" NCoef="0" IVar="-1" Cut="0.0000000000000000e+00" cType="1" res="-4.3916720896959305e-02" rms="4.5863392949104309e-01" purity="3.9460968971252441e-01" nType="-99"/>
          <Node pos="r" depth="2" NCoef="0" IVar="-1" Cut="0.0000000000000000e+00" cType="1" res="-1.9231272861361504e-02" rms="2.8544303774833679e-01" purity="1.5863819420337677e-01" nType="-99"/>
        </Node>
      </Node>
    </BinaryTree>
    <BinaryTree type="DecisionTree" boostWeight="1.0000000000000000e+00" itree="58">
      <Node pos="s" depth="0" NCoef="0" IVar="9" Cut="1.5850878125000000e+05" cType="1" res="-2.1169937681406736e-03" rms="3.7475526332855225e-01" purity="5.0002491474151611e-01" nType="0">
        <Node pos="l" depth="1" NCoef="0" IVar="6" Cut="6.1453361511230469e+01" cType="1" res="-1.0124856978654861e-01" rms="3.4231856465339661e-01" purity="1.7507302761077881e-01" nType="0">
          <Node pos="l" depth="2" NCoef="0" IVar="-1" Cut="0.0000000000000000e+00" cType="1" res="-1.5597371384501457e-02" rms="2.7725008130073547e-01" purity="1.3611164689064026e-01" nType="-99"/>
          <Node pos="r" depth="2" NCoef="0" IVar="-1" Cut="0.0000000000000000e+00" cType="1" res="-4.9380850046873093e-02" rms="4.0738126635551453e-01" purity="2.3718912899494171e-01" nType="-99"/>
        </Node>
        <Node pos="r" depth="1" NCoef="0" IVar="6" Cut="1.3138020324707031e+02" cType="1" res="1.2837430462241173e-02" rms="3.7715277075767517e-01" purity="5.4904532432556152e-01" nType="0">
          <Node pos="l" depth="2" NCoef="0" IVar="-1" Cut="0.0000000000000000e+00" cType="1" res="5.9969746507704258e-04" rms="3.8993987441062927e-01" purity="5.1325333118438721e-01" nType="-99"/>
          <Node pos="r" depth="2" NCoef="0" IVar="-1" Cut="0.0000000000000000e+00" cType="1" res="4.7043710947036743e-02" rms="1.8888235092163086e-01" purity="8.9489716291427612e-01" nType="-99"/>
        </Node>
      </Node>
    </BinaryTree>
    <BinaryTree type="DecisionTree" boostWeight="1.0000000000000000e+00" itree="59">
      <Node pos="s" depth="0" NCoef="0" IVar="3" Cut="1.4076371192932129e+00" cType="1" res="-3.8184635341167450e-03" rms="3.7613663077354431e-01" purity="4.8836359381675720e-01" nType="0">
        <Node pos="l" depth="1" NCoef="0" IVar="4" Cut="1.7561148405075073e+00" cType="1" res="6.2323499470949173e-02" rms="3.6911633610725403e-01" purity="6.1202311515808105e-01" nType="0">
          <Node pos="l" depth="2" NCoef="0" IVar="-1" Cut="0.0000000000000000e+00" cType="1" res="4.3588001281023026e-02" rms="3.3278858661651611e-01" purity="8.0812793970108032e-01" nType="-99"/>
          <Node pos="r" depth="2" NCoef="0" IVar="-1" Cut="0.0000000000000000e+00" cType="1" res="-4.5694392174482346e-03" rms="3.8675180077552795e-01" purity="4.1674047708511353e-01" nType="-99"/>
        </Node>
        <Node pos="r" depth="1" NCoef="0" IVar="8" Cut="9.6151888370513916e-01" cType="1" res="-1.9984237849712372e-02" rms="3.7606772780418396e-01" purity="4.5813989639282227e-01" nType="0">
          <Node pos="l" depth="2" NCoef="0" IVar="-1" Cut="0.0000000000000000e+00" cType="1" res="9.5381727442145348e-03" rms="3.8128018379211426e-01" purity="6.7225545644760132e-01" nType="-99"/>
          <Node pos="r" depth="2" NCoef="0" IVar="-1" Cut="0.0000000000000000e+00" cType="1" res="-1.4475217089056969e-02" rms="3.6967581510543823e-01" purity="3.3333891630172729e-01" nType="-99"/>
        </Node>
      </Node>
    </BinaryTree>
    <BinaryTree type="DecisionTree" boostWeight="1.0000000000000000e+00" itree="60">
      <Node pos="s" depth="0" NCoef="0" IVar="11" Cut="5.8857368469238281e+01" cType="1" res="1.8243864178657532e-02" rms="3.7729778885841370e-01" purity="5.1953923702239990e-01" nType="0">
        <Node pos="l" depth="1" NCoef="0" IVar="1" Cut="1.8328402042388916e+00" cType="1" res="-7.1458227932453156e-02" rms="4.0559422969818115e-01" purity="3.0055302381515503e-01" nType="0">
          <Node pos="l" depth="2" NCoef="0" IVar="-1" Cut="0.0000000000000000e+00" cType="1" res="1.1204275302588940e-02" rms="4.3572312593460083e-01" purity="5.5563050508499146e-01" nType="-99"/>
          <Node pos="r" depth="2" NCoef="0" IVar="-1" Cut="0.0000000000000000e+00" cType="1" res="-2.4196399375796318e-02" rms="3.9779996871948242e-01" purity="2.6173338294029236e-01" nType="-99"/>
        </Node>
        <Node pos="r" depth="1" NCoef="0" IVar="11" Cut="1.2066657257080078e+02" cType="1" res="4.4408027082681656e-02" rms="3.6450034379959106e-01" purity="5.8341282606124878e-01" nType="0">
          <Node pos="l" depth="2" NCoef="0" IVar="-1" Cut="0.0000000000000000e+00" cType="1" res="1.8582746386528015e-02" rms="3.7507009506225586e-01" purity="6.7134934663772583e-01" nType="-99"/>
          <Node pos="r" depth="2" NCoef="0" IVar="-1" Cut="0.0000000000000000e+00" cType="1" res="-9.9306777119636536e-03" rms="3.1106549501419067e-01" purity="2.5248447060585022e-01" nType="-99"/>
        </Node>
      </Node>
    </BinaryTree>
    <BinaryTree type="DecisionTree" boostWeight="1.0000000000000000e+00" itree="61">
      <Node pos="s" depth="0" NCoef="0" IVar="2" Cut="3.0658795833587646e+00" cType="1" res="-1.8120920285582542e-02" rms="3.7942269444465637e-01" purity="4.8358908295631409e-01" nType="0">
        <Node pos="l" depth="1" NCoef="0" IVar="4" Cut="7.2458440065383911e-01" cType="1" res="-4.8485323786735535e-03" rms="3.8534897565841675e-01" purity="5.3189998865127563e-01" nType="0">
          <Node pos="l" depth="2" NCoef="0" IVar="-1" Cut="0.0000000000000000e+00" cType="1" res="5.9204299002885818e-02" rms="2.8506410121917725e-01" purity="8.3725070953369141e-01" nType="-99"/>
          <Node pos="r" depth="2" NCoef="0" IVar="-1" Cut="0.0000000000000000e+00" cType="1" res="-3.7467447109520435e-03" rms="3.8626295328140259e-01" purity="5.2030187845230103e-01" nType="-99"/>
        </Node>
        <Node pos="r" depth="1" NCoef="0" IVar="5" Cut="4.7568300366401672e-01" cType="1" res="-1.0605470836162567e-01" rms="3.2409030199050903e-01" purity="1.6351389884948730e-01" nType="0">
          <Node pos="l" depth="2" NCoef="0" IVar="-1" Cut="0.0000000000000000e+00" cType="1" res="-6.0152482241392136e-02" rms="3.9238911867141724e-01" purity="2.3055031895637512e-01" nType="-99"/>
          <Node pos="r" depth="2" NCoef="0" IVar="-1" Cut="0.0000000000000000e+00" cType="1" res="-1.8987024202942848e-02" rms="2.6704543828964233e-01" purity="1.3226625323295593e-01" nType="-99"/>
        </Node>
      </Node>
    </BinaryTree>
    <BinaryTree type="DecisionTree" boostWeight="1.0000000000000000e+00" itree="62">
      <Node pos="s" depth="0" NCoef="0" IVar="6" Cut="9.9717025756835938e+01" cType="1" res="-1.3067671097815037e-02" rms="3.7610453367233276e-01" purity="4.8673558235168457e-01" nType="0">
